<?xml version="1.0"?>
<opencv_storage>
<cascade>
  <stageType>BOOST</stageType>
  <featureType>HAAR</featureType>
  <height>24</height>
  <width>24</width>
  <stageParams>
    <boostType>GAB</boostType>
    <minHitRate>9.9500000476837158e-01</minHitRate>
    <maxFalseAlarm>5.0000000000000000e-01</maxFalseAlarm>
    <weightTrimRate>9.4999998807907104e-01</weightTrimRate>
    <maxDepth>1</maxDepth>
    <maxWeakCount>100</maxWeakCount></stageParams>
  <featureParams>
    <maxCatCount>0</maxCatCount>
    <featSize>1</featSize>
    <mode>BASIC</mode></featureParams>
  <stageNum>19</stageNum>
  <stages>
    <!-- stage 0 -->
    <_>
      <maxWeakCount>5</maxWeakCount>
      <stageThreshold>-2.7974948883056641e+00</stageThreshold>
      <weakClassifiers>
        <_>
          <internalNodes>
            0 -1 158 3.2390216365456581e-03</internalNodes>
          <leafValues>
            -9.3850809335708618e-01 -1.5037594363093376e-02</leafValues></_>
        <_>
          <internalNodes>
            0 -1 44 -2.8747648000717163e-01</internalNodes>
          <leafValues>
            3.5419315099716187e-01 -8.5938310623168945e-01</leafValues></_>
        <_>
          <internalNodes>
            0 -1 22 -3.7732655182480812e-03</internalNodes>
          <leafValues>
            5.1665264368057251e-01 -7.3404401540756226e-01</leafValues></_>
        <_>
          <internalNodes>
            0 -1 86 -2.5062087923288345e-02</internalNodes>
          <leafValues>
            5.2055364847183228e-01 -5.9281969070434570e-01</leafValues></_>
        <_>
          <internalNodes>
            0 -1 11 -2.2489631548523903e-02</internalNodes>
          <leafValues>
            3.2726007699966431e-01 -8.6494666337966919e-01</leafValues></_></weakClassifiers></_>
    <!-- stage 1 -->
    <_>
      <maxWeakCount>6</maxWeakCount>
      <stageThreshold>-2.0164978504180908e+00</stageThreshold>
      <weakClassifiers>
        <_>
          <internalNodes>
            0 -1 160 3.2986567821353674e-03</internalNodes>
          <leafValues>
            -9.0380954742431641e-01 2.1333333849906921e-01</leafValues></_>
        <_>
          <internalNodes>
            0 -1 69 2.3972900584340096e-02</internalNodes>
          <leafValues>
            -7.6385521888732910e-01 3.5089221596717834e-01</leafValues></_>
        <_>
          <internalNodes>
            0 -1 142 2.0837388001382351e-03</internalNodes>
          <leafValues>
            -7.2199100255966187e-01 4.2377239465713501e-01</leafValues></_>
        <_>
          <internalNodes>
            0 -1 48 -4.6559618785977364e-03</internalNodes>
          <leafValues>
            4.9148580431938171e-01 -5.2301770448684692e-01</leafValues></_>
        <_>
          <internalNodes>
            0 -1 118 -1.0780267417430878e-02</internalNodes>
          <leafValues>
            2.6811304688453674e-01 -8.4563696384429932e-01</leafValues></_>
        <_>
          <internalNodes>
            0 -1 152 2.7475371025502682e-03</internalNodes>
          <leafValues>
            -3.8644102215766907e-01 6.9859689474105835e-01</leafValues></_></weakClassifiers></_>
    <!-- stage 2 -->
    <_>
      <maxWeakCount>7</maxWeakCount>
      <stageThreshold>-2.0917513370513916e+00</stageThreshold>
      <weakClassifiers>
        <_>
          <internalNodes>
            0 -1 55 -7.1581870317459106e-02</internalNodes>
          <leafValues>
            2.0408162847161293e-02 -9.1041868925094604e-01</leafValues></_>
        <_>
          <internalNodes>
            0 -1 17 -3.6424414720386267e-03</internalNodes>
          <leafValues>
            3.5540202260017395e-01 -7.4271643161773682e-01</leafValues></_>
        <_>
          <internalNodes>
            0 -1 87 7.6749185100197792e-03</internalNodes>
          <leafValues>
            -7.0692330598831177e-01 3.3622726798057556e-01</leafValues></_>
        <_>
          <internalNodes>
            0 -1 148 -1.7328353133052588e-03</internalNodes>
          <leafValues>
            5.8542245626449585e-01 -4.1711223125457764e-01</leafValues></_>
        <_>
          <internalNodes>
            0 -1 139 -4.8023755662143230e-03</internalNodes>
          <leafValues>
            5.0694817304611206e-01 -4.9404123425483704e-01</leafValues></_>
        <_>
          <internalNodes>
            0 -1 29 8.4961622953414917e-02</internalNodes>
          <leafValues>
            -3.9233228564262390e-01 5.6888592243194580e-01</leafValues></_>
        <_>
          <internalNodes>
            0 -1 13 -4.1496440768241882e-02</internalNodes>
          <leafValues>
            5.7080340385437012e-01 -3.5291808843612671e-01</leafValues></_></weakClassifiers></_>
    <!-- stage 3 -->
    <_>
      <maxWeakCount>7</maxWeakCount>
      <stageThreshold>-2.2841992378234863e+00</stageThreshold>
      <weakClassifiers>
        <_>
          <internalNodes>
            0 -1 75 -1.2524408288300037e-02</internalNodes>
          <leafValues>
            2.0689655095338821e-02 -8.8788598775863647e-01</leafValues></_>
        <_>
          <internalNodes>
            0 -1 64 -1.9596746563911438e-01</internalNodes>
          <leafValues>
            6.8143546581268311e-02 -7.8110951185226440e-01</leafValues></_>
        <_>
          <internalNodes>
            0 -1 23 -2.0438870415091515e-03</internalNodes>
          <leafValues>
            3.7130934000015259e-01 -5.7510334253311157e-01</leafValues></_>
        <_>
          <internalNodes>
            0 -1 125 -1.6306608915328979e-02</internalNodes>
          <leafValues>
            4.4656276702880859e-01 -3.8445636630058289e-01</leafValues></_>
        <_>
          <internalNodes>
            0 -1 54 1.5514153242111206e-01</internalNodes>
          <leafValues>
            -3.3071461319923401e-01 5.2225798368453979e-01</leafValues></_>
        <_>
          <internalNodes>
            0 -1 26 -2.4209991097450256e-03</internalNodes>
          <leafValues>
            4.0643188357353210e-01 -5.0916886329650879e-01</leafValues></_>
        <_>
          <internalNodes>
            0 -1 79 -1.2882528826594353e-03</internalNodes>
          <leafValues>
            2.9702010750770569e-01 -5.8061432838439941e-01</leafValues></_></weakClassifiers></_>
    <!-- stage 4 -->
    <_>
      <maxWeakCount>8</maxWeakCount>
      <stageThreshold>-2.1617844104766846e+00</stageThreshold>
      <weakClassifiers>
        <_>
          <internalNodes>
            0 -1 123 -4.6629942953586578e-03</internalNodes>
          <leafValues>
            -2.1081081032752991e-01 -8.8474577665328979e-01</leafValues></_>
        <_>
          <internalNodes>
            0 -1 105 5.7866312563419342e-03</internalNodes>
          <leafValues>
            -5.7812738418579102e-01 3.5836526751518250e-01</leafValues></_>
        <_>
          <internalNodes>
            0 -1 44 -2.8740620613098145e-01</internalNodes>
          <leafValues>
            3.1916922330856323e-01 -5.4748773574829102e-01</leafValues></_>
        <_>
          <internalNodes>
            0 -1 140 7.7048912644386292e-03</internalNodes>
          <leafValues>
            -4.7767907381057739e-01 3.8582313060760498e-01</leafValues></_>
        <_>
          <internalNodes>
            0 -1 133 -2.6447750860825181e-04</internalNodes>
          <leafValues>
            3.4695485234260559e-01 -4.9095669388771057e-01</leafValues></_>
        <_>
          <internalNodes>
            0 -1 4 -2.3323083296418190e-03</internalNodes>
          <leafValues>
            5.2955245971679688e-01 -3.2750600576400757e-01</leafValues></_>
        <_>
          <internalNodes>
            0 -1 93 6.3773023430258036e-04</internalNodes>
          <leafValues>
            2.2410832345485687e-01 -8.7730407714843750e-01</leafValues></_>
        <_>
          <internalNodes>
            0 -1 94 -1.9798062567133456e-04</internalNodes>
          <leafValues>
            -7.8395867347717285e-01 2.0237314701080322e-01</leafValues></_></weakClassifiers></_>
    <!-- stage 5 -->
    <_>
      <maxWeakCount>8</maxWeakCount>
      <stageThreshold>-2.3015491962432861e+00</stageThreshold>
      <weakClassifiers>
        <_>
          <internalNodes>
            0 -1 76 -3.7898782640695572e-02</internalNodes>
          <leafValues>
            2.1126760542392731e-01 -8.6324000358581543e-01</leafValues></_>
        <_>
          <internalNodes>
            0 -1 149 -4.6089803799986839e-03</internalNodes>
          <leafValues>
            1.9444811344146729e-01 -6.1588191986083984e-01</leafValues></_>
        <_>
          <internalNodes>
            0 -1 32 -3.6057554185390472e-02</internalNodes>
          <leafValues>
            3.4103211760520935e-01 -5.0242573022842407e-01</leafValues></_>
        <_>
          <internalNodes>
            0 -1 112 9.6266996115446091e-03</internalNodes>
          <leafValues>
            -3.5679978132247925e-01 4.7102552652359009e-01</leafValues></_>
        <_>
          <internalNodes>
            0 -1 16 -2.1356088109314442e-03</internalNodes>
          <leafValues>
            5.0195676088333130e-01 -3.4291672706604004e-01</leafValues></_>
        <_>
          <internalNodes>
            0 -1 58 -6.9250635802745819e-02</internalNodes>
          <leafValues>
            2.7140191197395325e-01 -6.9594132900238037e-01</leafValues></_>
        <_>
          <internalNodes>
            0 -1 65 -3.2918769866228104e-02</internalNodes>
          <leafValues>
            3.7900584936141968e-01 -4.0721136331558228e-01</leafValues></_>
        <_>
          <internalNodes>
            0 -1 145 -1.4693920966237783e-03</internalNodes>
          <leafValues>
            5.0460815429687500e-01 -3.2934901118278503e-01</leafValues></_></weakClassifiers></_>
    <!-- stage 6 -->
    <_>
      <maxWeakCount>7</maxWeakCount>
      <stageThreshold>-1.8506717681884766e+00</stageThreshold>
      <weakClassifiers>
        <_>
          <internalNodes>
            0 -1 146 -1.8817780539393425e-02</internalNodes>
          <leafValues>
            -3.8461539149284363e-01 -8.9409369230270386e-01</leafValues></_>
        <_>
          <internalNodes>
            0 -1 28 -1.0595977306365967e-01</internalNodes>
          <leafValues>
            6.7444765567779541e-01 -5.1122778654098511e-01</leafValues></_>
        <_>
          <internalNodes>
            0 -1 138 -1.3762706890702248e-02</internalNodes>
          <leafValues>
            3.5433968901634216e-01 -4.6920037269592285e-01</leafValues></_>
        <_>
          <internalNodes>
            0 -1 156 -5.3140676754992455e-05</internalNodes>
          <leafValues>
            2.8439936041831970e-01 -4.9910026788711548e-01</leafValues></_>
        <_>
          <internalNodes>
            0 -1 78 -7.4822921305894852e-04</internalNodes>
          <leafValues>
            -7.6918590068817139e-01 1.7291730642318726e-01</leafValues></_>
        <_>
          <internalNodes>
            0 -1 78 1.1300069745630026e-03</internalNodes>
          <leafValues>
            2.1391189098358154e-01 -7.8497201204299927e-01</leafValues></_>
        <_>
          <internalNodes>
            0 -1 20 -3.8899569772183895e-03</internalNodes>
          <leafValues>
            3.5150533914566040e-01 -4.2476806044578552e-01</leafValues></_></weakClassifiers></_>
    <!-- stage 7 -->
    <_>
      <maxWeakCount>6</maxWeakCount>
      <stageThreshold>-1.9073547124862671e+00</stageThreshold>
      <weakClassifiers>
        <_>
          <internalNodes>
            0 -1 52 3.3462863415479660e-02</internalNodes>
          <leafValues>
            -8.6654311418533325e-01 4.3478261679410934e-02</leafValues></_>
        <_>
          <internalNodes>
            0 -1 42 -7.0858456194400787e-02</internalNodes>
          <leafValues>
            3.2706254720687866e-01 -5.8967685699462891e-01</leafValues></_>
        <_>
          <internalNodes>
            0 -1 92 -3.6380658275447786e-04</internalNodes>
          <leafValues>
            -8.7974882125854492e-01 2.0863997936248779e-01</leafValues></_>
        <_>
          <internalNodes>
            0 -1 111 -7.7224433422088623e-02</internalNodes>
          <leafValues>
            3.5767665505409241e-01 -4.6419939398765564e-01</leafValues></_>
        <_>
          <internalNodes>
            0 -1 91 3.8255908293649554e-04</internalNodes>
          <leafValues>
            2.3715811967849731e-01 -7.2339391708374023e-01</leafValues></_>
        <_>
          <internalNodes>
            0 -1 70 1.7140986397862434e-02</internalNodes>
          <leafValues>
            -2.5436607003211975e-01 7.4550527334213257e-01</leafValues></_></weakClassifiers></_>
    <!-- stage 8 -->
    <_>
      <maxWeakCount>9</maxWeakCount>
      <stageThreshold>-2.1375384330749512e+00</stageThreshold>
      <weakClassifiers>
        <_>
          <internalNodes>
            0 -1 33 -3.6866965889930725e-01</internalNodes>
          <leafValues>
            -2.3004694283008575e-01 -8.9199805259704590e-01</leafValues></_>
        <_>
          <internalNodes>
            0 -1 75 -1.2026026844978333e-02</internalNodes>
          <leafValues>
            3.4935030341148376e-01 -5.7821279764175415e-01</leafValues></_>
        <_>
          <internalNodes>
            0 -1 102 2.5799893774092197e-03</internalNodes>
          <leafValues>
            1.4648680388927460e-01 -8.8278806209564209e-01</leafValues></_>
        <_>
          <internalNodes>
            0 -1 113 -3.0195410363376141e-04</internalNodes>
          <leafValues>
            -8.1946843862533569e-01 1.7143735289573669e-01</leafValues></_>
        <_>
          <internalNodes>
            0 -1 108 -4.1579946991987526e-04</internalNodes>
          <leafValues>
            -8.3953285217285156e-01 1.5761421620845795e-01</leafValues></_>
        <_>
          <internalNodes>
            0 -1 19 -4.0826471522450447e-03</internalNodes>
          <leafValues>
            2.9072120785713196e-01 -4.8787280917167664e-01</leafValues></_>
        <_>
          <internalNodes>
            0 -1 98 1.1189088225364685e-01</internalNodes>
          <leafValues>
            -2.1028816699981689e-01 7.7681154012680054e-01</leafValues></_>
        <_>
          <internalNodes>
            0 -1 63 4.0557008236646652e-02</internalNodes>
          <leafValues>
            -2.9875206947326660e-01 4.7003626823425293e-01</leafValues></_>
        <_>
          <internalNodes>
            0 -1 100 -5.3243088768795133e-04</internalNodes>
          <leafValues>
            -7.8469657897949219e-01 1.8300177156925201e-01</leafValues></_></weakClassifiers></_>
    <!-- stage 9 -->
    <_>
      <maxWeakCount>8</maxWeakCount>
      <stageThreshold>-1.9932020902633667e+00</stageThreshold>
      <weakClassifiers>
        <_>
          <internalNodes>
            0 -1 90 6.0212038457393646e-02</internalNodes>
          <leafValues>
            -8.4754174947738647e-01 3.9393940567970276e-01</leafValues></_>
        <_>
          <internalNodes>
            0 -1 37 -1.6658868407830596e-03</internalNodes>
          <leafValues>
            1.2479629367589951e-01 -6.5592396259307861e-01</leafValues></_>
        <_>
          <internalNodes>
            0 -1 141 8.8317831978201866e-03</internalNodes>
          <leafValues>
            -5.3703027963638306e-01 2.8448364138603210e-01</leafValues></_>
        <_>
          <internalNodes>
            0 -1 100 6.7571341060101986e-04</internalNodes>
          <leafValues>
            1.8706704676151276e-01 -8.1982892751693726e-01</leafValues></_>
        <_>
          <internalNodes>
            0 -1 88 -3.8342773914337158e-02</internalNodes>
          <leafValues>
            3.8516342639923096e-01 -3.3849492669105530e-01</leafValues></_>
        <_>
          <internalNodes>
            0 -1 150 1.3285665772855282e-03</internalNodes>
          <leafValues>
            2.0542182028293610e-01 -7.1962726116180420e-01</leafValues></_>
        <_>
          <internalNodes>
            0 -1 134 -1.2239738134667277e-03</internalNodes>
          <leafValues>
            3.6946231126785278e-01 -3.5614162683486938e-01</leafValues></_>
        <_>
          <internalNodes>
            0 -1 40 2.0162270963191986e-01</internalNodes>
          <leafValues>
            -1.8883471190929413e-01 7.5547707080841064e-01</leafValues></_></weakClassifiers></_>
    <!-- stage 10 -->
    <_>
      <maxWeakCount>9</maxWeakCount>
      <stageThreshold>-1.8818879127502441e+00</stageThreshold>
      <weakClassifiers>
        <_>
          <internalNodes>
            0 -1 38 -8.0431319773197174e-02</internalNodes>
          <leafValues>
            6.2500000000000000e-02 -8.5544371604919434e-01</leafValues></_>
        <_>
          <internalNodes>
            0 -1 35 -9.4579420983791351e-03</internalNodes>
          <leafValues>
            1.2180924415588379e-01 -6.6219937801361084e-01</leafValues></_>
        <_>
          <internalNodes>
            0 -1 137 2.3377595935016870e-03</internalNodes>
          <leafValues>
            -5.5855923891067505e-01 2.5813156366348267e-01</leafValues></_>
        <_>
          <internalNodes>
            0 -1 96 -1.8100370652973652e-03</internalNodes>
          <leafValues>
            3.6971315741539001e-01 -3.7923982739448547e-01</leafValues></_>
        <_>
          <internalNodes>
            0 -1 120 -8.2935905084013939e-04</internalNodes>
          <leafValues>
            3.0851063132286072e-01 -4.3574994802474976e-01</leafValues></_>
        <_>
          <internalNodes>
            0 -1 34 -5.6977188214659691e-03</internalNodes>
          <leafValues>
            1.7000643908977509e-01 -8.5066497325897217e-01</leafValues></_>
        <_>
          <internalNodes>
            0 -1 21 -2.0555015653371811e-03</internalNodes>
          <leafValues>
            3.5096353292465210e-01 -4.1225028038024902e-01</leafValues></_>
        <_>
          <internalNodes>
            0 -1 97 -7.4783165473490953e-04</internalNodes>
          <leafValues>
            2.8603792190551758e-01 -4.7098347544670105e-01</leafValues></_>
        <_>
          <internalNodes>
            0 -1 129 2.8330076020210981e-04</internalNodes>
          <leafValues>
            -5.4684573411941528e-01 2.1655710041522980e-01</leafValues></_></weakClassifiers></_>
    <!-- stage 11 -->
    <_>
      <maxWeakCount>10</maxWeakCount>
      <stageThreshold>-1.9489374160766602e+00</stageThreshold>
      <weakClassifiers>
        <_>
          <internalNodes>
            0 -1 154 1.0496866889297962e-02</internalNodes>
          <leafValues>
            -8.7330752611160278e-01 -3.2967033982276917e-01</leafValues></_>
        <_>
          <internalNodes>
            0 -1 8 2.8151064179837704e-03</internalNodes>
          <leafValues>
            -5.3719252347946167e-01 1.5314105153083801e-01</leafValues></_>
        <_>
          <internalNodes>
            0 -1 33 -3.6199548840522766e-01</internalNodes>
          <leafValues>
            5.1917791366577148e-01 -2.6980349421501160e-01</leafValues></_>
        <_>
          <internalNodes>
            0 -1 106 -1.1123837903141975e-02</internalNodes>
          <leafValues>
            3.4073206782341003e-01 -3.4551739692687988e-01</leafValues></_>
        <_>
          <internalNodes>
            0 -1 135 -2.4489644914865494e-02</internalNodes>
          <leafValues>
            6.0792279243469238e-01 -1.9695040583610535e-01</leafValues></_>
        <_>
          <internalNodes>
            0 -1 7 2.5002663023769855e-03</internalNodes>
          <leafValues>
            -2.4478769302368164e-01 4.7355192899703979e-01</leafValues></_>
        <_>
          <internalNodes>
            0 -1 50 1.3481550849974155e-03</internalNodes>
          <leafValues>
            1.9824233651161194e-01 -6.2098401784896851e-01</leafValues></_>
        <_>
          <internalNodes>
            0 -1 101 -3.4205382689833641e-03</internalNodes>
          <leafValues>
            5.1831394433975220e-01 -2.1856838464736938e-01</leafValues></_>
        <_>
          <internalNodes>
            0 -1 151 9.2625841498374939e-03</internalNodes>
          <leafValues>
            -2.7263537049293518e-01 5.4055577516555786e-01</leafValues></_>
        <_>
          <internalNodes>
            0 -1 81 -3.2212032238021493e-04</internalNodes>
          <leafValues>
            -7.1994775533676147e-01 1.8788534402847290e-01</leafValues></_></weakClassifiers></_>
    <!-- stage 12 -->
    <_>
      <maxWeakCount>10</maxWeakCount>
      <stageThreshold>-1.9947015047073364e+00</stageThreshold>
      <weakClassifiers>
        <_>
          <internalNodes>
            0 -1 155 -2.1198550239205360e-03</internalNodes>
          <leafValues>
            -2.5423729419708252e-01 -8.6116319894790649e-01</leafValues></_>
        <_>
          <internalNodes>
            0 -1 47 -8.7704677134752274e-03</internalNodes>
          <leafValues>
            7.3462255299091339e-02 -5.6010937690734863e-01</leafValues></_>
        <_>
          <internalNodes>
            0 -1 146 -1.8627762794494629e-02</internalNodes>
          <leafValues>
            4.8743063211441040e-01 -2.5240251421928406e-01</leafValues></_>
        <_>
          <internalNodes>
            0 -1 5 2.0719219464808702e-03</internalNodes>
          <leafValues>
            -2.6558357477188110e-01 3.9631751179695129e-01</leafValues></_>
        <_>
          <internalNodes>
            0 -1 159 4.4996920041739941e-04</internalNodes>
          <leafValues>
            -3.7833228707313538e-01 2.7542197704315186e-01</leafValues></_>
        <_>
          <internalNodes>
            0 -1 154 -4.8014950007200241e-03</internalNodes>
          <leafValues>
            5.6636726856231689e-01 -2.0767979323863983e-01</leafValues></_>
        <_>
          <internalNodes>
            0 -1 115 -2.7195990085601807e-02</internalNodes>
          <leafValues>
            2.2267815470695496e-01 -7.2895240783691406e-01</leafValues></_>
        <_>
          <internalNodes>
            0 -1 66 5.1149070262908936e-02</internalNodes>
          <leafValues>
            -3.0677869915962219e-01 3.7875387072563171e-01</leafValues></_>
        <_>
          <internalNodes>
            0 -1 25 -3.0301092192530632e-03</internalNodes>
          <leafValues>
            4.3985325098037720e-01 -2.7819249033927917e-01</leafValues></_>
        <_>
          <internalNodes>
            0 -1 94 2.1071403170935810e-04</internalNodes>
          <leafValues>
            1.5302911400794983e-01 -8.3510732650756836e-01</leafValues></_></weakClassifiers></_>
    <!-- stage 13 -->
    <_>
      <maxWeakCount>13</maxWeakCount>
      <stageThreshold>-2.1050586700439453e+00</stageThreshold>
      <weakClassifiers>
        <_>
          <internalNodes>
            0 -1 122 1.4408802613615990e-02</internalNodes>
          <leafValues>
            -8.5880166292190552e-01 -1.7525772750377655e-01</leafValues></_>
        <_>
          <internalNodes>
            0 -1 128 -2.4362793192267418e-03</internalNodes>
          <leafValues>
            -2.7308937162160873e-02 -6.3170719146728516e-01</leafValues></_>
        <_>
          <internalNodes>
            0 -1 119 1.1084345169365406e-03</internalNodes>
          <leafValues>
            8.1367172300815582e-02 -8.1785720586776733e-01</leafValues></_>
        <_>
          <internalNodes>
            0 -1 164 -4.0710922330617905e-03</internalNodes>
          <leafValues>
            -9.5866554975509644e-01 1.0591986030340195e-01</leafValues></_>
        <_>
          <internalNodes>
            0 -1 77 -4.0404079481959343e-03</internalNodes>
          <leafValues>
            -7.5651258230209351e-01 1.2544697523117065e-01</leafValues></_>
        <_>
          <internalNodes>
            0 -1 107 5.0837327726185322e-03</internalNodes>
          <leafValues>
            -3.7933400273323059e-01 2.5021028518676758e-01</leafValues></_>
        <_>
          <internalNodes>
            0 -1 82 2.8289153706282377e-03</internalNodes>
          <leafValues>
            1.7606127262115479e-01 -6.4712160825729370e-01</leafValues></_>
        <_>
          <internalNodes>
            0 -1 99 -2.4716421030461788e-03</internalNodes>
          <leafValues>
            -8.8595628738403320e-01 7.4478968977928162e-02</leafValues></_>
        <_>
          <internalNodes>
            0 -1 39 3.2133751665242016e-04</internalNodes>
          <leafValues>
            -3.3741721510887146e-01 2.6422819495201111e-01</leafValues></_>
        <_>
          <internalNodes>
            0 -1 83 -2.6216888800263405e-03</internalNodes>
          <leafValues>
            4.1274118423461914e-01 -2.3257143795490265e-01</leafValues></_>
        <_>
          <internalNodes>
            0 -1 59 5.0700427964329720e-03</internalNodes>
          <leafValues>
            -1.6071738302707672e-01 5.9743130207061768e-01</leafValues></_>
        <_>
          <internalNodes>
            0 -1 84 -3.8650038186460733e-03</internalNodes>
          <leafValues>
            -9.5966285467147827e-01 1.1032602190971375e-01</leafValues></_>
        <_>
          <internalNodes>
            0 -1 157 -7.1180090308189392e-03</internalNodes>
          <leafValues>
            -7.1988576650619507e-01 9.9451124668121338e-02</leafValues></_></weakClassifiers></_>
    <!-- stage 14 -->
    <_>
      <maxWeakCount>12</maxWeakCount>
      <stageThreshold>-1.9461733102798462e+00</stageThreshold>
      <weakClassifiers>
        <_>
          <internalNodes>
            0 -1 130 -7.9257108271121979e-02</internalNodes>
          <leafValues>
            -9.5890410244464874e-02 -8.5392743349075317e-01</leafValues></_>
        <_>
          <internalNodes>
            0 -1 6 3.1009572558104992e-03</internalNodes>
          <leafValues>
            -5.1652127504348755e-01 3.7045025825500488e-01</leafValues></_>
        <_>
          <internalNodes>
            0 -1 31 -9.1573474928736687e-03</internalNodes>
          <leafValues>
            3.9907398819923401e-01 -2.8637263178825378e-01</leafValues></_>
        <_>
          <internalNodes>
            0 -1 144 3.3817957155406475e-03</internalNodes>
          <leafValues>
            -2.4123507738113403e-01 4.3171393871307373e-01</leafValues></_>
        <_>
          <internalNodes>
            0 -1 30 2.0152473449707031e-01</internalNodes>
          <leafValues>
            -1.2704238295555115e-01 7.4815434217453003e-01</leafValues></_>
        <_>
          <internalNodes>
            0 -1 72 -6.0510158538818359e-02</internalNodes>
          <leafValues>
            4.4422519207000732e-01 -2.1646374464035034e-01</leafValues></_>
        <_>
          <internalNodes>
            0 -1 36 -1.5940246521495283e-04</internalNodes>
          <leafValues>
            2.4867141246795654e-01 -3.7521240115165710e-01</leafValues></_>
        <_>
          <internalNodes>
            0 -1 114 -5.3155096247792244e-04</internalNodes>
          <leafValues>
            -7.4685853719711304e-01 1.5890681743621826e-01</leafValues></_>
        <_>
          <internalNodes>
            0 -1 116 -2.8936923481523991e-03</internalNodes>
          <leafValues>
            3.6010208725929260e-01 -2.8068035840988159e-01</leafValues></_>
        <_>
          <internalNodes>
            0 -1 85 -3.6829881370067596e-02</internalNodes>
          <leafValues>
            3.8320243358612061e-01 -2.6113468408584595e-01</leafValues></_>
        <_>
          <internalNodes>
            0 -1 62 6.2974095344543457e-03</internalNodes>
          <leafValues>
            -2.4199458956718445e-01 4.7508358955383301e-01</leafValues></_>
        <_>
          <internalNodes>
            0 -1 162 -2.9205803293734789e-03</internalNodes>
          <leafValues>
            -6.3340532779693604e-01 1.7262601852416992e-01</leafValues></_></weakClassifiers></_>
    <!-- stage 15 -->
    <_>
      <maxWeakCount>11</maxWeakCount>
      <stageThreshold>-1.8144598007202148e+00</stageThreshold>
      <weakClassifiers>
        <_>
          <internalNodes>
            0 -1 46 4.7735899686813354e-02</internalNodes>
          <leafValues>
            -8.4428441524505615e-01 3.5714286565780640e-01</leafValues></_>
        <_>
          <internalNodes>
            0 -1 53 -4.2599329026415944e-04</internalNodes>
          <leafValues>
            -6.3049909658730030e-03 -6.1038774251937866e-01</leafValues></_>
        <_>
          <internalNodes>
            0 -1 132 -2.9578395187854767e-03</internalNodes>
          <leafValues>
            1.6873231530189514e-01 -5.0295120477676392e-01</leafValues></_>
        <_>
          <internalNodes>
            0 -1 18 -3.0516837723553181e-03</internalNodes>
          <leafValues>
            1.7549815773963928e-01 -5.4371809959411621e-01</leafValues></_>
        <_>
          <internalNodes>
            0 -1 163 -2.4004061706364155e-03</internalNodes>
          <leafValues>
            -6.1686658859252930e-01 1.8035201728343964e-01</leafValues></_>
        <_>
          <internalNodes>
            0 -1 14 2.2211014293134212e-03</internalNodes>
          <leafValues>
            9.4419047236442566e-02 -9.1705220937728882e-01</leafValues></_>
        <_>
          <internalNodes>
            0 -1 41 -4.9566961824893951e-02</internalNodes>
          <leafValues>
            6.7223882675170898e-01 -1.7336045205593109e-01</leafValues></_>
        <_>
          <internalNodes>
            0 -1 147 -2.3976308293640614e-03</internalNodes>
          <leafValues>
            3.5949039459228516e-01 -3.6382624506950378e-01</leafValues></_>
        <_>
          <internalNodes>
            0 -1 74 -8.0636776983737946e-03</internalNodes>
          <leafValues>
            4.8811689019203186e-01 -2.0687611401081085e-01</leafValues></_>
        <_>
          <internalNodes>
            0 -1 124 -6.3179489225149155e-03</internalNodes>
          <leafValues>
            3.0153882503509521e-01 -3.0501517653465271e-01</leafValues></_>
        <_>
          <internalNodes>
            0 -1 110 2.7453467249870300e-02</internalNodes>
          <leafValues>
            -3.5459452867507935e-01 2.8764793276786804e-01</leafValues></_></weakClassifiers></_>
    <!-- stage 16 -->
    <_>
      <maxWeakCount>11</maxWeakCount>
      <stageThreshold>-1.9522976875305176e+00</stageThreshold>
      <weakClassifiers>
        <_>
          <internalNodes>
            0 -1 43 2.1162994205951691e-01</internalNodes>
          <leafValues>
            -8.4132677316665649e-01 5.7894736528396606e-01</leafValues></_>
        <_>
          <internalNodes>
            0 -1 10 -2.8603072278201580e-03</internalNodes>
          <leafValues>
            4.2814105749130249e-02 -5.8371007442474365e-01</leafValues></_>
        <_>
          <internalNodes>
            0 -1 117 5.5580050684511662e-03</internalNodes>
          <leafValues>
            -2.4692636728286743e-01 4.3962326645851135e-01</leafValues></_>
        <_>
          <internalNodes>
            0 -1 71 7.4729777406901121e-04</internalNodes>
          <leafValues>
            2.0116131007671356e-01 -5.3304904699325562e-01</leafValues></_>
        <_>
          <internalNodes>
            0 -1 57 -3.9950851351022720e-03</internalNodes>
          <leafValues>
            -8.2812428474426270e-01 1.0490696132183075e-01</leafValues></_>
        <_>
          <internalNodes>
            0 -1 2 -3.2730740495026112e-03</internalNodes>
          <leafValues>
            -5.9673506021499634e-01 1.4593486487865448e-01</leafValues></_>
        <_>
          <internalNodes>
            0 -1 80 -5.2441544830799103e-03</internalNodes>
          <leafValues>
            3.2517629861831665e-01 -2.6823750138282776e-01</leafValues></_>
        <_>
          <internalNodes>
            0 -1 56 -8.7691855151206255e-04</internalNodes>
          <leafValues>
            -7.6344901323318481e-01 1.0846631228923798e-01</leafValues></_>
        <_>
          <internalNodes>
            0 -1 49 -1.1317912489175797e-02</internalNodes>
          <leafValues>
            2.4249786138534546e-01 -3.6742982268333435e-01</leafValues></_>
        <_>
          <internalNodes>
            0 -1 103 2.7954304823651910e-04</internalNodes>
          <leafValues>
            1.7417301237583160e-01 -5.4845643043518066e-01</leafValues></_>
        <_>
          <internalNodes>
            0 -1 60 8.3179236389696598e-04</internalNodes>
          <leafValues>
            -2.4656741321086884e-01 3.8649281859397888e-01</leafValues></_></weakClassifiers></_>
    <!-- stage 17 -->
    <_>
      <maxWeakCount>11</maxWeakCount>
      <stageThreshold>-1.8010938167572021e+00</stageThreshold>
      <weakClassifiers>
        <_>
          <internalNodes>
            0 -1 153 -3.7504616193473339e-03</internalNodes>
          <leafValues>
            -3.9603960514068604e-01 -8.7207031250000000e-01</leafValues></_>
        <_>
          <internalNodes>
            0 -1 61 -5.9846513904631138e-03</internalNodes>
          <leafValues>
            1.4837832748889923e-01 -5.1869875192642212e-01</leafValues></_>
        <_>
          <internalNodes>
            0 -1 143 4.4441287172958255e-04</internalNodes>
          <leafValues>
            1.2372296303510666e-01 -5.5151075124740601e-01</leafValues></_>
        <_>
          <internalNodes>
            0 -1 127 1.1637865100055933e-03</internalNodes>
          <leafValues>
            1.3260196149349213e-01 -6.0487395524978638e-01</leafValues></_>
        <_>
          <internalNodes>
            0 -1 95 -1.6542960656806827e-03</internalNodes>
          <leafValues>
            4.1365042328834534e-01 -2.0564185082912445e-01</leafValues></_>
        <_>
          <internalNodes>
            0 -1 24 -7.8958291560411453e-03</internalNodes>
          <leafValues>
            -5.9481823444366455e-01 1.6263759136199951e-01</leafValues></_>
        <_>
          <internalNodes>
            0 -1 67 -9.6943799871951342e-04</internalNodes>
          <leafValues>
            -8.4534496068954468e-01 1.1735970526933670e-01</leafValues></_>
        <_>
          <internalNodes>
            0 -1 120 -8.2981656305491924e-04</internalNodes>
          <leafValues>
            2.0113646984100342e-01 -4.0258997678756714e-01</leafValues></_>
        <_>
          <internalNodes>
            0 -1 161 3.2886050757952034e-04</internalNodes>
          <leafValues>
            -3.1535634398460388e-01 2.7732545137405396e-01</leafValues></_>
        <_>
          <internalNodes>
            0 -1 126 1.5141438925638795e-03</internalNodes>
          <leafValues>
            -2.4004292488098145e-01 3.3756366372108459e-01</leafValues></_>
        <_>
          <internalNodes>
            0 -1 68 1.0127695277333260e-02</internalNodes>
          <leafValues>
            -1.7649471759796143e-01 4.9961072206497192e-01</leafValues></_></weakClassifiers></_>
    <!-- stage 18 -->
    <_>
      <maxWeakCount>16</maxWeakCount>
      <stageThreshold>-2.1201796531677246e+00</stageThreshold>
      <weakClassifiers>
        <_>
          <internalNodes>
            0 -1 89 -8.5239648818969727e-02</internalNodes>
          <leafValues>
            6.4705884456634521e-01 -8.4057319164276123e-01</leafValues></_>
        <_>
          <internalNodes>
            0 -1 45 -1.4069783501327038e-03</internalNodes>
          <leafValues>
            -1.1735487729310989e-01 -6.7292565107345581e-01</leafValues></_>
        <_>
          <internalNodes>
            0 -1 131 7.4530148413032293e-04</internalNodes>
          <leafValues>
            -4.3594917654991150e-01 1.8186062574386597e-01</leafValues></_>
        <_>
          <internalNodes>
            0 -1 73 -1.2631149729713798e-05</internalNodes>
          <leafValues>
            2.5779238343238831e-01 -3.8308116793632507e-01</leafValues></_>
        <_>
          <internalNodes>
            0 -1 51 -7.8957862569950521e-05</internalNodes>
          <leafValues>
            2.2910813987255096e-01 -4.0732648968696594e-01</leafValues></_>
        <_>
          <internalNodes>
            0 -1 0 6.5727084875106812e-02</internalNodes>
          <leafValues>
            -1.3457891345024109e-01 6.1671292781829834e-01</leafValues></_>
        <_>
          <internalNodes>
            0 -1 15 -5.4259476019069552e-04</internalNodes>
          <leafValues>
            3.2629579305648804e-01 -2.7923187613487244e-01</leafValues></_>
        <_>
          <internalNodes>
            0 -1 121 -1.4556584879755974e-02</internalNodes>
          <leafValues>
            1.5614545345306396e-01 -6.4245736598968506e-01</leafValues></_>
        <_>
          <internalNodes>
            0 -1 12 -3.2809376716613770e-02</internalNodes>
          <leafValues>
            -5.8817011117935181e-01 1.4030759036540985e-01</leafValues></_>
        <_>
          <internalNodes>
            0 -1 27 -5.3047947585582733e-02</internalNodes>
          <leafValues>
            6.3700866699218750e-01 -1.5088707208633423e-01</leafValues></_>
        <_>
          <internalNodes>
            0 -1 1 7.0777624845504761e-02</internalNodes>
          <leafValues>
            -3.2588309049606323e-01 4.2271775007247925e-01</leafValues></_>
        <_>
          <internalNodes>
            0 -1 104 4.2924601584672928e-03</internalNodes>
          <leafValues>
            -2.1604791283607483e-01 4.7485804557800293e-01</leafValues></_>
        <_>
          <internalNodes>
            0 -1 9 1.7251914832741022e-03</internalNodes>
          <leafValues>
            -2.0965588092803955e-01 4.4616076350212097e-01</leafValues></_>
        <_>
          <internalNodes>
            0 -1 109 1.0324690956622362e-03</internalNodes>
          <leafValues>
            1.2225776910781860e-01 -8.0514609813690186e-01</leafValues></_>
        <_>
          <internalNodes>
            0 -1 136 -2.5945656001567841e-02</internalNodes>
          <leafValues>
            5.4788351058959961e-01 -1.7695777118206024e-01</leafValues></_>
        <_>
          <internalNodes>
            0 -1 3 1.8320988165214658e-03</internalNodes>
          <leafValues>
            -2.5884771347045898e-01 3.9677646756172180e-01</leafValues></_></weakClassifiers></_></stages>
  <features>
    <_>
      <rects>
        <_>
          0 1 16 6 -1.</_>
        <_>
          8 1 8 6 2.</_></rects>
      <tilted>0</tilted></_>
    <_>
      <rects>
        <_>
          0 2 7 15 -1.</_>
        <_>
          0 7 7 5 3.</_></rects>
      <tilted>0</tilted></_>
    <_>
      <rects>
        <_>
          0 3 1 6 -1.</_>
        <_>
          0 5 1 2 3.</_></rects>
      <tilted>0</tilted></_>
    <_>
      <rects>
        <_>
          0 4 2 8 -1.</_>
        <_>
          0 4 1 4 2.</_>
        <_>
          1 8 1 4 2.</_></rects>
      <tilted>0</tilted></_>
    <_>
      <rects>
        <_>
          0 5 2 6 -1.</_>
        <_>
          1 5 1 6 2.</_></rects>
      <tilted>0</tilted></_>
    <_>
      <rects>
        <_>
          0 7 2 8 -1.</_>
        <_>
          0 7 1 4 2.</_>
        <_>
          1 11 1 4 2.</_></rects>
      <tilted>0</tilted></_>
    <_>
      <rects>
        <_>
          0 8 2 3 -1.</_>
        <_>
          1 8 1 3 2.</_></rects>
      <tilted>0</tilted></_>
    <_>
      <rects>
        <_>
          0 8 4 2 -1.</_>
        <_>
          2 8 2 2 2.</_></rects>
      <tilted>0</tilted></_>
    <_>
      <rects>
        <_>
          0 9 2 6 -1.</_>
        <_>
          0 9 1 3 2.</_>
        <_>
          1 12 1 3 2.</_></rects>
      <tilted>0</tilted></_>
    <_>
      <rects>
        <_>
          0 10 2 6 -1.</_>
        <_>
          0 10 1 3 2.</_>
        <_>
          1 13 1 3 2.</_></rects>
      <tilted>0</tilted></_>
    <_>
      <rects>
        <_>
          0 12 2 6 -1.</_>
        <_>
          0 12 1 3 2.</_>
        <_>
          1 15 1 3 2.</_></rects>
      <tilted>0</tilted></_>
    <_>
      <rects>
        <_>
          0 12 12 12 -1.</_>
        <_>
          0 18 12 6 2.</_></rects>
      <tilted>0</tilted></_>
    <_>
      <rects>
        <_>
          0 12 24 12 -1.</_>
        <_>
          0 12 12 6 2.</_>
        <_>
          12 18 12 6 2.</_></rects>
      <tilted>0</tilted></_>
    <_>
      <rects>
        <_>
          0 13 24 4 -1.</_>
        <_>
          0 15 24 2 2.</_></rects>
      <tilted>0</tilted></_>
    <_>
      <rects>
        <_>
          0 14 1 4 -1.</_>
        <_>
          0 16 1 2 2.</_></rects>
      <tilted>0</tilted></_>
    <_>
      <rects>
        <_>
          0 15 3 1 -1.</_>
        <_>
          1 15 1 1 3.</_></rects>
      <tilted>0</tilted></_>
    <_>
      <rects>
        <_>
          0 15 3 3 -1.</_>
        <_>
          1 15 1 3 3.</_></rects>
      <tilted>0</tilted></_>
    <_>
      <rects>
        <_>
          0 15 2 5 -1.</_>
        <_>
          1 15 1 5 2.</_></rects>
      <tilted>0</tilted></_>
    <_>
      <rects>
        <_>
          0 16 4 8 -1.</_>
        <_>
          2 16 2 8 2.</_></rects>
      <tilted>0</tilted></_>
    <_>
      <rects>
        <_>
          0 16 4 6 -1.</_>
        <_>
          0 18 4 2 3.</_></rects>
      <tilted>0</tilted></_>
    <_>
      <rects>
        <_>
          0 17 2 7 -1.</_>
        <_>
          1 17 1 7 2.</_></rects>
      <tilted>0</tilted></_>
    <_>
      <rects>
        <_>
          0 18 6 1 -1.</_>
        <_>
          2 18 2 1 3.</_></rects>
      <tilted>0</tilted></_>
    <_>
      <rects>
        <_>
          0 18 4 4 -1.</_>
        <_>
          2 18 2 4 2.</_></rects>
      <tilted>0</tilted></_>
    <_>
      <rects>
        <_>
          0 19 6 1 -1.</_>
        <_>
          2 19 2 1 3.</_></rects>
      <tilted>0</tilted></_>
    <_>
      <rects>
        <_>
          0 19 22 1 -1.</_>
        <_>
          11 19 11 1 2.</_></rects>
      <tilted>0</tilted></_>
    <_>
      <rects>
        <_>
          0 20 4 1 -1.</_>
        <_>
          2 20 2 1 2.</_></rects>
      <tilted>0</tilted></_>
    <_>
      <rects>
        <_>
          0 20 6 3 -1.</_>
        <_>
          3 20 3 3 2.</_></rects>
      <tilted>0</tilted></_>
    <_>
      <rects>
        <_>
          1 1 5 12 -1.</_>
        <_>
          1 7 5 6 2.</_></rects>
      <tilted>0</tilted></_>
    <_>
      <rects>
        <_>
          1 1 5 18 -1.</_>
        <_>
          1 7 5 6 3.</_></rects>
      <tilted>0</tilted></_>
    <_>
      <rects>
        <_>
          1 1 21 12 -1.</_>
        <_>
          8 1 7 12 3.</_></rects>
      <tilted>0</tilted></_>
    <_>
      <rects>
        <_>
          1 2 21 9 -1.</_>
        <_>
          8 2 7 9 3.</_></rects>
      <tilted>0</tilted></_>
    <_>
      <rects>
        <_>
          1 3 8 3 -1.</_>
        <_>
          5 3 4 3 2.</_></rects>
      <tilted>0</tilted></_>
    <_>
      <rects>
        <_>
          1 4 23 6 -1.</_>
        <_>
          1 6 23 2 3.</_></rects>
      <tilted>0</tilted></_>
    <_>
      <rects>
        <_>
          1 8 22 12 -1.</_>
        <_>
          1 14 22 6 2.</_></rects>
      <tilted>0</tilted></_>
    <_>
      <rects>
        <_>
          1 12 7 12 -1.</_>
        <_>
          1 18 7 6 2.</_></rects>
      <tilted>0</tilted></_>
    <_>
      <rects>
        <_>
          1 18 14 4 -1.</_>
        <_>
          1 18 7 2 2.</_>
        <_>
          8 20 7 2 2.</_></rects>
      <tilted>0</tilted></_>
    <_>
      <rects>
        <_>
          1 19 4 2 -1.</_>
        <_>
          1 19 2 1 2.</_>
        <_>
          3 20 2 1 2.</_></rects>
      <tilted>0</tilted></_>
    <_>
      <rects>
        <_>
          1 22 4 2 -1.</_>
        <_>
          1 23 4 1 2.</_></rects>
      <tilted>0</tilted></_>
    <_>
      <rects>
        <_>
          2 1 3 18 -1.</_>
        <_>
          2 7 3 6 3.</_></rects>
      <tilted>0</tilted></_>
    <_>
      <rects>
        <_>
          2 2 2 6 -1.</_>
        <_>
          2 2 1 3 2.</_>
        <_>
          3 5 1 3 2.</_></rects>
      <tilted>0</tilted></_>
    <_>
      <rects>
        <_>
          2 2 21 10 -1.</_>
        <_>
          9 2 7 10 3.</_></rects>
      <tilted>0</tilted></_>
    <_>
      <rects>
        <_>
          2 3 3 15 -1.</_>
        <_>
          2 8 3 5 3.</_></rects>
      <tilted>0</tilted></_>
    <_>
      <rects>
        <_>
          2 4 16 6 -1.</_>
        <_>
          2 6 16 2 3.</_></rects>
      <tilted>0</tilted></_>
    <_>
      <rects>
        <_>
          2 7 21 4 -1.</_>
        <_>
          9 7 7 4 3.</_></rects>
      <tilted>0</tilted></_>
    <_>
      <rects>
        <_>
          2 8 20 16 -1.</_>
        <_>
          2 16 20 8 2.</_></rects>
      <tilted>0</tilted></_>
    <_>
      <rects>
        <_>
          2 18 8 4 -1.</_>
        <_>
          2 18 4 2 2.</_>
        <_>
          6 20 4 2 2.</_></rects>
      <tilted>0</tilted></_>
    <_>
      <rects>
        <_>
          2 18 21 1 -1.</_>
        <_>
          9 18 7 1 3.</_></rects>
      <tilted>0</tilted></_>
    <_>
      <rects>
        <_>
          3 11 6 6 -1.</_>
        <_>
          3 11 3 3 2.</_>
        <_>
          6 14 3 3 2.</_></rects>
      <tilted>0</tilted></_>
    <_>
      <rects>
        <_>
          3 14 1 9 -1.</_>
        <_>
          3 17 1 3 3.</_></rects>
      <tilted>0</tilted></_>
    <_>
      <rects>
        <_>
          3 17 17 6 -1.</_>
        <_>
          3 19 17 2 3.</_></rects>
      <tilted>0</tilted></_>
    <_>
      <rects>
        <_>
          3 20 14 2 -1.</_>
        <_>
          3 20 7 1 2.</_>
        <_>
          10 21 7 1 2.</_></rects>
      <tilted>0</tilted></_>
    <_>
      <rects>
        <_>
          3 21 15 3 -1.</_>
        <_>
          8 21 5 3 3.</_></rects>
      <tilted>0</tilted></_>
    <_>
      <rects>
        <_>
          3 21 16 3 -1.</_>
        <_>
          3 22 16 1 3.</_></rects>
      <tilted>0</tilted></_>
    <_>
      <rects>
        <_>
          3 22 1 2 -1.</_>
        <_>
          3 23 1 1 2.</_></rects>
      <tilted>0</tilted></_>
    <_>
      <rects>
        <_>
          4 2 12 15 -1.</_>
        <_>
          4 7 12 5 3.</_></rects>
      <tilted>0</tilted></_>
    <_>
      <rects>
        <_>
          4 4 18 6 -1.</_>
        <_>
          4 6 18 2 3.</_></rects>
      <tilted>0</tilted></_>
    <_>
      <rects>
        <_>
          4 10 4 2 -1.</_>
        <_>
          4 10 2 1 2.</_>
        <_>
          6 11 2 1 2.</_></rects>
      <tilted>0</tilted></_>
    <_>
      <rects>
        <_>
          4 10 12 1 -1.</_>
        <_>
          8 10 4 1 3.</_></rects>
      <tilted>0</tilted></_>
    <_>
      <rects>
        <_>
          4 10 8 14 -1.</_>
        <_>
          4 17 8 7 2.</_></rects>
      <tilted>0</tilted></_>
    <_>
      <rects>
        <_>
          5 0 10 2 -1.</_>
        <_>
          5 1 10 1 2.</_></rects>
      <tilted>0</tilted></_>
    <_>
      <rects>
        <_>
          5 2 4 2 -1.</_>
        <_>
          5 2 2 1 2.</_>
        <_>
          7 3 2 1 2.</_></rects>
      <tilted>0</tilted></_>
    <_>
      <rects>
        <_>
          5 6 2 14 -1.</_>
        <_>
          5 6 1 7 2.</_>
        <_>
          6 13 1 7 2.</_></rects>
      <tilted>0</tilted></_>
    <_>
      <rects>
        <_>
          5 6 9 3 -1.</_>
        <_>
          5 7 9 1 3.</_></rects>
      <tilted>0</tilted></_>
    <_>
      <rects>
        <_>
          5 6 13 6 -1.</_>
        <_>
          5 8 13 2 3.</_></rects>
      <tilted>0</tilted></_>
    <_>
      <rects>
        <_>
          5 8 14 14 -1.</_>
        <_>
          5 15 14 7 2.</_></rects>
      <tilted>0</tilted></_>
    <_>
      <rects>
        <_>
          6 0 12 9 -1.</_>
        <_>
          6 3 12 3 3.</_></rects>
      <tilted>0</tilted></_>
    <_>
      <rects>
        <_>
          6 6 11 6 -1.</_>
        <_>
          6 8 11 2 3.</_></rects>
      <tilted>0</tilted></_>
    <_>
      <rects>
        <_>
          6 9 1 3 -1.</_>
        <_>
          6 10 1 1 3.</_></rects>
      <tilted>0</tilted></_>
    <_>
      <rects>
        <_>
          6 12 7 3 -1.</_>
        <_>
          6 13 7 1 3.</_></rects>
      <tilted>0</tilted></_>
    <_>
      <rects>
        <_>
          7 6 8 6 -1.</_>
        <_>
          7 8 8 2 3.</_></rects>
      <tilted>0</tilted></_>
    <_>
      <rects>
        <_>
          7 6 12 3 -1.</_>
        <_>
          7 7 12 1 3.</_></rects>
      <tilted>0</tilted></_>
    <_>
      <rects>
        <_>
          7 9 6 2 -1.</_>
        <_>
          9 9 2 2 3.</_></rects>
      <tilted>0</tilted></_>
    <_>
      <rects>
        <_>
          7 11 11 9 -1.</_>
        <_>
          7 14 11 3 3.</_></rects>
      <tilted>0</tilted></_>
    <_>
      <rects>
        <_>
          7 16 1 3 -1.</_>
        <_>
          7 17 1 1 3.</_></rects>
      <tilted>0</tilted></_>
    <_>
      <rects>
        <_>
          7 20 10 3 -1.</_>
        <_>
          7 21 10 1 3.</_></rects>
      <tilted>0</tilted></_>
    <_>
      <rects>
        <_>
          8 0 7 2 -1.</_>
        <_>
          8 1 7 1 2.</_></rects>
      <tilted>0</tilted></_>
    <_>
      <rects>
        <_>
          8 12 5 6 -1.</_>
        <_>
          8 14 5 2 3.</_></rects>
      <tilted>0</tilted></_>
    <_>
      <rects>
        <_>
          8 19 6 4 -1.</_>
        <_>
          11 19 3 4 2.</_></rects>
      <tilted>0</tilted></_>
    <_>
      <rects>
        <_>
          8 23 6 1 -1.</_>
        <_>
          10 23 2 1 3.</_></rects>
      <tilted>0</tilted></_>
    <_>
      <rects>
        <_>
          9 0 13 8 -1.</_>
        <_>
          9 4 13 4 2.</_></rects>
      <tilted>0</tilted></_>
    <_>
      <rects>
        <_>
          9 1 13 2 -1.</_>
        <_>
          9 2 13 1 2.</_></rects>
      <tilted>0</tilted></_>
    <_>
      <rects>
        <_>
          9 9 3 1 -1.</_>
        <_>
          10 9 1 1 3.</_></rects>
      <tilted>0</tilted></_>
    <_>
      <rects>
        <_>
          9 19 6 3 -1.</_>
        <_>
          12 19 3 3 2.</_></rects>
      <tilted>0</tilted></_>
    <_>
      <rects>
        <_>
          10 0 2 3 -1.</_>
        <_>
          10 1 2 1 3.</_></rects>
      <tilted>0</tilted></_>
    <_>
      <rects>
        <_>
          10 0 6 2 -1.</_>
        <_>
          12 0 2 2 3.</_></rects>
      <tilted>0</tilted></_>
    <_>
      <rects>
        <_>
          10 4 9 6 -1.</_>
        <_>
          10 6 9 2 3.</_></rects>
      <tilted>0</tilted></_>
    <_>
      <rects>
        <_>
          10 4 14 6 -1.</_>
        <_>
          10 6 14 2 3.</_></rects>
      <tilted>0</tilted></_>
    <_>
      <rects>
        <_>
          10 6 9 4 -1.</_>
        <_>
          10 8 9 2 2.</_></rects>
      <tilted>0</tilted></_>
    <_>
      <rects>
        <_>
          10 8 7 8 -1.</_>
        <_>
          10 12 7 4 2.</_></rects>
      <tilted>0</tilted></_>
    <_>
      <rects>
        <_>
          10 13 14 6 -1.</_>
        <_>
          10 13 7 3 2.</_>
        <_>
          17 16 7 3 2.</_></rects>
      <tilted>0</tilted></_>
    <_>
      <rects>
        <_>
          10 16 6 6 -1.</_>
        <_>
          10 18 6 2 3.</_></rects>
      <tilted>0</tilted></_>
    <_>
      <rects>
        <_>
          10 21 3 2 -1.</_>
        <_>
          11 21 1 2 3.</_></rects>
      <tilted>0</tilted></_>
    <_>
      <rects>
        <_>
          10 22 3 1 -1.</_>
        <_>
          11 22 1 1 3.</_></rects>
      <tilted>0</tilted></_>
    <_>
      <rects>
        <_>
          10 22 3 2 -1.</_>
        <_>
          11 22 1 2 3.</_></rects>
      <tilted>0</tilted></_>
    <_>
      <rects>
        <_>
          10 23 3 1 -1.</_>
        <_>
          11 23 1 1 3.</_></rects>
      <tilted>0</tilted></_>
    <_>
      <rects>
        <_>
          11 0 1 3 -1.</_>
        <_>
          11 1 1 1 3.</_></rects>
      <tilted>0</tilted></_>
    <_>
      <rects>
        <_>
          11 0 4 2 -1.</_>
        <_>
          11 1 4 1 2.</_></rects>
      <tilted>0</tilted></_>
    <_>
      <rects>
        <_>
          11 3 3 4 -1.</_>
        <_>
          11 5 3 2 2.</_></rects>
      <tilted>0</tilted></_>
    <_>
      <rects>
        <_>
          11 7 12 16 -1.</_>
        <_>
          11 7 6 8 2.</_>
        <_>
          17 15 6 8 2.</_></rects>
      <tilted>0</tilted></_>
    <_>
      <rects>
        <_>
          11 8 2 8 -1.</_>
        <_>
          12 8 1 8 2.</_></rects>
      <tilted>0</tilted></_>
    <_>
      <rects>
        <_>
          11 11 2 2 -1.</_>
        <_>
          12 11 1 2 2.</_></rects>
      <tilted>0</tilted></_>
    <_>
      <rects>
        <_>
          11 19 5 3 -1.</_>
        <_>
          11 20 5 1 3.</_></rects>
      <tilted>0</tilted></_>
    <_>
      <rects>
        <_>
          11 21 6 3 -1.</_>
        <_>
          13 21 2 3 3.</_></rects>
      <tilted>0</tilted></_>
    <_>
      <rects>
        <_>
          11 23 4 1 -1.</_>
        <_>
          13 23 2 1 2.</_></rects>
      <tilted>0</tilted></_>
    <_>
      <rects>
        <_>
          12 0 8 2 -1.</_>
        <_>
          12 0 4 1 2.</_>
        <_>
          16 1 4 1 2.</_></rects>
      <tilted>0</tilted></_>
    <_>
      <rects>
        <_>
          12 0 10 2 -1.</_>
        <_>
          12 0 5 1 2.</_>
        <_>
          17 1 5 1 2.</_></rects>
      <tilted>0</tilted></_>
    <_>
      <rects>
        <_>
          12 0 10 4 -1.</_>
        <_>
          12 2 10 2 2.</_></rects>
      <tilted>0</tilted></_>
    <_>
      <rects>
        <_>
          12 18 10 4 -1.</_>
        <_>
          12 18 5 2 2.</_>
        <_>
          17 20 5 2 2.</_></rects>
      <tilted>0</tilted></_>
    <_>
      <rects>
        <_>
          12 23 3 1 -1.</_>
        <_>
          13 23 1 1 3.</_></rects>
      <tilted>0</tilted></_>
    <_>
      <rects>
        <_>
          13 0 3 2 -1.</_>
        <_>
          14 0 1 2 3.</_></rects>
      <tilted>0</tilted></_>
    <_>
      <rects>
        <_>
          13 3 4 12 -1.</_>
        <_>
          13 7 4 4 3.</_></rects>
      <tilted>0</tilted></_>
    <_>
      <rects>
        <_>
          13 7 4 16 -1.</_>
        <_>
          13 15 4 8 2.</_></rects>
      <tilted>0</tilted></_>
    <_>
      <rects>
        <_>
          13 10 8 6 -1.</_>
        <_>
          13 10 4 3 2.</_>
        <_>
          17 13 4 3 2.</_></rects>
      <tilted>0</tilted></_>
    <_>
      <rects>
        <_>
          13 23 3 1 -1.</_>
        <_>
          14 23 1 1 3.</_></rects>
      <tilted>0</tilted></_>
    <_>
      <rects>
        <_>
          14 21 2 3 -1.</_>
        <_>
          15 21 1 3 2.</_></rects>
      <tilted>0</tilted></_>
    <_>
      <rects>
        <_>
          15 10 5 14 -1.</_>
        <_>
          15 17 5 7 2.</_></rects>
      <tilted>0</tilted></_>
    <_>
      <rects>
        <_>
          16 5 3 14 -1.</_>
        <_>
          17 5 1 14 3.</_></rects>
      <tilted>0</tilted></_>
    <_>
      <rects>
        <_>
          16 12 4 6 -1.</_>
        <_>
          16 12 2 3 2.</_>
        <_>
          18 15 2 3 2.</_></rects>
      <tilted>0</tilted></_>
    <_>
      <rects>
        <_>
          16 12 6 12 -1.</_>
        <_>
          16 18 6 6 2.</_></rects>
      <tilted>0</tilted></_>
    <_>
      <rects>
        <_>
          16 18 4 2 -1.</_>
        <_>
          16 19 4 1 2.</_></rects>
      <tilted>0</tilted></_>
    <_>
      <rects>
        <_>
          16 19 7 3 -1.</_>
        <_>
          16 20 7 1 3.</_></rects>
      <tilted>0</tilted></_>
    <_>
      <rects>
        <_>
          17 12 7 12 -1.</_>
        <_>
          17 18 7 6 2.</_></rects>
      <tilted>0</tilted></_>
    <_>
      <rects>
        <_>
          17 14 3 8 -1.</_>
        <_>
          18 14 1 8 3.</_></rects>
      <tilted>0</tilted></_>
    <_>
      <rects>
        <_>
          17 22 3 2 -1.</_>
        <_>
          17 23 3 1 2.</_></rects>
      <tilted>0</tilted></_>
    <_>
      <rects>
        <_>
          18 3 6 6 -1.</_>
        <_>
          20 3 2 6 3.</_></rects>
      <tilted>0</tilted></_>
    <_>
      <rects>
        <_>
          18 6 6 14 -1.</_>
        <_>
          20 6 2 14 3.</_></rects>
      <tilted>0</tilted></_>
    <_>
      <rects>
        <_>
          18 13 2 10 -1.</_>
        <_>
          18 13 1 5 2.</_>
        <_>
          19 18 1 5 2.</_></rects>
      <tilted>0</tilted></_>
    <_>
      <rects>
        <_>
          18 17 6 3 -1.</_>
        <_>
          18 18 6 1 3.</_></rects>
      <tilted>0</tilted></_>
    <_>
      <rects>
        <_>
          18 22 5 2 -1.</_>
        <_>
          18 23 5 1 2.</_></rects>
      <tilted>0</tilted></_>
    <_>
      <rects>
        <_>
          18 23 6 1 -1.</_>
        <_>
          21 23 3 1 2.</_></rects>
      <tilted>0</tilted></_>
    <_>
      <rects>
        <_>
          19 1 3 18 -1.</_>
        <_>
          19 7 3 6 3.</_></rects>
      <tilted>0</tilted></_>
    <_>
      <rects>
        <_>
          19 16 4 4 -1.</_>
        <_>
          19 16 2 2 2.</_>
        <_>
          21 18 2 2 2.</_></rects>
      <tilted>0</tilted></_>
    <_>
      <rects>
        <_>
          19 16 5 6 -1.</_>
        <_>
          19 18 5 2 3.</_></rects>
      <tilted>0</tilted></_>
    <_>
      <rects>
        <_>
          19 22 2 2 -1.</_>
        <_>
          19 23 2 1 2.</_></rects>
      <tilted>0</tilted></_>
    <_>
      <rects>
        <_>
          19 22 3 2 -1.</_>
        <_>
          19 23 3 1 2.</_></rects>
      <tilted>0</tilted></_>
    <_>
      <rects>
        <_>
          20 0 2 12 -1.</_>
        <_>
          20 6 2 6 2.</_></rects>
      <tilted>0</tilted></_>
    <_>
      <rects>
        <_>
          20 0 2 14 -1.</_>
        <_>
          20 7 2 7 2.</_></rects>
      <tilted>0</tilted></_>
    <_>
      <rects>
        <_>
          20 14 4 6 -1.</_>
        <_>
          20 14 2 3 2.</_>
        <_>
          22 17 2 3 2.</_></rects>
      <tilted>0</tilted></_>
    <_>
      <rects>
        <_>
          20 14 3 9 -1.</_>
        <_>
          20 17 3 3 3.</_></rects>
      <tilted>0</tilted></_>
    <_>
      <rects>
        <_>
          20 16 3 6 -1.</_>
        <_>
          20 18 3 2 3.</_></rects>
      <tilted>0</tilted></_>
    <_>
      <rects>
        <_>
          20 17 4 6 -1.</_>
        <_>
          22 17 2 6 2.</_></rects>
      <tilted>0</tilted></_>
    <_>
      <rects>
        <_>
          20 17 4 7 -1.</_>
        <_>
          22 17 2 7 2.</_></rects>
      <tilted>0</tilted></_>
    <_>
      <rects>
        <_>
          20 18 4 3 -1.</_>
        <_>
          22 18 2 3 2.</_></rects>
      <tilted>0</tilted></_>
    <_>
      <rects>
        <_>
          20 18 4 3 -1.</_>
        <_>
          20 19 4 1 3.</_></rects>
      <tilted>0</tilted></_>
    <_>
      <rects>
        <_>
          20 20 3 3 -1.</_>
        <_>
          20 21 3 1 3.</_></rects>
      <tilted>0</tilted></_>
    <_>
      <rects>
        <_>
          21 7 3 2 -1.</_>
        <_>
          22 7 1 2 3.</_></rects>
      <tilted>0</tilted></_>
    <_>
      <rects>
        <_>
          21 8 1 12 -1.</_>
        <_>
          21 14 1 6 2.</_></rects>
      <tilted>0</tilted></_>
    <_>
      <rects>
        <_>
          21 14 2 6 -1.</_>
        <_>
          21 16 2 2 3.</_></rects>
      <tilted>0</tilted></_>
    <_>
      <rects>
        <_>
          21 15 3 2 -1.</_>
        <_>
          22 15 1 2 3.</_></rects>
      <tilted>0</tilted></_>
    <_>
      <rects>
        <_>
          21 15 3 4 -1.</_>
        <_>
          22 15 1 4 3.</_></rects>
      <tilted>0</tilted></_>
    <_>
      <rects>
        <_>
          21 15 3 4 -1.</_>
        <_>
          21 17 3 2 2.</_></rects>
      <tilted>0</tilted></_>
    <_>
      <rects>
        <_>
          22 4 2 8 -1.</_>
        <_>
          23 4 1 8 2.</_></rects>
      <tilted>0</tilted></_>
    <_>
      <rects>
        <_>
          22 6 2 5 -1.</_>
        <_>
          23 6 1 5 2.</_></rects>
      <tilted>0</tilted></_>
    <_>
      <rects>
        <_>
          22 8 2 4 -1.</_>
        <_>
          23 8 1 4 2.</_></rects>
      <tilted>0</tilted></_>
    <_>
      <rects>
        <_>
          22 8 2 10 -1.</_>
        <_>
          22 8 1 5 2.</_>
        <_>
          23 13 1 5 2.</_></rects>
      <tilted>0</tilted></_>
    <_>
      <rects>
        <_>
          22 9 2 1 -1.</_>
        <_>
          23 9 1 1 2.</_></rects>
      <tilted>0</tilted></_>
    <_>
      <rects>
        <_>
          22 13 1 6 -1.</_>
        <_>
          22 15 1 2 3.</_></rects>
      <tilted>0</tilted></_>
    <_>
      <rects>
        <_>
          22 13 2 6 -1.</_>
        <_>
          22 15 2 2 3.</_></rects>
      <tilted>0</tilted></_>
    <_>
      <rects>
        <_>
          22 15 2 5 -1.</_>
        <_>
          23 15 1 5 2.</_></rects>
      <tilted>0</tilted></_>
    <_>
      <rects>
        <_>
          22 16 2 1 -1.</_>
        <_>
          23 16 1 1 2.</_></rects>
      <tilted>0</tilted></_>
    <_>
      <rects>
        <_>
          22 16 2 2 -1.</_>
        <_>
          23 16 1 2 2.</_></rects>
      <tilted>0</tilted></_>
    <_>
      <rects>
        <_>
          22 23 2 1 -1.</_>
        <_>
          23 23 1 1 2.</_></rects>
      <tilted>0</tilted></_>
    <_>
      <rects>
        <_>
          23 15 1 6 -1.</_>
        <_>
          23 17 1 2 3.</_></rects>
      <tilted>0</tilted></_>
    <_>
      <rects>
        <_>
          23 16 1 6 -1.</_>
        <_>
          23 18 1 2 3.</_></rects>
      <tilted>0</tilted></_>
    <_>
      <rects>
        <_>
          23 17 1 6 -1.</_>
        <_>
          23 19 1 2 3.</_></rects>
      <tilted>0</tilted></_></features></cascade>
</opencv_storage>
