<?xml version="1.0"?>
<opencv_storage>
<cascade>
  <stageType>BOOST</stageType>
  <featureType>HAAR</featureType>
  <height>24</height>
  <width>24</width>
  <stageParams>
    <boostType>GAB</boostType>
    <minHitRate>9.9500000476837158e-01</minHitRate>
    <maxFalseAlarm>5.0000000000000000e-01</maxFalseAlarm>
    <weightTrimRate>9.4999998807907104e-01</weightTrimRate>
    <maxDepth>1</maxDepth>
    <maxWeakCount>100</maxWeakCount></stageParams>
  <featureParams>
    <maxCatCount>0</maxCatCount>
    <featSize>1</featSize>
    <mode>BASIC</mode></featureParams>
  <stageNum>20</stageNum>
  <stages>
    <!-- stage 0 -->
    <_>
      <maxWeakCount>7</maxWeakCount>
      <stageThreshold>-2.4506747722625732e+00</stageThreshold>
      <weakClassifiers>
        <_>
          <internalNodes>
            0 -1 77 -3.1077763438224792e-01</internalNodes>
          <leafValues>
            2.3999999463558197e-01 -8.8530123233795166e-01</leafValues></_>
        <_>
          <internalNodes>
            0 -1 131 -9.2082973569631577e-03</internalNodes>
          <leafValues>
            6.0031300783157349e-01 -5.7524842023849487e-01</leafValues></_>
        <_>
          <internalNodes>
            0 -1 25 -1.4155836775898933e-02</internalNodes>
          <leafValues>
            4.4250667095184326e-01 -4.8994928598403931e-01</leafValues></_>
        <_>
          <internalNodes>
            0 -1 155 -4.2792679741978645e-03</internalNodes>
          <leafValues>
            6.6045290231704712e-01 -3.1034845113754272e-01</leafValues></_>
        <_>
          <internalNodes>
            0 -1 194 -1.0354883968830109e-02</internalNodes>
          <leafValues>
            4.3383362889289856e-01 -5.2329927682876587e-01</leafValues></_>
        <_>
          <internalNodes>
            0 -1 110 -1.5601239167153835e-02</internalNodes>
          <leafValues>
            5.9390687942504883e-01 -3.2407534122467041e-01</leafValues></_>
        <_>
          <internalNodes>
            0 -1 17 -5.0099934451282024e-03</internalNodes>
          <leafValues>
            5.7956045866012573e-01 -2.9958564043045044e-01</leafValues></_></weakClassifiers></_>
    <!-- stage 1 -->
    <_>
      <maxWeakCount>7</maxWeakCount>
      <stageThreshold>-1.8363734483718872e+00</stageThreshold>
      <weakClassifiers>
        <_>
          <internalNodes>
            0 -1 78 -1.8746732175350189e-01</internalNodes>
          <leafValues>
            1.4093959331512451e-01 -9.0523201227188110e-01</leafValues></_>
        <_>
          <internalNodes>
            0 -1 14 -2.1418409422039986e-02</internalNodes>
          <leafValues>
            2.5789994001388550e-01 -6.5318590402603149e-01</leafValues></_>
        <_>
          <internalNodes>
            0 -1 108 -3.0805226415395737e-02</internalNodes>
          <leafValues>
            6.7245489358901978e-01 -3.0785387754440308e-01</leafValues></_>
        <_>
          <internalNodes>
            0 -1 75 -3.2513983547687531e-02</internalNodes>
          <leafValues>
            7.6637613773345947e-01 -2.0284605026245117e-01</leafValues></_>
        <_>
          <internalNodes>
            0 -1 20 -2.9077984392642975e-02</internalNodes>
          <leafValues>
            5.6726109981536865e-01 -2.5499624013900757e-01</leafValues></_>
        <_>
          <internalNodes>
            0 -1 38 -1.4524310827255249e-02</internalNodes>
          <leafValues>
            3.1180843710899353e-01 -5.3831803798675537e-01</leafValues></_>
        <_>
          <internalNodes>
            0 -1 136 -7.7096151653677225e-04</internalNodes>
          <leafValues>
            -7.1100401878356934e-01 2.0380121469497681e-01</leafValues></_></weakClassifiers></_>
    <!-- stage 2 -->
    <_>
      <maxWeakCount>8</maxWeakCount>
      <stageThreshold>-2.2634892463684082e+00</stageThreshold>
      <weakClassifiers>
        <_>
          <internalNodes>
            0 -1 53 -4.3471300601959229e-01</internalNodes>
          <leafValues>
            3.5064935684204102e-01 -8.7702572345733643e-01</leafValues></_>
        <_>
          <internalNodes>
            0 -1 61 -1.0082091391086578e-01</internalNodes>
          <leafValues>
            3.3785074949264526e-01 -6.1142122745513916e-01</leafValues></_>
        <_>
          <internalNodes>
            0 -1 8 -2.8954899311065674e-01</internalNodes>
          <leafValues>
            5.2944183349609375e-01 -3.0253186821937561e-01</leafValues></_>
        <_>
          <internalNodes>
            0 -1 188 -1.3496195606421679e-05</internalNodes>
          <leafValues>
            4.0667527914047241e-01 -3.5778689384460449e-01</leafValues></_>
        <_>
          <internalNodes>
            0 -1 65 -3.5606931895017624e-02</internalNodes>
          <leafValues>
            4.7236174345016479e-01 -3.0750924348831177e-01</leafValues></_>
        <_>
          <internalNodes>
            0 -1 34 -1.5281114727258682e-02</internalNodes>
          <leafValues>
            4.4145691394805908e-01 -2.7500721812248230e-01</leafValues></_>
        <_>
          <internalNodes>
            0 -1 103 -4.8327606171369553e-02</internalNodes>
          <leafValues>
            6.3259398937225342e-01 -2.1563111245632172e-01</leafValues></_>
        <_>
          <internalNodes>
            0 -1 76 -3.2305650413036346e-02</internalNodes>
          <leafValues>
            7.2631603479385376e-01 -1.4854978024959564e-01</leafValues></_></weakClassifiers></_>
    <!-- stage 3 -->
    <_>
      <maxWeakCount>12</maxWeakCount>
      <stageThreshold>-1.9091892242431641e+00</stageThreshold>
      <weakClassifiers>
        <_>
          <internalNodes>
            0 -1 73 -5.1272761821746826e-01</internalNodes>
          <leafValues>
            1.5662650763988495e-01 -8.7284892797470093e-01</leafValues></_>
        <_>
          <internalNodes>
            0 -1 144 -1.1578977137105539e-05</internalNodes>
          <leafValues>
            1.5821389853954315e-02 -6.2486153841018677e-01</leafValues></_>
        <_>
          <internalNodes>
            0 -1 183 -5.0357513129711151e-02</internalNodes>
          <leafValues>
            4.8319321870803833e-01 -3.0092033743858337e-01</leafValues></_>
        <_>
          <internalNodes>
            0 -1 143 -1.6905712982406840e-05</internalNodes>
          <leafValues>
            3.9376392960548401e-01 -3.4398970007896423e-01</leafValues></_>
        <_>
          <internalNodes>
            0 -1 191 -1.4335446394397877e-05</internalNodes>
          <leafValues>
            3.9898216724395752e-01 -2.8167405724525452e-01</leafValues></_>
        <_>
          <internalNodes>
            0 -1 41 7.7094289008527994e-04</internalNodes>
          <leafValues>
            1.3504196703433990e-01 -8.6054575443267822e-01</leafValues></_>
        <_>
          <internalNodes>
            0 -1 98 -6.9863260723650455e-03</internalNodes>
          <leafValues>
            4.8167693614959717e-01 -2.3432667553424835e-01</leafValues></_>
        <_>
          <internalNodes>
            0 -1 169 1.0154860792681575e-03</internalNodes>
          <leafValues>
            -5.2596408128738403e-01 2.2073519229888916e-01</leafValues></_>
        <_>
          <internalNodes>
            0 -1 151 -4.6930693089962006e-02</internalNodes>
          <leafValues>
            4.7261983156204224e-01 -2.3982906341552734e-01</leafValues></_>
        <_>
          <internalNodes>
            0 -1 10 -3.2437764108181000e-02</internalNodes>
          <leafValues>
            5.5018544197082520e-01 -2.3853100836277008e-01</leafValues></_>
        <_>
          <internalNodes>
            0 -1 122 -8.3716168999671936e-02</internalNodes>
          <leafValues>
            8.3273887634277344e-01 -1.3007120788097382e-01</leafValues></_>
        <_>
          <internalNodes>
            0 -1 96 -1.2230109859956428e-05</internalNodes>
          <leafValues>
            3.6140328645706177e-01 -2.9130852222442627e-01</leafValues></_></weakClassifiers></_>
    <!-- stage 4 -->
    <_>
      <maxWeakCount>12</maxWeakCount>
      <stageThreshold>-1.9070627689361572e+00</stageThreshold>
      <weakClassifiers>
        <_>
          <internalNodes>
            0 -1 97 1.5468543767929077e-01</internalNodes>
          <leafValues>
            -8.8310414552688599e-01 -1.0791366547346115e-01</leafValues></_>
        <_>
          <internalNodes>
            0 -1 74 -5.1602687686681747e-02</internalNodes>
          <leafValues>
            1.9114673137664795e-01 -5.3087604045867920e-01</leafValues></_>
        <_>
          <internalNodes>
            0 -1 120 1.4813237357884645e-03</internalNodes>
          <leafValues>
            5.9378545731306076e-02 -8.9819771051406860e-01</leafValues></_>
        <_>
          <internalNodes>
            0 -1 235 -1.7854680772870779e-03</internalNodes>
          <leafValues>
            -4.7052672505378723e-01 2.0500183105468750e-01</leafValues></_>
        <_>
          <internalNodes>
            0 -1 63 -7.6519483700394630e-03</internalNodes>
          <leafValues>
            4.6671929955482483e-01 -2.2668734192848206e-01</leafValues></_>
        <_>
          <internalNodes>
            0 -1 176 1.1276001714577433e-05</internalNodes>
          <leafValues>
            -2.8466436266899109e-01 4.1859018802642822e-01</leafValues></_>
        <_>
          <internalNodes>
            0 -1 229 -2.9145670850994065e-05</internalNodes>
          <leafValues>
            3.2860073447227478e-01 -2.7044257521629333e-01</leafValues></_>
        <_>
          <internalNodes>
            0 -1 248 -8.0425087362527847e-03</internalNodes>
          <leafValues>
            -8.5057455301284790e-01 1.3665728271007538e-01</leafValues></_>
        <_>
          <internalNodes>
            0 -1 59 -7.8093431890010834e-02</internalNodes>
          <leafValues>
            4.0574491024017334e-01 -2.3864760994911194e-01</leafValues></_>
        <_>
          <internalNodes>
            0 -1 30 8.8556017726659775e-04</internalNodes>
          <leafValues>
            1.5713199973106384e-01 -6.7469620704650879e-01</leafValues></_>
        <_>
          <internalNodes>
            0 -1 179 -1.1446072676335461e-05</internalNodes>
          <leafValues>
            3.4744787216186523e-01 -2.9227277636528015e-01</leafValues></_>
        <_>
          <internalNodes>
            0 -1 198 4.3451851233839989e-03</internalNodes>
          <leafValues>
            -2.7976775169372559e-01 3.9003604650497437e-01</leafValues></_></weakClassifiers></_>
    <!-- stage 5 -->
    <_>
      <maxWeakCount>12</maxWeakCount>
      <stageThreshold>-2.0555822849273682e+00</stageThreshold>
      <weakClassifiers>
        <_>
          <internalNodes>
            0 -1 58 -2.9196214675903320e-01</internalNodes>
          <leafValues>
            -3.5964912176132202e-01 -8.8906008005142212e-01</leafValues></_>
        <_>
          <internalNodes>
            0 -1 107 -9.2300087213516235e-02</internalNodes>
          <leafValues>
            2.4737572669982910e-01 -5.2611923217773438e-01</leafValues></_>
        <_>
          <internalNodes>
            0 -1 21 -3.9860367774963379e-02</internalNodes>
          <leafValues>
            3.2459652423858643e-01 -2.7613934874534607e-01</leafValues></_>
        <_>
          <internalNodes>
            0 -1 129 -8.1211514770984650e-03</internalNodes>
          <leafValues>
            4.8147457838058472e-01 -1.8701538443565369e-01</leafValues></_>
        <_>
          <internalNodes>
            0 -1 167 5.9905438683927059e-03</internalNodes>
          <leafValues>
            -1.7544427514076233e-01 5.8112376928329468e-01</leafValues></_>
        <_>
          <internalNodes>
            0 -1 240 4.8504699952900410e-04</internalNodes>
          <leafValues>
            1.3112905621528625e-01 -8.5686492919921875e-01</leafValues></_>
        <_>
          <internalNodes>
            0 -1 163 3.0038416298339143e-05</internalNodes>
          <leafValues>
            -2.7704524993896484e-01 3.6125102639198303e-01</leafValues></_>
        <_>
          <internalNodes>
            0 -1 149 3.3525046892464161e-03</internalNodes>
          <leafValues>
            1.4025552570819855e-01 -6.5599673986434937e-01</leafValues></_>
        <_>
          <internalNodes>
            0 -1 222 -1.6396962106227875e-02</internalNodes>
          <leafValues>
            4.6197319030761719e-01 -1.8784403800964355e-01</leafValues></_>
        <_>
          <internalNodes>
            0 -1 64 -3.4507502277847379e-05</internalNodes>
          <leafValues>
            3.4055468440055847e-01 -2.8869414329528809e-01</leafValues></_>
        <_>
          <internalNodes>
            0 -1 158 -1.1887953151017427e-03</internalNodes>
          <leafValues>
            -5.4476904869079590e-01 1.6358335316181183e-01</leafValues></_>
        <_>
          <internalNodes>
            0 -1 177 -9.2953676357865334e-04</internalNodes>
          <leafValues>
            3.3455023169517517e-01 -2.9872736334800720e-01</leafValues></_></weakClassifiers></_>
    <!-- stage 6 -->
    <_>
      <maxWeakCount>11</maxWeakCount>
      <stageThreshold>-1.7779641151428223e+00</stageThreshold>
      <weakClassifiers>
        <_>
          <internalNodes>
            0 -1 49 1.8303307890892029e-01</internalNodes>
          <leafValues>
            -8.8712161779403687e-01 -3.7168142199516296e-01</leafValues></_>
        <_>
          <internalNodes>
            0 -1 19 -4.8976633697748184e-02</internalNodes>
          <leafValues>
            2.3272450268268585e-01 -5.2899968624114990e-01</leafValues></_>
        <_>
          <internalNodes>
            0 -1 210 -1.2179043143987656e-02</internalNodes>
          <leafValues>
            4.3263453245162964e-01 -2.3078051209449768e-01</leafValues></_>
        <_>
          <internalNodes>
            0 -1 6 4.8265829682350159e-02</internalNodes>
          <leafValues>
            -1.4812284708023071e-01 5.6119161844253540e-01</leafValues></_>
        <_>
          <internalNodes>
            0 -1 141 -7.7376775443553925e-02</internalNodes>
          <leafValues>
            3.9813694357872009e-01 -2.2662188112735748e-01</leafValues></_>
        <_>
          <internalNodes>
            0 -1 180 -9.7379386425018311e-03</internalNodes>
          <leafValues>
            5.9292638301849365e-01 -1.8262524902820587e-01</leafValues></_>
        <_>
          <internalNodes>
            0 -1 93 -5.8831917122006416e-03</internalNodes>
          <leafValues>
            4.1706091165542603e-01 -2.0243600010871887e-01</leafValues></_>
        <_>
          <internalNodes>
            0 -1 156 1.3733886182308197e-02</internalNodes>
          <leafValues>
            -2.6283183693885803e-01 3.9313089847564697e-01</leafValues></_>
        <_>
          <internalNodes>
            0 -1 171 1.2800306081771851e-01</internalNodes>
          <leafValues>
            1.0534284263849258e-01 -8.8297683000564575e-01</leafValues></_>
        <_>
          <internalNodes>
            0 -1 36 -9.0856384485960007e-03</internalNodes>
          <leafValues>
            3.7418997287750244e-01 -2.5473502278327942e-01</leafValues></_>
        <_>
          <internalNodes>
            0 -1 99 1.2411355783115141e-05</internalNodes>
          <leafValues>
            -2.3608021438121796e-01 4.2147076129913330e-01</leafValues></_></weakClassifiers></_>
    <!-- stage 7 -->
    <_>
      <maxWeakCount>11</maxWeakCount>
      <stageThreshold>-2.1339514255523682e+00</stageThreshold>
      <weakClassifiers>
        <_>
          <internalNodes>
            0 -1 215 1.0762712359428406e-01</internalNodes>
          <leafValues>
            -8.6870682239532471e-01 -3.5570469498634338e-01</leafValues></_>
        <_>
          <internalNodes>
            0 -1 94 -1.4332117643789388e-05</internalNodes>
          <leafValues>
            -2.2366175428032875e-02 -6.1700707674026489e-01</leafValues></_>
        <_>
          <internalNodes>
            0 -1 112 1.1247843758610543e-05</internalNodes>
          <leafValues>
            -3.0997475981712341e-01 2.9292353987693787e-01</leafValues></_>
        <_>
          <internalNodes>
            0 -1 109 -9.9095268524251878e-05</internalNodes>
          <leafValues>
            2.6389500498771667e-01 -3.4587135910987854e-01</leafValues></_>
        <_>
          <internalNodes>
            0 -1 46 -8.8775187730789185e-02</internalNodes>
          <leafValues>
            6.7045420408248901e-01 -1.3204531371593475e-01</leafValues></_>
        <_>
          <internalNodes>
            0 -1 51 -5.5557803716510534e-04</internalNodes>
          <leafValues>
            -4.7823125123977661e-01 1.9385313987731934e-01</leafValues></_>
        <_>
          <internalNodes>
            0 -1 95 1.1444519259384833e-05</internalNodes>
          <leafValues>
            -2.1163867413997650e-01 3.8528966903686523e-01</leafValues></_>
        <_>
          <internalNodes>
            0 -1 113 -1.3791275705443695e-05</internalNodes>
          <leafValues>
            3.3130738139152527e-01 -2.8069573640823364e-01</leafValues></_>
        <_>
          <internalNodes>
            0 -1 139 -6.2986416742205620e-03</internalNodes>
          <leafValues>
            3.4491479396820068e-01 -2.4587087333202362e-01</leafValues></_>
        <_>
          <internalNodes>
            0 -1 16 -9.5686595886945724e-03</internalNodes>
          <leafValues>
            4.2769622802734375e-01 -2.0144461095333099e-01</leafValues></_>
        <_>
          <internalNodes>
            0 -1 188 -2.4347606085939333e-05</internalNodes>
          <leafValues>
            2.8255236148834229e-01 -3.3299550414085388e-01</leafValues></_></weakClassifiers></_>
    <!-- stage 8 -->
    <_>
      <maxWeakCount>12</maxWeakCount>
      <stageThreshold>-1.8952474594116211e+00</stageThreshold>
      <weakClassifiers>
        <_>
          <internalNodes>
            0 -1 70 1.9936881959438324e-02</internalNodes>
          <leafValues>
            -8.5240542888641357e-01 3.5294118523597717e-01</leafValues></_>
        <_>
          <internalNodes>
            0 -1 90 -1.2645077705383301e-01</internalNodes>
          <leafValues>
            9.7905717790126801e-02 -5.4806762933731079e-01</leafValues></_>
        <_>
          <internalNodes>
            0 -1 28 1.9299271516501904e-03</internalNodes>
          <leafValues>
            1.3543112576007843e-01 -6.0943961143493652e-01</leafValues></_>
        <_>
          <internalNodes>
            0 -1 128 2.5486024242127314e-05</internalNodes>
          <leafValues>
            -2.9448971152305603e-01 3.3554041385650635e-01</leafValues></_>
        <_>
          <internalNodes>
            0 -1 132 1.3325920917850453e-05</internalNodes>
          <leafValues>
            -2.4423956871032715e-01 3.9098435640335083e-01</leafValues></_>
        <_>
          <internalNodes>
            0 -1 83 1.3169228623155504e-05</internalNodes>
          <leafValues>
            -2.6437088847160339e-01 3.4476941823959351e-01</leafValues></_>
        <_>
          <internalNodes>
            0 -1 137 -1.7658740282058716e-02</internalNodes>
          <leafValues>
            5.2619367837905884e-01 -1.8612517416477203e-01</leafValues></_>
        <_>
          <internalNodes>
            0 -1 134 1.5256365295499563e-03</internalNodes>
          <leafValues>
            2.1590594947338104e-01 -4.4455265998840332e-01</leafValues></_>
        <_>
          <internalNodes>
            0 -1 3 -2.1645915694534779e-03</internalNodes>
          <leafValues>
            -4.9093446135520935e-01 1.8194063007831573e-01</leafValues></_>
        <_>
          <internalNodes>
            0 -1 140 3.0782679095864296e-02</internalNodes>
          <leafValues>
            -1.5825018286705017e-01 5.4093605279922485e-01</leafValues></_>
        <_>
          <internalNodes>
            0 -1 175 -2.2952110157348216e-05</internalNodes>
          <leafValues>
            3.2245340943336487e-01 -2.8969800472259521e-01</leafValues></_>
        <_>
          <internalNodes>
            0 -1 174 -2.5816005654633045e-03</internalNodes>
          <leafValues>
            5.2712678909301758e-01 -1.7779533565044403e-01</leafValues></_></weakClassifiers></_>
    <!-- stage 9 -->
    <_>
      <maxWeakCount>12</maxWeakCount>
      <stageThreshold>-1.7887170314788818e+00</stageThreshold>
      <weakClassifiers>
        <_>
          <internalNodes>
            0 -1 130 3.5793669521808624e-02</internalNodes>
          <leafValues>
            -8.4981346130371094e-01 2.9032257199287415e-01</leafValues></_>
        <_>
          <internalNodes>
            0 -1 214 9.3451216816902161e-02</internalNodes>
          <leafValues>
            -5.2210927009582520e-01 1.9545201957225800e-01</leafValues></_>
        <_>
          <internalNodes>
            0 -1 148 -1.3770769583061337e-03</internalNodes>
          <leafValues>
            -7.8017622232437134e-01 7.0029780268669128e-02</leafValues></_>
        <_>
          <internalNodes>
            0 -1 24 1.6034885775297880e-03</internalNodes>
          <leafValues>
            1.9441887736320496e-01 -4.7314909100532532e-01</leafValues></_>
        <_>
          <internalNodes>
            0 -1 181 7.6619489118456841e-04</internalNodes>
          <leafValues>
            1.4173282682895660e-01 -5.9122562408447266e-01</leafValues></_>
        <_>
          <internalNodes>
            0 -1 209 3.1511829001829028e-04</internalNodes>
          <leafValues>
            -2.3262758553028107e-01 3.8561874628067017e-01</leafValues></_>
        <_>
          <internalNodes>
            0 -1 44 3.1731162220239639e-02</internalNodes>
          <leafValues>
            -1.7527036368846893e-01 4.5081508159637451e-01</leafValues></_>
        <_>
          <internalNodes>
            0 -1 162 -1.3589637354016304e-02</internalNodes>
          <leafValues>
            4.5585143566131592e-01 -1.8194216489791870e-01</leafValues></_>
        <_>
          <internalNodes>
            0 -1 133 -1.0966316331177950e-03</internalNodes>
          <leafValues>
            -9.0936368703842163e-01 1.0479588806629181e-01</leafValues></_>
        <_>
          <internalNodes>
            0 -1 40 -2.3934771306812763e-03</internalNodes>
          <leafValues>
            4.2986825108528137e-01 -2.3232877254486084e-01</leafValues></_>
        <_>
          <internalNodes>
            0 -1 5 1.3050967454910278e-01</internalNodes>
          <leafValues>
            -1.3729307055473328e-01 6.3729995489120483e-01</leafValues></_>
        <_>
          <internalNodes>
            0 -1 228 -1.0175067000091076e-03</internalNodes>
          <leafValues>
            -5.8902424573898315e-01 1.4915911853313446e-01</leafValues></_></weakClassifiers></_>
    <!-- stage 10 -->
    <_>
      <maxWeakCount>10</maxWeakCount>
      <stageThreshold>-2.0048735141754150e+00</stageThreshold>
      <weakClassifiers>
        <_>
          <internalNodes>
            0 -1 81 2.0591315627098083e-01</internalNodes>
          <leafValues>
            -8.7837839126586914e-01 6.7961163818836212e-02</leafValues></_>
        <_>
          <internalNodes>
            0 -1 102 -1.2730735540390015e-01</internalNodes>
          <leafValues>
            -4.4096309691667557e-02 -6.7672282457351685e-01</leafValues></_>
        <_>
          <internalNodes>
            0 -1 236 -3.9622542681172490e-04</internalNodes>
          <leafValues>
            -6.7033720016479492e-01 1.3946707546710968e-01</leafValues></_>
        <_>
          <internalNodes>
            0 -1 146 -8.5510183125734329e-03</internalNodes>
          <leafValues>
            5.1903885602951050e-01 -2.2293713688850403e-01</leafValues></_>
        <_>
          <internalNodes>
            0 -1 181 -8.4863207302987576e-04</internalNodes>
          <leafValues>
            -5.6018692255020142e-01 2.3736871778964996e-01</leafValues></_>
        <_>
          <internalNodes>
            0 -1 100 -7.5932592153549194e-03</internalNodes>
          <leafValues>
            6.7270958423614502e-01 -1.8525490164756775e-01</leafValues></_>
        <_>
          <internalNodes>
            0 -1 118 9.2868728097528219e-04</internalNodes>
          <leafValues>
            1.8291759490966797e-01 -7.5624352693557739e-01</leafValues></_>
        <_>
          <internalNodes>
            0 -1 119 -3.4620647784322500e-04</internalNodes>
          <leafValues>
            -6.2434339523315430e-01 1.3636338710784912e-01</leafValues></_>
        <_>
          <internalNodes>
            0 -1 86 -9.2347962781786919e-03</internalNodes>
          <leafValues>
            6.3054513931274414e-01 -1.7061153054237366e-01</leafValues></_>
        <_>
          <internalNodes>
            0 -1 157 -4.5079980045557022e-03</internalNodes>
          <leafValues>
            5.4627358913421631e-01 -1.9272258877754211e-01</leafValues></_></weakClassifiers></_>
    <!-- stage 11 -->
    <_>
      <maxWeakCount>13</maxWeakCount>
      <stageThreshold>-2.0110611915588379e+00</stageThreshold>
      <weakClassifiers>
        <_>
          <internalNodes>
            0 -1 223 8.8150590658187866e-02</internalNodes>
          <leafValues>
            -8.6213499307632446e-01 -1.3953489065170288e-01</leafValues></_>
        <_>
          <internalNodes>
            0 -1 4 -9.5208711922168732e-02</internalNodes>
          <leafValues>
            7.2365842759609222e-02 -5.6751596927642822e-01</leafValues></_>
        <_>
          <internalNodes>
            0 -1 22 -1.0167140513658524e-02</internalNodes>
          <leafValues>
            -6.3883697986602783e-01 1.0671345144510269e-01</leafValues></_>
        <_>
          <internalNodes>
            0 -1 131 -9.2007089406251907e-03</internalNodes>
          <leafValues>
            4.8366793990135193e-01 -1.7891362309455872e-01</leafValues></_>
        <_>
          <internalNodes>
            0 -1 13 -1.0695195756852627e-02</internalNodes>
          <leafValues>
            -5.9312891960144043e-01 1.7625394463539124e-01</leafValues></_>
        <_>
          <internalNodes>
            0 -1 168 -2.9577331151813269e-03</internalNodes>
          <leafValues>
            5.2773994207382202e-01 -1.8218067288398743e-01</leafValues></_>
        <_>
          <internalNodes>
            0 -1 50 -7.2691841050982475e-03</internalNodes>
          <leafValues>
            3.7285226583480835e-01 -2.0798765122890472e-01</leafValues></_>
        <_>
          <internalNodes>
            0 -1 230 8.7344269559253007e-05</internalNodes>
          <leafValues>
            1.8862730264663696e-01 -4.2432034015655518e-01</leafValues></_>
        <_>
          <internalNodes>
            0 -1 37 -7.3123462498188019e-03</internalNodes>
          <leafValues>
            4.0071704983711243e-01 -1.9713932275772095e-01</leafValues></_>
        <_>
          <internalNodes>
            0 -1 199 -1.5886356122791767e-03</internalNodes>
          <leafValues>
            5.1443177461624146e-01 -1.5267598628997803e-01</leafValues></_>
        <_>
          <internalNodes>
            0 -1 62 -5.5294170975685120e-02</internalNodes>
          <leafValues>
            2.8999152779579163e-01 -3.2225248217582703e-01</leafValues></_>
        <_>
          <internalNodes>
            0 -1 232 2.0985649898648262e-03</internalNodes>
          <leafValues>
            1.8580390512943268e-01 -4.3557351827621460e-01</leafValues></_>
        <_>
          <internalNodes>
            0 -1 32 7.1987048722803593e-03</internalNodes>
          <leafValues>
            8.0783449113368988e-02 -8.2043904066085815e-01</leafValues></_></weakClassifiers></_>
    <!-- stage 12 -->
    <_>
      <maxWeakCount>16</maxWeakCount>
      <stageThreshold>-2.0819361209869385e+00</stageThreshold>
      <weakClassifiers>
        <_>
          <internalNodes>
            0 -1 56 -3.6023613065481186e-02</internalNodes>
          <leafValues>
            -3.8461539894342422e-02 -8.5303813219070435e-01</leafValues></_>
        <_>
          <internalNodes>
            0 -1 115 -1.2689093127846718e-02</internalNodes>
          <leafValues>
            2.6121604442596436e-01 -4.7795581817626953e-01</leafValues></_>
        <_>
          <internalNodes>
            0 -1 249 8.1272119132336229e-05</internalNodes>
          <leafValues>
            1.6809271275997162e-01 -4.1036528348922729e-01</leafValues></_>
        <_>
          <internalNodes>
            0 -1 165 -6.9779921323060989e-03</internalNodes>
          <leafValues>
            4.2836576700210571e-01 -1.7473502457141876e-01</leafValues></_>
        <_>
          <internalNodes>
            0 -1 159 4.5833920012228191e-05</internalNodes>
          <leafValues>
            2.1159788966178894e-01 -3.3801251649856567e-01</leafValues></_>
        <_>
          <internalNodes>
            0 -1 114 4.4715916737914085e-03</internalNodes>
          <leafValues>
            -1.0668583214282990e-01 5.2990460395812988e-01</leafValues></_>
        <_>
          <internalNodes>
            0 -1 153 1.6262182907667011e-04</internalNodes>
          <leafValues>
            -2.7694901823997498e-01 2.7592566609382629e-01</leafValues></_>
        <_>
          <internalNodes>
            0 -1 0 -7.7936023473739624e-02</internalNodes>
          <leafValues>
            3.8324829936027527e-01 -1.9734105467796326e-01</leafValues></_>
        <_>
          <internalNodes>
            0 -1 121 1.8515514209866524e-02</internalNodes>
          <leafValues>
            -1.5050636231899261e-01 5.0784039497375488e-01</leafValues></_>
        <_>
          <internalNodes>
            0 -1 127 3.9538126438856125e-03</internalNodes>
          <leafValues>
            -1.1133168637752533e-01 5.8536344766616821e-01</leafValues></_>
        <_>
          <internalNodes>
            0 -1 138 -1.7267671646550298e-03</internalNodes>
          <leafValues>
            -6.3704204559326172e-01 1.2687505781650543e-01</leafValues></_>
        <_>
          <internalNodes>
            0 -1 55 -9.2752054333686829e-03</internalNodes>
          <leafValues>
            5.0104957818984985e-01 -1.6354271769523621e-01</leafValues></_>
        <_>
          <internalNodes>
            0 -1 246 -2.1910844370722771e-03</internalNodes>
          <leafValues>
            -7.7963578701019287e-01 1.0502912849187851e-01</leafValues></_>
        <_>
          <internalNodes>
            0 -1 190 1.4232187531888485e-03</internalNodes>
          <leafValues>
            -2.4989596009254456e-01 3.3169046044349670e-01</leafValues></_>
        <_>
          <internalNodes>
            0 -1 193 -3.0969534418545663e-04</internalNodes>
          <leafValues>
            -5.8650583028793335e-01 1.2168598920106888e-01</leafValues></_>
        <_>
          <internalNodes>
            0 -1 111 3.6378849297761917e-02</internalNodes>
          <leafValues>
            7.4367180466651917e-02 -7.4888020753860474e-01</leafValues></_></weakClassifiers></_>
    <!-- stage 13 -->
    <_>
      <maxWeakCount>16</maxWeakCount>
      <stageThreshold>-1.9949240684509277e+00</stageThreshold>
      <weakClassifiers>
        <_>
          <internalNodes>
            0 -1 12 -7.5876109302043915e-02</internalNodes>
          <leafValues>
            -3.3783784508705139e-01 -8.6975824832916260e-01</leafValues></_>
        <_>
          <internalNodes>
            0 -1 25 -1.4162953943014145e-02</internalNodes>
          <leafValues>
            -1.3256929814815521e-01 -6.5173172950744629e-01</leafValues></_>
        <_>
          <internalNodes>
            0 -1 218 -5.9098878409713507e-04</internalNodes>
          <leafValues>
            -5.4161697626113892e-01 9.9904961884021759e-02</leafValues></_>
        <_>
          <internalNodes>
            0 -1 54 -4.2493559885770082e-04</internalNodes>
          <leafValues>
            -2.8869765996932983e-01 2.3744809627532959e-01</leafValues></_>
        <_>
          <internalNodes>
            0 -1 106 3.1225681595969945e-05</internalNodes>
          <leafValues>
            2.2004172205924988e-01 -3.0609443783760071e-01</leafValues></_>
        <_>
          <internalNodes>
            0 -1 204 7.7074865112081170e-04</internalNodes>
          <leafValues>
            -2.0522040128707886e-01 3.4524562954902649e-01</leafValues></_>
        <_>
          <internalNodes>
            0 -1 205 1.0268257930874825e-02</internalNodes>
          <leafValues>
            -3.2338818907737732e-01 2.1271313726902008e-01</leafValues></_>
        <_>
          <internalNodes>
            0 -1 200 8.8319024071097374e-03</internalNodes>
          <leafValues>
            -1.9460298120975494e-01 3.4350657463073730e-01</leafValues></_>
        <_>
          <internalNodes>
            0 -1 52 -1.2730198795907199e-04</internalNodes>
          <leafValues>
            -3.9653748273849487e-01 1.7607918381690979e-01</leafValues></_>
        <_>
          <internalNodes>
            0 -1 48 1.1062136851251125e-02</internalNodes>
          <leafValues>
            1.4597506821155548e-01 -4.6237641572952271e-01</leafValues></_>
        <_>
          <internalNodes>
            0 -1 39 -4.6398502308875322e-04</internalNodes>
          <leafValues>
            -5.7302165031433105e-01 9.5170043408870697e-02</leafValues></_>
        <_>
          <internalNodes>
            0 -1 170 -1.3211725279688835e-02</internalNodes>
          <leafValues>
            4.9217265844345093e-01 -1.7325256764888763e-01</leafValues></_>
        <_>
          <internalNodes>
            0 -1 245 1.5607399865984917e-02</internalNodes>
          <leafValues>
            7.3629260063171387e-02 -9.1829657554626465e-01</leafValues></_>
        <_>
          <internalNodes>
            0 -1 85 3.4981057047843933e-02</internalNodes>
          <leafValues>
            -1.3855332136154175e-01 4.9636709690093994e-01</leafValues></_>
        <_>
          <internalNodes>
            0 -1 45 -6.5022572875022888e-02</internalNodes>
          <leafValues>
            2.6068651676177979e-01 -2.2662962973117828e-01</leafValues></_>
        <_>
          <internalNodes>
            0 -1 216 6.8826469941996038e-05</internalNodes>
          <leafValues>
            -2.7882674336433411e-01 2.5614526867866516e-01</leafValues></_></weakClassifiers></_>
    <!-- stage 14 -->
    <_>
      <maxWeakCount>14</maxWeakCount>
      <stageThreshold>-1.7855083942413330e+00</stageThreshold>
      <weakClassifiers>
        <_>
          <internalNodes>
            0 -1 11 -3.5140432417392731e-02</internalNodes>
          <leafValues>
            -5.0210970640182495e-01 -8.7409698963165283e-01</leafValues></_>
        <_>
          <internalNodes>
            0 -1 203 2.2964335978031158e-02</internalNodes>
          <leafValues>
            -5.4231095314025879e-01 -5.0384722650051117e-02</leafValues></_>
        <_>
          <internalNodes>
            0 -1 84 2.6491880416870117e-03</internalNodes>
          <leafValues>
            -2.1510304510593414e-01 3.0278059840202332e-01</leafValues></_>
        <_>
          <internalNodes>
            0 -1 26 -9.7283406648784876e-04</internalNodes>
          <leafValues>
            -5.9397315979003906e-01 1.1445285379886627e-01</leafValues></_>
        <_>
          <internalNodes>
            0 -1 68 4.2216153815388680e-03</internalNodes>
          <leafValues>
            -2.7060481905937195e-01 2.6483967900276184e-01</leafValues></_>
        <_>
          <internalNodes>
            0 -1 187 -1.9303611479699612e-03</internalNodes>
          <leafValues>
            3.9201804995536804e-01 -1.6389501094818115e-01</leafValues></_>
        <_>
          <internalNodes>
            0 -1 60 1.7637255368754268e-03</internalNodes>
          <leafValues>
            -1.8261098861694336e-01 3.3682301640510559e-01</leafValues></_>
        <_>
          <internalNodes>
            0 -1 239 -1.6499119810760021e-03</internalNodes>
          <leafValues>
            -7.0028567314147949e-01 7.8009046614170074e-02</leafValues></_>
        <_>
          <internalNodes>
            0 -1 147 9.4964914023876190e-03</internalNodes>
          <leafValues>
            -9.7726918756961823e-02 6.4878630638122559e-01</leafValues></_>
        <_>
          <internalNodes>
            0 -1 15 1.9584174151532352e-04</internalNodes>
          <leafValues>
            1.8240442872047424e-01 -3.4825539588928223e-01</leafValues></_>
        <_>
          <internalNodes>
            0 -1 154 -8.2813249900937080e-04</internalNodes>
          <leafValues>
            3.3162036538124084e-01 -1.7942066490650177e-01</leafValues></_>
        <_>
          <internalNodes>
            0 -1 116 2.6495084166526794e-03</internalNodes>
          <leafValues>
            -1.5581333637237549e-01 3.6687210202217102e-01</leafValues></_>
        <_>
          <internalNodes>
            0 -1 23 -1.1971004307270050e-02</internalNodes>
          <leafValues>
            1.8112124502658844e-01 -3.2838723063468933e-01</leafValues></_>
        <_>
          <internalNodes>
            0 -1 211 8.3234598860144615e-03</internalNodes>
          <leafValues>
            -1.4061367511749268e-01 4.0649494528770447e-01</leafValues></_></weakClassifiers></_>
    <!-- stage 15 -->
    <_>
      <maxWeakCount>16</maxWeakCount>
      <stageThreshold>-1.9170714616775513e+00</stageThreshold>
      <weakClassifiers>
        <_>
          <internalNodes>
            0 -1 104 -4.1174280643463135e-01</internalNodes>
          <leafValues>
            -5.3956836462020874e-01 -8.7664735317230225e-01</leafValues></_>
        <_>
          <internalNodes>
            0 -1 241 1.1953117791563272e-05</internalNodes>
          <leafValues>
            -2.0384176075458527e-01 -6.4666682481765747e-01</leafValues></_>
        <_>
          <internalNodes>
            0 -1 9 6.2888022512197495e-05</internalNodes>
          <leafValues>
            1.1854324489831924e-01 -4.0218165516853333e-01</leafValues></_>
        <_>
          <internalNodes>
            0 -1 88 -4.4452483416534960e-04</internalNodes>
          <leafValues>
            -5.0332868099212646e-01 1.5035477280616760e-01</leafValues></_>
        <_>
          <internalNodes>
            0 -1 101 -6.3009271398186684e-03</internalNodes>
          <leafValues>
            4.3874600529670715e-01 -1.4953790605068207e-01</leafValues></_>
        <_>
          <internalNodes>
            0 -1 29 -2.6899199001491070e-03</internalNodes>
          <leafValues>
            -7.1452236175537109e-01 7.4365764856338501e-02</leafValues></_>
        <_>
          <internalNodes>
            0 -1 206 -8.1218210980296135e-03</internalNodes>
          <leafValues>
            4.8322156071662903e-01 -1.0348136723041534e-01</leafValues></_>
        <_>
          <internalNodes>
            0 -1 145 -2.1248706616461277e-03</internalNodes>
          <leafValues>
            3.5498711466789246e-01 -1.4978690445423126e-01</leafValues></_>
        <_>
          <internalNodes>
            0 -1 82 1.5163458883762360e-03</internalNodes>
          <leafValues>
            -1.8659293651580811e-01 2.8960481286048889e-01</leafValues></_>
        <_>
          <internalNodes>
            0 -1 160 -1.5450540930032730e-02</internalNodes>
          <leafValues>
            -7.7574068307876587e-01 6.7650914192199707e-02</leafValues></_>
        <_>
          <internalNodes>
            0 -1 125 -7.6229881960898638e-04</internalNodes>
          <leafValues>
            4.3505850434303284e-01 -1.3848851621150970e-01</leafValues></_>
        <_>
          <internalNodes>
            0 -1 208 -3.6919664591550827e-02</internalNodes>
          <leafValues>
            1.7577120661735535e-01 -3.2884025573730469e-01</leafValues></_>
        <_>
          <internalNodes>
            0 -1 217 -1.3990919978823513e-04</internalNodes>
          <leafValues>
            -4.0248203277587891e-01 1.3676519691944122e-01</leafValues></_>
        <_>
          <internalNodes>
            0 -1 202 1.2111670803278685e-03</internalNodes>
          <leafValues>
            -2.4619959294795990e-01 2.4555870890617371e-01</leafValues></_>
        <_>
          <internalNodes>
            0 -1 237 -2.9010485377511941e-05</internalNodes>
          <leafValues>
            -3.2459807395935059e-01 1.9224785268306732e-01</leafValues></_>
        <_>
          <internalNodes>
            0 -1 186 -2.3820670321583748e-04</internalNodes>
          <leafValues>
            2.3634351789951324e-01 -2.4723187088966370e-01</leafValues></_></weakClassifiers></_>
    <!-- stage 16 -->
    <_>
      <maxWeakCount>18</maxWeakCount>
      <stageThreshold>-1.7712095975875854e+00</stageThreshold>
      <weakClassifiers>
        <_>
          <internalNodes>
            0 -1 7 -1.1113922297954559e-01</internalNodes>
          <leafValues>
            1. -8.4203231334686279e-01</leafValues></_>
        <_>
          <internalNodes>
            0 -1 43 -8.0815094406716526e-05</internalNodes>
          <leafValues>
            -6.3964092731475830e-01 -1.8687029182910919e-01</leafValues></_>
        <_>
          <internalNodes>
            0 -1 72 -6.2312232330441475e-05</internalNodes>
          <leafValues>
            -3.4541490674018860e-01 1.7026300728321075e-01</leafValues></_>
        <_>
          <internalNodes>
            0 -1 71 8.5684744408354163e-04</internalNodes>
          <leafValues>
            1.6865921020507813e-01 -3.6182090640068054e-01</leafValues></_>
        <_>
          <internalNodes>
            0 -1 159 2.5682411433081143e-05</internalNodes>
          <leafValues>
            2.2377499938011169e-01 -2.8906470537185669e-01</leafValues></_>
        <_>
          <internalNodes>
            0 -1 124 -4.1914638131856918e-03</internalNodes>
          <leafValues>
            3.2620993256568909e-01 -1.9684001803398132e-01</leafValues></_>
        <_>
          <internalNodes>
            0 -1 92 2.9387369286268950e-03</internalNodes>
          <leafValues>
            -2.1155366301536560e-01 3.6505725979804993e-01</leafValues></_>
        <_>
          <internalNodes>
            0 -1 227 3.2627276959829032e-04</internalNodes>
          <leafValues>
            -1.7830353975296021e-01 3.5781562328338623e-01</leafValues></_>
        <_>
          <internalNodes>
            0 -1 57 2.2294346708804369e-03</internalNodes>
          <leafValues>
            -2.8168207406997681e-01 2.0948769152164459e-01</leafValues></_>
        <_>
          <internalNodes>
            0 -1 87 5.7724822545424104e-04</internalNodes>
          <leafValues>
            7.6049230992794037e-02 -6.8806815147399902e-01</leafValues></_>
        <_>
          <internalNodes>
            0 -1 172 -1.2819606345146894e-03</internalNodes>
          <leafValues>
            2.4484017491340637e-01 -2.5730264186859131e-01</leafValues></_>
        <_>
          <internalNodes>
            0 -1 182 -1.9155185669660568e-02</internalNodes>
          <leafValues>
            -8.4081023931503296e-01 6.3843488693237305e-02</leafValues></_>
        <_>
          <internalNodes>
            0 -1 67 3.7442361935973167e-03</internalNodes>
          <leafValues>
            -2.1719822287559509e-01 2.7991712093353271e-01</leafValues></_>
        <_>
          <internalNodes>
            0 -1 1 4.1338857263326645e-02</internalNodes>
          <leafValues>
            -1.2570670247077942e-01 4.3622326850891113e-01</leafValues></_>
        <_>
          <internalNodes>
            0 -1 197 -3.9666272699832916e-02</internalNodes>
          <leafValues>
            -8.7059229612350464e-01 6.2528602778911591e-02</leafValues></_>
        <_>
          <internalNodes>
            0 -1 231 1.4241137541830540e-03</internalNodes>
          <leafValues>
            -1.9077520072460175e-01 2.9595163464546204e-01</leafValues></_>
        <_>
          <internalNodes>
            0 -1 42 7.1914494037628174e-04</internalNodes>
          <leafValues>
            5.3440678864717484e-02 -1.</leafValues></_>
        <_>
          <internalNodes>
            0 -1 91 1.1247925460338593e-02</internalNodes>
          <leafValues>
            -1.8645037710666656e-01 3.1120067834854126e-01</leafValues></_></weakClassifiers></_>
    <!-- stage 17 -->
    <_>
      <maxWeakCount>15</maxWeakCount>
      <stageThreshold>-1.8073526620864868e+00</stageThreshold>
      <weakClassifiers>
        <_>
          <internalNodes>
            0 -1 221 5.8721762150526047e-02</internalNodes>
          <leafValues>
            -8.5230481624603271e-01 -2.0408162847161293e-02</leafValues></_>
        <_>
          <internalNodes>
            0 -1 47 2.7406829595565796e-01</internalNodes>
          <leafValues>
            -4.6515703201293945e-01 2.4770124256610870e-01</leafValues></_>
        <_>
          <internalNodes>
            0 -1 152 1.8118286971002817e-03</internalNodes>
          <leafValues>
            5.7134531438350677e-02 -7.0629781484603882e-01</leafValues></_>
        <_>
          <internalNodes>
            0 -1 250 1.6459258040413260e-03</internalNodes>
          <leafValues>
            1.4088392257690430e-01 -5.3884410858154297e-01</leafValues></_>
        <_>
          <internalNodes>
            0 -1 80 -1.9855289719998837e-03</internalNodes>
          <leafValues>
            2.0580203831195831e-01 -3.0084711313247681e-01</leafValues></_>
        <_>
          <internalNodes>
            0 -1 173 3.9039915427565575e-03</internalNodes>
          <leafValues>
            4.6682752668857574e-02 -9.6824723482131958e-01</leafValues></_>
        <_>
          <internalNodes>
            0 -1 247 1.5261426568031311e-02</internalNodes>
          <leafValues>
            7.6277144253253937e-02 -6.2900698184967041e-01</leafValues></_>
        <_>
          <internalNodes>
            0 -1 234 -5.0391163676977158e-03</internalNodes>
          <leafValues>
            -7.4577611684799194e-01 6.3764445483684540e-02</leafValues></_>
        <_>
          <internalNodes>
            0 -1 225 -2.5461297482252121e-02</internalNodes>
          <leafValues>
            4.3952155113220215e-01 -1.3395491242408752e-01</leafValues></_>
        <_>
          <internalNodes>
            0 -1 226 1.0860259644687176e-03</internalNodes>
          <leafValues>
            -2.0113432407379150e-01 2.7591806650161743e-01</leafValues></_>
        <_>
          <internalNodes>
            0 -1 184 -1.1247843758610543e-05</internalNodes>
          <leafValues>
            2.3012389242649078e-01 -2.3301932215690613e-01</leafValues></_>
        <_>
          <internalNodes>
            0 -1 166 -2.7798637747764587e-02</internalNodes>
          <leafValues>
            -7.2252637147903442e-01 7.3552310466766357e-02</leafValues></_>
        <_>
          <internalNodes>
            0 -1 135 -5.1118871197104454e-03</internalNodes>
          <leafValues>
            -5.1018142700195313e-01 9.5254883170127869e-02</leafValues></_>
        <_>
          <internalNodes>
            0 -1 213 -3.2466091215610504e-03</internalNodes>
          <leafValues>
            2.9367426037788391e-01 -1.7676129937171936e-01</leafValues></_>
        <_>
          <internalNodes>
            0 -1 150 1.3449598103761673e-02</internalNodes>
          <leafValues>
            -7.2276115417480469e-02 7.3280107975006104e-01</leafValues></_></weakClassifiers></_>
    <!-- stage 18 -->
    <_>
      <maxWeakCount>17</maxWeakCount>
      <stageThreshold>-1.7740998268127441e+00</stageThreshold>
      <weakClassifiers>
        <_>
          <internalNodes>
            0 -1 69 -2.3869652301073074e-02</internalNodes>
          <leafValues>
            6.0000002384185791e-01 -8.4351849555969238e-01</leafValues></_>
        <_>
          <internalNodes>
            0 -1 35 -2.6916529983282089e-02</internalNodes>
          <leafValues>
            2.9392135143280029e-01 -4.3577232956886292e-01</leafValues></_>
        <_>
          <internalNodes>
            0 -1 31 4.6585337258875370e-05</internalNodes>
          <leafValues>
            1.3595749437808990e-01 -3.7444528937339783e-01</leafValues></_>
        <_>
          <internalNodes>
            0 -1 2 -2.3033441603183746e-01</internalNodes>
          <leafValues>
            -8.0271214246749878e-01 5.5867373943328857e-02</leafValues></_>
        <_>
          <internalNodes>
            0 -1 105 -4.3610572814941406e-01</internalNodes>
          <leafValues>
            4.4994306564331055e-01 -1.0982699692249298e-01</leafValues></_>
        <_>
          <internalNodes>
            0 -1 126 -7.8053586184978485e-03</internalNodes>
          <leafValues>
            3.6799082159996033e-01 -1.4503636956214905e-01</leafValues></_>
        <_>
          <internalNodes>
            0 -1 142 -3.8429272826761007e-03</internalNodes>
          <leafValues>
            3.1460219621658325e-01 -1.9010047614574432e-01</leafValues></_>
        <_>
          <internalNodes>
            0 -1 164 4.4543333351612091e-03</internalNodes>
          <leafValues>
            -2.3425222933292389e-01 2.5835135579109192e-01</leafValues></_>
        <_>
          <internalNodes>
            0 -1 242 -1.8361707916483283e-03</internalNodes>
          <leafValues>
            -1. 7.5324915349483490e-02</leafValues></_>
        <_>
          <internalNodes>
            0 -1 117 -3.6706773244077340e-05</internalNodes>
          <leafValues>
            2.0513463020324707e-01 -2.2275105118751526e-01</leafValues></_>
        <_>
          <internalNodes>
            0 -1 79 3.8012437522411346e-02</internalNodes>
          <leafValues>
            8.3317607641220093e-02 -5.0324022769927979e-01</leafValues></_>
        <_>
          <internalNodes>
            0 -1 18 5.9063677326776087e-05</internalNodes>
          <leafValues>
            1.5930846333503723e-01 -3.1562876701354980e-01</leafValues></_>
        <_>
          <internalNodes>
            0 -1 228 4.0963655337691307e-03</internalNodes>
          <leafValues>
            5.6522313505411148e-02 -8.4515988826751709e-01</leafValues></_>
        <_>
          <internalNodes>
            0 -1 238 -3.4656055504456162e-04</internalNodes>
          <leafValues>
            2.9485696554183960e-01 -1.6754575073719025e-01</leafValues></_>
        <_>
          <internalNodes>
            0 -1 219 -5.6118457578122616e-03</internalNodes>
          <leafValues>
            2.6120248436927795e-01 -2.3643158376216888e-01</leafValues></_>
        <_>
          <internalNodes>
            0 -1 195 1.9379282603040338e-03</internalNodes>
          <leafValues>
            -1.3941125571727753e-01 3.4775045514106750e-01</leafValues></_>
        <_>
          <internalNodes>
            0 -1 185 -1.5154379652813077e-03</internalNodes>
          <leafValues>
            -7.4726021289825439e-01 6.3085883855819702e-02</leafValues></_></weakClassifiers></_>
    <!-- stage 19 -->
    <_>
      <maxWeakCount>18</maxWeakCount>
      <stageThreshold>-1.8657076358795166e+00</stageThreshold>
      <weakClassifiers>
        <_>
          <internalNodes>
            0 -1 212 -5.5590271949768066e-02</internalNodes>
          <leafValues>
            7.7777779102325439e-01 -8.4025853872299194e-01</leafValues></_>
        <_>
          <internalNodes>
            0 -1 89 -2.8862708859378472e-05</internalNodes>
          <leafValues>
            -6.1603790521621704e-01 -1.8332619965076447e-01</leafValues></_>
        <_>
          <internalNodes>
            0 -1 244 -1.1549610644578934e-02</internalNodes>
          <leafValues>
            -7.3158222436904907e-01 3.2091781497001648e-02</leafValues></_>
        <_>
          <internalNodes>
            0 -1 201 -1.5771109610795975e-02</internalNodes>
          <leafValues>
            2.2647625207901001e-01 -2.5382190942764282e-01</leafValues></_>
        <_>
          <internalNodes>
            0 -1 66 -2.8146733529865742e-03</internalNodes>
          <leafValues>
            4.1376283764839172e-01 -1.4961987733840942e-01</leafValues></_>
        <_>
          <internalNodes>
            0 -1 192 6.2996167689561844e-03</internalNodes>
          <leafValues>
            -1.2409982830286026e-01 3.7569567561149597e-01</leafValues></_>
        <_>
          <internalNodes>
            0 -1 233 -4.0746852755546570e-03</internalNodes>
          <leafValues>
            4.5146280527114868e-01 -1.0468258708715439e-01</leafValues></_>
        <_>
          <internalNodes>
            0 -1 220 -9.2084817588329315e-03</internalNodes>
          <leafValues>
            -6.9534677267074585e-01 1.0309222340583801e-01</leafValues></_>
        <_>
          <internalNodes>
            0 -1 123 -2.8396425768733025e-03</internalNodes>
          <leafValues>
            3.7332406640052795e-01 -1.4831686019897461e-01</leafValues></_>
        <_>
          <internalNodes>
            0 -1 27 1.1555371202121023e-05</internalNodes>
          <leafValues>
            1.9029277563095093e-01 -2.7152955532073975e-01</leafValues></_>
        <_>
          <internalNodes>
            0 -1 224 -1.9111367873847485e-04</internalNodes>
          <leafValues>
            1.9857092201709747e-01 -2.4598059058189392e-01</leafValues></_>
        <_>
          <internalNodes>
            0 -1 207 -5.5480282753705978e-02</internalNodes>
          <leafValues>
            3.8753983378410339e-01 -1.3755548000335693e-01</leafValues></_>
        <_>
          <internalNodes>
            0 -1 196 -2.3182241420727223e-04</internalNodes>
          <leafValues>
            2.3529757559299469e-01 -2.5072726607322693e-01</leafValues></_>
        <_>
          <internalNodes>
            0 -1 178 -1.3701111078262329e-02</internalNodes>
          <leafValues>
            2.6973932981491089e-01 -1.9314226508140564e-01</leafValues></_>
        <_>
          <internalNodes>
            0 -1 243 1.6603800759185106e-04</internalNodes>
          <leafValues>
            1.3764180243015289e-01 -4.1263568401336670e-01</leafValues></_>
        <_>
          <internalNodes>
            0 -1 33 -8.2145877182483673e-02</internalNodes>
          <leafValues>
            7.6636898517608643e-01 -8.4184221923351288e-02</leafValues></_>
        <_>
          <internalNodes>
            0 -1 189 -5.9739791322499514e-04</internalNodes>
          <leafValues>
            2.9377245903015137e-01 -1.7036832869052887e-01</leafValues></_>
        <_>
          <internalNodes>
            0 -1 161 -8.0411862581968307e-03</internalNodes>
          <leafValues>
            2.8680613636970520e-01 -1.8664801120758057e-01</leafValues></_></weakClassifiers></_></stages>
  <features>
    <_>
      <rects>
        <_>
          0 0 21 11 -1.</_>
        <_>
          7 0 7 11 3.</_></rects>
      <tilted>0</tilted></_>
    <_>
      <rects>
        <_>
          0 0 18 10 -1.</_>
        <_>
          0 0 9 5 2.</_>
        <_>
          9 5 9 5 2.</_></rects>
      <tilted>0</tilted></_>
    <_>
      <rects>
        <_>
          0 0 14 12 -1.</_>
        <_>
          0 6 14 6 2.</_></rects>
      <tilted>0</tilted></_>
    <_>
      <rects>
        <_>
          0 1 6 2 -1.</_>
        <_>
          3 1 3 2 2.</_></rects>
      <tilted>0</tilted></_>
    <_>
      <rects>
        <_>
          0 2 10 22 -1.</_>
        <_>
          5 2 5 22 2.</_></rects>
      <tilted>0</tilted></_>
    <_>
      <rects>
        <_>
          0 3 24 15 -1.</_>
        <_>
          8 3 8 15 3.</_></rects>
      <tilted>0</tilted></_>
    <_>
      <rects>
        <_>
          0 4 12 19 -1.</_>
        <_>
          4 4 4 19 3.</_></rects>
      <tilted>0</tilted></_>
    <_>
      <rects>
        <_>
          0 4 16 3 -1.</_>
        <_>
          8 4 8 3 2.</_></rects>
      <tilted>0</tilted></_>
    <_>
      <rects>
        <_>
          0 4 24 20 -1.</_>
        <_>
          8 4 8 20 3.</_></rects>
      <tilted>0</tilted></_>
    <_>
      <rects>
        <_>
          0 5 1 3 -1.</_>
        <_>
          0 6 1 1 3.</_></rects>
      <tilted>0</tilted></_>
    <_>
      <rects>
        <_>
          0 6 9 17 -1.</_>
        <_>
          3 6 3 17 3.</_></rects>
      <tilted>0</tilted></_>
    <_>
      <rects>
        <_>
          0 6 24 1 -1.</_>
        <_>
          8 6 8 1 3.</_></rects>
      <tilted>0</tilted></_>
    <_>
      <rects>
        <_>
          0 6 24 2 -1.</_>
        <_>
          8 6 8 2 3.</_></rects>
      <tilted>0</tilted></_>
    <_>
      <rects>
        <_>
          0 7 1 15 -1.</_>
        <_>
          0 12 1 5 3.</_></rects>
      <tilted>0</tilted></_>
    <_>
      <rects>
        <_>
          0 7 24 1 -1.</_>
        <_>
          8 7 8 1 3.</_></rects>
      <tilted>0</tilted></_>
    <_>
      <rects>
        <_>
          0 9 1 14 -1.</_>
        <_>
          0 16 1 7 2.</_></rects>
      <tilted>0</tilted></_>
    <_>
      <rects>
        <_>
          0 9 6 8 -1.</_>
        <_>
          2 9 2 8 3.</_></rects>
      <tilted>0</tilted></_>
    <_>
      <rects>
        <_>
          0 9 18 3 -1.</_>
        <_>
          0 10 18 1 3.</_></rects>
      <tilted>0</tilted></_>
    <_>
      <rects>
        <_>
          0 10 1 4 -1.</_>
        <_>
          0 12 1 2 2.</_></rects>
      <tilted>0</tilted></_>
    <_>
      <rects>
        <_>
          0 10 9 11 -1.</_>
        <_>
          3 10 3 11 3.</_></rects>
      <tilted>0</tilted></_>
    <_>
      <rects>
        <_>
          0 12 12 8 -1.</_>
        <_>
          4 12 4 8 3.</_></rects>
      <tilted>0</tilted></_>
    <_>
      <rects>
        <_>
          0 13 8 11 -1.</_>
        <_>
          4 13 4 11 2.</_></rects>
      <tilted>0</tilted></_>
    <_>
      <rects>
        <_>
          0 14 2 10 -1.</_>
        <_>
          0 19 2 5 2.</_></rects>
      <tilted>0</tilted></_>
    <_>
      <rects>
        <_>
          0 14 8 8 -1.</_>
        <_>
          4 14 4 8 2.</_></rects>
      <tilted>0</tilted></_>
    <_>
      <rects>
        <_>
          0 15 1 6 -1.</_>
        <_>
          0 18 1 3 2.</_></rects>
      <tilted>0</tilted></_>
    <_>
      <rects>
        <_>
          0 15 8 6 -1.</_>
        <_>
          4 15 4 6 2.</_></rects>
      <tilted>0</tilted></_>
    <_>
      <rects>
        <_>
          0 17 2 3 -1.</_>
        <_>
          0 18 2 1 3.</_></rects>
      <tilted>0</tilted></_>
    <_>
      <rects>
        <_>
          0 18 1 4 -1.</_>
        <_>
          0 20 1 2 2.</_></rects>
      <tilted>0</tilted></_>
    <_>
      <rects>
        <_>
          0 18 1 6 -1.</_>
        <_>
          0 21 1 3 2.</_></rects>
      <tilted>0</tilted></_>
    <_>
      <rects>
        <_>
          0 18 3 3 -1.</_>
        <_>
          0 19 3 1 3.</_></rects>
      <tilted>0</tilted></_>
    <_>
      <rects>
        <_>
          0 22 4 1 -1.</_>
        <_>
          2 22 2 1 2.</_></rects>
      <tilted>0</tilted></_>
    <_>
      <rects>
        <_>
          1 2 1 4 -1.</_>
        <_>
          1 4 1 2 2.</_></rects>
      <tilted>0</tilted></_>
    <_>
      <rects>
        <_>
          1 4 2 6 -1.</_>
        <_>
          1 6 2 2 3.</_></rects>
      <tilted>0</tilted></_>
    <_>
      <rects>
        <_>
          1 4 8 8 -1.</_>
        <_>
          5 4 4 8 2.</_></rects>
      <tilted>0</tilted></_>
    <_>
      <rects>
        <_>
          1 4 17 6 -1.</_>
        <_>
          1 6 17 2 3.</_></rects>
      <tilted>0</tilted></_>
    <_>
      <rects>
        <_>
          1 6 16 1 -1.</_>
        <_>
          9 6 8 1 2.</_></rects>
      <tilted>0</tilted></_>
    <_>
      <rects>
        <_>
          1 8 6 4 -1.</_>
        <_>
          4 8 3 4 2.</_></rects>
      <tilted>0</tilted></_>
    <_>
      <rects>
        <_>
          1 9 16 3 -1.</_>
        <_>
          1 10 16 1 3.</_></rects>
      <tilted>0</tilted></_>
    <_>
      <rects>
        <_>
          1 18 21 5 -1.</_>
        <_>
          8 18 7 5 3.</_></rects>
      <tilted>0</tilted></_>
    <_>
      <rects>
        <_>
          1 20 1 2 -1.</_>
        <_>
          1 21 1 1 2.</_></rects>
      <tilted>0</tilted></_>
    <_>
      <rects>
        <_>
          1 20 12 2 -1.</_>
        <_>
          1 20 6 1 2.</_>
        <_>
          7 21 6 1 2.</_></rects>
      <tilted>0</tilted></_>
    <_>
      <rects>
        <_>
          1 21 1 3 -1.</_>
        <_>
          1 22 1 1 3.</_></rects>
      <tilted>0</tilted></_>
    <_>
      <rects>
        <_>
          1 23 2 1 -1.</_>
        <_>
          2 23 1 1 2.</_></rects>
      <tilted>0</tilted></_>
    <_>
      <rects>
        <_>
          2 0 22 2 -1.</_>
        <_>
          2 0 11 1 2.</_>
        <_>
          13 1 11 1 2.</_></rects>
      <tilted>0</tilted></_>
    <_>
      <rects>
        <_>
          2 1 6 12 -1.</_>
        <_>
          2 5 6 4 3.</_></rects>
      <tilted>0</tilted></_>
    <_>
      <rects>
        <_>
          2 1 9 14 -1.</_>
        <_>
          2 8 9 7 2.</_></rects>
      <tilted>0</tilted></_>
    <_>
      <rects>
        <_>
          2 1 14 9 -1.</_>
        <_>
          2 4 14 3 3.</_></rects>
      <tilted>0</tilted></_>
    <_>
      <rects>
        <_>
          2 12 18 12 -1.</_>
        <_>
          2 18 18 6 2.</_></rects>
      <tilted>0</tilted></_>
    <_>
      <rects>
        <_>
          2 14 18 2 -1.</_>
        <_>
          11 14 9 2 2.</_></rects>
      <tilted>0</tilted></_>
    <_>
      <rects>
        <_>
          2 14 19 10 -1.</_>
        <_>
          2 19 19 5 2.</_></rects>
      <tilted>0</tilted></_>
    <_>
      <rects>
        <_>
          2 17 12 4 -1.</_>
        <_>
          2 17 6 2 2.</_>
        <_>
          8 19 6 2 2.</_></rects>
      <tilted>0</tilted></_>
    <_>
      <rects>
        <_>
          2 22 10 2 -1.</_>
        <_>
          2 22 5 1 2.</_>
        <_>
          7 23 5 1 2.</_></rects>
      <tilted>0</tilted></_>
    <_>
      <rects>
        <_>
          2 23 3 1 -1.</_>
        <_>
          3 23 1 1 3.</_></rects>
      <tilted>0</tilted></_>
    <_>
      <rects>
        <_>
          3 0 15 24 -1.</_>
        <_>
          3 8 15 8 3.</_></rects>
      <tilted>0</tilted></_>
    <_>
      <rects>
        <_>
          3 1 16 1 -1.</_>
        <_>
          11 1 8 1 2.</_></rects>
      <tilted>0</tilted></_>
    <_>
      <rects>
        <_>
          3 4 16 3 -1.</_>
        <_>
          3 5 16 1 3.</_></rects>
      <tilted>0</tilted></_>
    <_>
      <rects>
        <_>
          3 5 21 1 -1.</_>
        <_>
          10 5 7 1 3.</_></rects>
      <tilted>0</tilted></_>
    <_>
      <rects>
        <_>
          3 6 10 8 -1.</_>
        <_>
          3 6 5 4 2.</_>
        <_>
          8 10 5 4 2.</_></rects>
      <tilted>0</tilted></_>
    <_>
      <rects>
        <_>
          3 6 18 18 -1.</_>
        <_>
          3 12 18 6 3.</_></rects>
      <tilted>0</tilted></_>
    <_>
      <rects>
        <_>
          3 9 8 15 -1.</_>
        <_>
          3 14 8 5 3.</_></rects>
      <tilted>0</tilted></_>
    <_>
      <rects>
        <_>
          3 10 3 5 -1.</_>
        <_>
          4 10 1 5 3.</_></rects>
      <tilted>0</tilted></_>
    <_>
      <rects>
        <_>
          3 11 15 12 -1.</_>
        <_>
          3 15 15 4 3.</_></rects>
      <tilted>0</tilted></_>
    <_>
      <rects>
        <_>
          3 12 21 10 -1.</_>
        <_>
          10 12 7 10 3.</_></rects>
      <tilted>0</tilted></_>
    <_>
      <rects>
        <_>
          3 12 17 2 -1.</_>
        <_>
          3 13 17 1 2.</_></rects>
      <tilted>0</tilted></_>
    <_>
      <rects>
        <_>
          3 14 2 2 -1.</_>
        <_>
          3 14 1 1 2.</_>
        <_>
          4 15 1 1 2.</_></rects>
      <tilted>0</tilted></_>
    <_>
      <rects>
        <_>
          3 15 19 9 -1.</_>
        <_>
          3 18 19 3 3.</_></rects>
      <tilted>0</tilted></_>
    <_>
      <rects>
        <_>
          3 16 6 2 -1.</_>
        <_>
          3 16 3 1 2.</_>
        <_>
          6 17 3 1 2.</_></rects>
      <tilted>0</tilted></_>
    <_>
      <rects>
        <_>
          3 18 9 3 -1.</_>
        <_>
          6 18 3 3 3.</_></rects>
      <tilted>0</tilted></_>
    <_>
      <rects>
        <_>
          3 18 7 6 -1.</_>
        <_>
          3 21 7 3 2.</_></rects>
      <tilted>0</tilted></_>
    <_>
      <rects>
        <_>
          3 19 6 2 -1.</_>
        <_>
          5 19 2 2 3.</_></rects>
      <tilted>0</tilted></_>
    <_>
      <rects>
        <_>
          3 20 7 3 -1.</_>
        <_>
          3 21 7 1 3.</_></rects>
      <tilted>0</tilted></_>
    <_>
      <rects>
        <_>
          4 0 15 1 -1.</_>
        <_>
          9 0 5 1 3.</_></rects>
      <tilted>0</tilted></_>
    <_>
      <rects>
        <_>
          4 0 12 1 -1.</_>
        <_>
          10 0 6 1 2.</_></rects>
      <tilted>0</tilted></_>
    <_>
      <rects>
        <_>
          4 0 17 24 -1.</_>
        <_>
          4 8 17 8 3.</_></rects>
      <tilted>0</tilted></_>
    <_>
      <rects>
        <_>
          4 4 5 10 -1.</_>
        <_>
          4 9 5 5 2.</_></rects>
      <tilted>0</tilted></_>
    <_>
      <rects>
        <_>
          4 4 15 6 -1.</_>
        <_>
          4 6 15 2 3.</_></rects>
      <tilted>0</tilted></_>
    <_>
      <rects>
        <_>
          4 5 15 4 -1.</_>
        <_>
          4 7 15 2 2.</_></rects>
      <tilted>0</tilted></_>
    <_>
      <rects>
        <_>
          4 6 16 18 -1.</_>
        <_>
          4 12 16 6 3.</_></rects>
      <tilted>0</tilted></_>
    <_>
      <rects>
        <_>
          4 9 16 15 -1.</_>
        <_>
          4 14 16 5 3.</_></rects>
      <tilted>0</tilted></_>
    <_>
      <rects>
        <_>
          4 12 14 12 -1.</_>
        <_>
          4 12 7 6 2.</_>
        <_>
          11 18 7 6 2.</_></rects>
      <tilted>0</tilted></_>
    <_>
      <rects>
        <_>
          4 14 2 9 -1.</_>
        <_>
          4 17 2 3 3.</_></rects>
      <tilted>0</tilted></_>
    <_>
      <rects>
        <_>
          4 14 15 10 -1.</_>
        <_>
          4 19 15 5 2.</_></rects>
      <tilted>0</tilted></_>
    <_>
      <rects>
        <_>
          4 16 11 3 -1.</_>
        <_>
          4 17 11 1 3.</_></rects>
      <tilted>0</tilted></_>
    <_>
      <rects>
        <_>
          4 18 2 2 -1.</_>
        <_>
          4 18 1 1 2.</_>
        <_>
          5 19 1 1 2.</_></rects>
      <tilted>0</tilted></_>
    <_>
      <rects>
        <_>
          4 18 6 3 -1.</_>
        <_>
          6 18 2 3 3.</_></rects>
      <tilted>0</tilted></_>
    <_>
      <rects>
        <_>
          4 18 11 6 -1.</_>
        <_>
          4 20 11 2 3.</_></rects>
      <tilted>0</tilted></_>
    <_>
      <rects>
        <_>
          4 18 15 3 -1.</_>
        <_>
          4 19 15 1 3.</_></rects>
      <tilted>0</tilted></_>
    <_>
      <rects>
        <_>
          4 23 2 1 -1.</_>
        <_>
          5 23 1 1 2.</_></rects>
      <tilted>0</tilted></_>
    <_>
      <rects>
        <_>
          4 23 3 1 -1.</_>
        <_>
          5 23 1 1 3.</_></rects>
      <tilted>0</tilted></_>
    <_>
      <rects>
        <_>
          5 0 12 1 -1.</_>
        <_>
          9 0 4 1 3.</_></rects>
      <tilted>0</tilted></_>
    <_>
      <rects>
        <_>
          5 0 13 10 -1.</_>
        <_>
          5 5 13 5 2.</_></rects>
      <tilted>0</tilted></_>
    <_>
      <rects>
        <_>
          5 2 6 6 -1.</_>
        <_>
          5 4 6 2 3.</_></rects>
      <tilted>0</tilted></_>
    <_>
      <rects>
        <_>
          5 5 8 3 -1.</_>
        <_>
          5 6 8 1 3.</_></rects>
      <tilted>0</tilted></_>
    <_>
      <rects>
        <_>
          5 9 18 3 -1.</_>
        <_>
          5 10 18 1 3.</_></rects>
      <tilted>0</tilted></_>
    <_>
      <rects>
        <_>
          5 11 2 1 -1.</_>
        <_>
          6 11 1 1 2.</_></rects>
      <tilted>0</tilted></_>
    <_>
      <rects>
        <_>
          5 12 2 1 -1.</_>
        <_>
          6 12 1 1 2.</_></rects>
      <tilted>0</tilted></_>
    <_>
      <rects>
        <_>
          5 14 2 1 -1.</_>
        <_>
          6 14 1 1 2.</_></rects>
      <tilted>0</tilted></_>
    <_>
      <rects>
        <_>
          5 14 12 10 -1.</_>
        <_>
          5 19 12 5 2.</_></rects>
      <tilted>0</tilted></_>
    <_>
      <rects>
        <_>
          5 15 15 2 -1.</_>
        <_>
          5 16 15 1 2.</_></rects>
      <tilted>0</tilted></_>
    <_>
      <rects>
        <_>
          5 16 2 1 -1.</_>
        <_>
          6 16 1 1 2.</_></rects>
      <tilted>0</tilted></_>
    <_>
      <rects>
        <_>
          5 19 6 3 -1.</_>
        <_>
          5 20 6 1 3.</_></rects>
      <tilted>0</tilted></_>
    <_>
      <rects>
        <_>
          5 21 10 3 -1.</_>
        <_>
          5 22 10 1 3.</_></rects>
      <tilted>0</tilted></_>
    <_>
      <rects>
        <_>
          6 0 12 20 -1.</_>
        <_>
          6 10 12 10 2.</_></rects>
      <tilted>0</tilted></_>
    <_>
      <rects>
        <_>
          6 0 14 9 -1.</_>
        <_>
          6 3 14 3 3.</_></rects>
      <tilted>0</tilted></_>
    <_>
      <rects>
        <_>
          6 0 16 24 -1.</_>
        <_>
          6 8 16 8 3.</_></rects>
      <tilted>0</tilted></_>
    <_>
      <rects>
        <_>
          6 0 17 24 -1.</_>
        <_>
          6 8 17 8 3.</_></rects>
      <tilted>0</tilted></_>
    <_>
      <rects>
        <_>
          6 1 16 2 -1.</_>
        <_>
          14 1 8 2 2.</_></rects>
      <tilted>0</tilted></_>
    <_>
      <rects>
        <_>
          6 1 11 8 -1.</_>
        <_>
          6 5 11 4 2.</_></rects>
      <tilted>0</tilted></_>
    <_>
      <rects>
        <_>
          6 1 18 6 -1.</_>
        <_>
          6 3 18 2 3.</_></rects>
      <tilted>0</tilted></_>
    <_>
      <rects>
        <_>
          6 2 2 8 -1.</_>
        <_>
          7 2 1 8 2.</_></rects>
      <tilted>0</tilted></_>
    <_>
      <rects>
        <_>
          6 5 11 6 -1.</_>
        <_>
          6 7 11 2 3.</_></rects>
      <tilted>0</tilted></_>
    <_>
      <rects>
        <_>
          6 7 16 12 -1.</_>
        <_>
          6 13 16 6 2.</_></rects>
      <tilted>0</tilted></_>
    <_>
      <rects>
        <_>
          6 11 2 1 -1.</_>
        <_>
          7 11 1 1 2.</_></rects>
      <tilted>0</tilted></_>
    <_>
      <rects>
        <_>
          6 11 3 1 -1.</_>
        <_>
          7 11 1 1 3.</_></rects>
      <tilted>0</tilted></_>
    <_>
      <rects>
        <_>
          6 13 8 2 -1.</_>
        <_>
          6 13 4 1 2.</_>
        <_>
          10 14 4 1 2.</_></rects>
      <tilted>0</tilted></_>
    <_>
      <rects>
        <_>
          6 15 12 3 -1.</_>
        <_>
          6 16 12 1 3.</_></rects>
      <tilted>0</tilted></_>
    <_>
      <rects>
        <_>
          6 16 6 3 -1.</_>
        <_>
          6 17 6 1 3.</_></rects>
      <tilted>0</tilted></_>
    <_>
      <rects>
        <_>
          6 17 3 7 -1.</_>
        <_>
          7 17 1 7 3.</_></rects>
      <tilted>0</tilted></_>
    <_>
      <rects>
        <_>
          6 22 4 1 -1.</_>
        <_>
          8 22 2 1 2.</_></rects>
      <tilted>0</tilted></_>
    <_>
      <rects>
        <_>
          6 23 2 1 -1.</_>
        <_>
          7 23 1 1 2.</_></rects>
      <tilted>0</tilted></_>
    <_>
      <rects>
        <_>
          6 23 4 1 -1.</_>
        <_>
          8 23 2 1 2.</_></rects>
      <tilted>0</tilted></_>
    <_>
      <rects>
        <_>
          7 1 3 9 -1.</_>
        <_>
          7 4 3 3 3.</_></rects>
      <tilted>0</tilted></_>
    <_>
      <rects>
        <_>
          7 4 9 8 -1.</_>
        <_>
          7 8 9 4 2.</_></rects>
      <tilted>0</tilted></_>
    <_>
      <rects>
        <_>
          7 5 2 3 -1.</_>
        <_>
          7 6 2 1 3.</_></rects>
      <tilted>0</tilted></_>
    <_>
      <rects>
        <_>
          7 5 16 3 -1.</_>
        <_>
          7 6 16 1 3.</_></rects>
      <tilted>0</tilted></_>
    <_>
      <rects>
        <_>
          7 6 2 2 -1.</_>
        <_>
          7 6 1 1 2.</_>
        <_>
          8 7 1 1 2.</_></rects>
      <tilted>0</tilted></_>
    <_>
      <rects>
        <_>
          7 10 11 3 -1.</_>
        <_>
          7 11 11 1 3.</_></rects>
      <tilted>0</tilted></_>
    <_>
      <rects>
        <_>
          7 13 4 3 -1.</_>
        <_>
          7 14 4 1 3.</_></rects>
      <tilted>0</tilted></_>
    <_>
      <rects>
        <_>
          7 15 2 2 -1.</_>
        <_>
          8 15 1 2 2.</_></rects>
      <tilted>0</tilted></_>
    <_>
      <rects>
        <_>
          7 15 14 3 -1.</_>
        <_>
          7 16 14 1 3.</_></rects>
      <tilted>0</tilted></_>
    <_>
      <rects>
        <_>
          7 16 6 4 -1.</_>
        <_>
          7 18 6 2 2.</_></rects>
      <tilted>0</tilted></_>
    <_>
      <rects>
        <_>
          7 16 10 3 -1.</_>
        <_>
          7 17 10 1 3.</_></rects>
      <tilted>0</tilted></_>
    <_>
      <rects>
        <_>
          7 18 2 2 -1.</_>
        <_>
          7 18 1 1 2.</_>
        <_>
          8 19 1 1 2.</_></rects>
      <tilted>0</tilted></_>
    <_>
      <rects>
        <_>
          7 22 3 1 -1.</_>
        <_>
          8 22 1 1 3.</_></rects>
      <tilted>0</tilted></_>
    <_>
      <rects>
        <_>
          8 0 9 3 -1.</_>
        <_>
          11 0 3 3 3.</_></rects>
      <tilted>0</tilted></_>
    <_>
      <rects>
        <_>
          8 0 15 1 -1.</_>
        <_>
          13 0 5 1 3.</_></rects>
      <tilted>0</tilted></_>
    <_>
      <rects>
        <_>
          8 1 6 1 -1.</_>
        <_>
          10 1 2 1 3.</_></rects>
      <tilted>0</tilted></_>
    <_>
      <rects>
        <_>
          8 1 8 6 -1.</_>
        <_>
          8 3 8 2 3.</_></rects>
      <tilted>0</tilted></_>
    <_>
      <rects>
        <_>
          8 2 6 2 -1.</_>
        <_>
          8 2 3 1 2.</_>
        <_>
          11 3 3 1 2.</_></rects>
      <tilted>0</tilted></_>
    <_>
      <rects>
        <_>
          8 5 4 6 -1.</_>
        <_>
          8 7 4 2 3.</_></rects>
      <tilted>0</tilted></_>
    <_>
      <rects>
        <_>
          8 7 9 6 -1.</_>
        <_>
          8 9 9 2 3.</_></rects>
      <tilted>0</tilted></_>
    <_>
      <rects>
        <_>
          8 9 8 15 -1.</_>
        <_>
          8 14 8 5 3.</_></rects>
      <tilted>0</tilted></_>
    <_>
      <rects>
        <_>
          8 9 12 3 -1.</_>
        <_>
          8 10 12 1 3.</_></rects>
      <tilted>0</tilted></_>
    <_>
      <rects>
        <_>
          8 13 1 2 -1.</_>
        <_>
          8 14 1 1 2.</_></rects>
      <tilted>0</tilted></_>
    <_>
      <rects>
        <_>
          8 13 2 2 -1.</_>
        <_>
          8 13 1 1 2.</_>
        <_>
          9 14 1 1 2.</_></rects>
      <tilted>0</tilted></_>
    <_>
      <rects>
        <_>
          8 16 2 3 -1.</_>
        <_>
          8 17 2 1 3.</_></rects>
      <tilted>0</tilted></_>
    <_>
      <rects>
        <_>
          8 17 13 3 -1.</_>
        <_>
          8 18 13 1 3.</_></rects>
      <tilted>0</tilted></_>
    <_>
      <rects>
        <_>
          8 19 14 2 -1.</_>
        <_>
          8 19 7 1 2.</_>
        <_>
          15 20 7 1 2.</_></rects>
      <tilted>0</tilted></_>
    <_>
      <rects>
        <_>
          8 22 2 2 -1.</_>
        <_>
          9 22 1 2 2.</_></rects>
      <tilted>0</tilted></_>
    <_>
      <rects>
        <_>
          8 22 12 2 -1.</_>
        <_>
          12 22 4 2 3.</_></rects>
      <tilted>0</tilted></_>
    <_>
      <rects>
        <_>
          8 22 8 2 -1.</_>
        <_>
          8 23 8 1 2.</_></rects>
      <tilted>0</tilted></_>
    <_>
      <rects>
        <_>
          9 1 13 12 -1.</_>
        <_>
          9 5 13 4 3.</_></rects>
      <tilted>0</tilted></_>
    <_>
      <rects>
        <_>
          9 6 2 4 -1.</_>
        <_>
          10 6 1 4 2.</_></rects>
      <tilted>0</tilted></_>
    <_>
      <rects>
        <_>
          9 7 2 6 -1.</_>
        <_>
          9 7 1 3 2.</_>
        <_>
          10 10 1 3 2.</_></rects>
      <tilted>0</tilted></_>
    <_>
      <rects>
        <_>
          9 11 2 3 -1.</_>
        <_>
          9 12 2 1 3.</_></rects>
      <tilted>0</tilted></_>
    <_>
      <rects>
        <_>
          9 17 10 2 -1.</_>
        <_>
          9 18 10 1 2.</_></rects>
      <tilted>0</tilted></_>
    <_>
      <rects>
        <_>
          9 18 8 6 -1.</_>
        <_>
          9 21 8 3 2.</_></rects>
      <tilted>0</tilted></_>
    <_>
      <rects>
        <_>
          9 19 9 2 -1.</_>
        <_>
          9 20 9 1 2.</_></rects>
      <tilted>0</tilted></_>
    <_>
      <rects>
        <_>
          9 23 6 1 -1.</_>
        <_>
          12 23 3 1 2.</_></rects>
      <tilted>0</tilted></_>
    <_>
      <rects>
        <_>
          10 1 8 1 -1.</_>
        <_>
          14 1 4 1 2.</_></rects>
      <tilted>0</tilted></_>
    <_>
      <rects>
        <_>
          10 4 6 6 -1.</_>
        <_>
          12 4 2 6 3.</_></rects>
      <tilted>0</tilted></_>
    <_>
      <rects>
        <_>
          10 4 9 5 -1.</_>
        <_>
          13 4 3 5 3.</_></rects>
      <tilted>0</tilted></_>
    <_>
      <rects>
        <_>
          10 6 10 6 -1.</_>
        <_>
          10 6 5 3 2.</_>
        <_>
          15 9 5 3 2.</_></rects>
      <tilted>0</tilted></_>
    <_>
      <rects>
        <_>
          10 8 2 2 -1.</_>
        <_>
          10 8 1 1 2.</_>
        <_>
          11 9 1 1 2.</_></rects>
      <tilted>0</tilted></_>
    <_>
      <rects>
        <_>
          10 8 5 6 -1.</_>
        <_>
          10 10 5 2 3.</_></rects>
      <tilted>0</tilted></_>
    <_>
      <rects>
        <_>
          10 13 12 3 -1.</_>
        <_>
          10 14 12 1 3.</_></rects>
      <tilted>0</tilted></_>
    <_>
      <rects>
        <_>
          10 15 8 9 -1.</_>
        <_>
          14 15 4 9 2.</_></rects>
      <tilted>0</tilted></_>
    <_>
      <rects>
        <_>
          10 15 7 3 -1.</_>
        <_>
          10 16 7 1 3.</_></rects>
      <tilted>0</tilted></_>
    <_>
      <rects>
        <_>
          10 17 2 3 -1.</_>
        <_>
          10 18 2 1 3.</_></rects>
      <tilted>0</tilted></_>
    <_>
      <rects>
        <_>
          10 17 14 6 -1.</_>
        <_>
          17 17 7 6 2.</_></rects>
      <tilted>0</tilted></_>
    <_>
      <rects>
        <_>
          10 18 8 4 -1.</_>
        <_>
          10 20 8 2 2.</_></rects>
      <tilted>0</tilted></_>
    <_>
      <rects>
        <_>
          11 0 13 24 -1.</_>
        <_>
          11 12 13 12 2.</_></rects>
      <tilted>0</tilted></_>
    <_>
      <rects>
        <_>
          11 2 6 6 -1.</_>
        <_>
          13 2 2 6 3.</_></rects>
      <tilted>0</tilted></_>
    <_>
      <rects>
        <_>
          11 4 2 6 -1.</_>
        <_>
          11 4 1 3 2.</_>
        <_>
          12 7 1 3 2.</_></rects>
      <tilted>0</tilted></_>
    <_>
      <rects>
        <_>
          11 8 4 3 -1.</_>
        <_>
          11 9 4 1 3.</_></rects>
      <tilted>0</tilted></_>
    <_>
      <rects>
        <_>
          11 9 1 2 -1.</_>
        <_>
          11 10 1 1 2.</_></rects>
      <tilted>0</tilted></_>
    <_>
      <rects>
        <_>
          11 12 1 2 -1.</_>
        <_>
          11 13 1 1 2.</_></rects>
      <tilted>0</tilted></_>
    <_>
      <rects>
        <_>
          11 12 3 2 -1.</_>
        <_>
          11 13 3 1 2.</_></rects>
      <tilted>0</tilted></_>
    <_>
      <rects>
        <_>
          11 12 6 12 -1.</_>
        <_>
          11 18 6 6 2.</_></rects>
      <tilted>0</tilted></_>
    <_>
      <rects>
        <_>
          11 17 2 2 -1.</_>
        <_>
          11 17 1 1 2.</_>
        <_>
          12 18 1 1 2.</_></rects>
      <tilted>0</tilted></_>
    <_>
      <rects>
        <_>
          11 17 3 6 -1.</_>
        <_>
          11 20 3 3 2.</_></rects>
      <tilted>0</tilted></_>
    <_>
      <rects>
        <_>
          11 23 4 1 -1.</_>
        <_>
          13 23 2 1 2.</_></rects>
      <tilted>0</tilted></_>
    <_>
      <rects>
        <_>
          12 2 6 6 -1.</_>
        <_>
          14 2 2 6 3.</_></rects>
      <tilted>0</tilted></_>
    <_>
      <rects>
        <_>
          12 7 12 14 -1.</_>
        <_>
          16 7 4 14 3.</_></rects>
      <tilted>0</tilted></_>
    <_>
      <rects>
        <_>
          12 13 4 1 -1.</_>
        <_>
          14 13 2 1 2.</_></rects>
      <tilted>0</tilted></_>
    <_>
      <rects>
        <_>
          12 22 3 2 -1.</_>
        <_>
          13 22 1 2 3.</_></rects>
      <tilted>0</tilted></_>
    <_>
      <rects>
        <_>
          13 10 2 3 -1.</_>
        <_>
          13 11 2 1 3.</_></rects>
      <tilted>0</tilted></_>
    <_>
      <rects>
        <_>
          13 11 6 2 -1.</_>
        <_>
          13 11 3 1 2.</_>
        <_>
          16 12 3 1 2.</_></rects>
      <tilted>0</tilted></_>
    <_>
      <rects>
        <_>
          13 12 2 1 -1.</_>
        <_>
          14 12 1 1 2.</_></rects>
      <tilted>0</tilted></_>
    <_>
      <rects>
        <_>
          13 12 1 3 -1.</_>
        <_>
          13 13 1 1 3.</_></rects>
      <tilted>0</tilted></_>
    <_>
      <rects>
        <_>
          13 12 6 2 -1.</_>
        <_>
          13 12 3 1 2.</_>
        <_>
          16 13 3 1 2.</_></rects>
      <tilted>0</tilted></_>
    <_>
      <rects>
        <_>
          13 13 2 2 -1.</_>
        <_>
          13 13 1 1 2.</_>
        <_>
          14 14 1 1 2.</_></rects>
      <tilted>0</tilted></_>
    <_>
      <rects>
        <_>
          13 17 6 4 -1.</_>
        <_>
          15 17 2 4 3.</_></rects>
      <tilted>0</tilted></_>
    <_>
      <rects>
        <_>
          13 22 2 1 -1.</_>
        <_>
          14 22 1 1 2.</_></rects>
      <tilted>0</tilted></_>
    <_>
      <rects>
        <_>
          14 1 2 18 -1.</_>
        <_>
          14 10 2 9 2.</_></rects>
      <tilted>0</tilted></_>
    <_>
      <rects>
        <_>
          14 4 2 5 -1.</_>
        <_>
          15 4 1 5 2.</_></rects>
      <tilted>0</tilted></_>
    <_>
      <rects>
        <_>
          14 7 4 2 -1.</_>
        <_>
          14 8 4 1 2.</_></rects>
      <tilted>0</tilted></_>
    <_>
      <rects>
        <_>
          14 7 10 12 -1.</_>
        <_>
          14 7 5 6 2.</_>
        <_>
          19 13 5 6 2.</_></rects>
      <tilted>0</tilted></_>
    <_>
      <rects>
        <_>
          14 9 6 10 -1.</_>
        <_>
          16 9 2 10 3.</_></rects>
      <tilted>0</tilted></_>
    <_>
      <rects>
        <_>
          14 10 1 3 -1.</_>
        <_>
          14 11 1 1 3.</_></rects>
      <tilted>0</tilted></_>
    <_>
      <rects>
        <_>
          14 10 6 10 -1.</_>
        <_>
          16 10 2 10 3.</_></rects>
      <tilted>0</tilted></_>
    <_>
      <rects>
        <_>
          14 10 10 12 -1.</_>
        <_>
          14 14 10 4 3.</_></rects>
      <tilted>0</tilted></_>
    <_>
      <rects>
        <_>
          14 13 6 3 -1.</_>
        <_>
          16 13 2 3 3.</_></rects>
      <tilted>0</tilted></_>
    <_>
      <rects>
        <_>
          14 15 10 3 -1.</_>
        <_>
          19 15 5 3 2.</_></rects>
      <tilted>0</tilted></_>
    <_>
      <rects>
        <_>
          14 16 4 2 -1.</_>
        <_>
          14 16 2 1 2.</_>
        <_>
          16 17 2 1 2.</_></rects>
      <tilted>0</tilted></_>
    <_>
      <rects>
        <_>
          14 17 10 6 -1.</_>
        <_>
          19 17 5 6 2.</_></rects>
      <tilted>0</tilted></_>
    <_>
      <rects>
        <_>
          14 18 6 2 -1.</_>
        <_>
          16 18 2 2 3.</_></rects>
      <tilted>0</tilted></_>
    <_>
      <rects>
        <_>
          15 0 7 15 -1.</_>
        <_>
          15 5 7 5 3.</_></rects>
      <tilted>0</tilted></_>
    <_>
      <rects>
        <_>
          15 0 8 24 -1.</_>
        <_>
          15 12 8 12 2.</_></rects>
      <tilted>0</tilted></_>
    <_>
      <rects>
        <_>
          15 8 1 2 -1.</_>
        <_>
          15 9 1 1 2.</_></rects>
      <tilted>0</tilted></_>
    <_>
      <rects>
        <_>
          15 14 6 9 -1.</_>
        <_>
          17 14 2 9 3.</_></rects>
      <tilted>0</tilted></_>
    <_>
      <rects>
        <_>
          15 15 6 6 -1.</_>
        <_>
          17 15 2 6 3.</_></rects>
      <tilted>0</tilted></_>
    <_>
      <rects>
        <_>
          15 17 6 5 -1.</_>
        <_>
          17 17 2 5 3.</_></rects>
      <tilted>0</tilted></_>
    <_>
      <rects>
        <_>
          16 2 3 21 -1.</_>
        <_>
          17 2 1 21 3.</_></rects>
      <tilted>0</tilted></_>
    <_>
      <rects>
        <_>
          16 6 8 16 -1.</_>
        <_>
          20 6 4 16 2.</_></rects>
      <tilted>0</tilted></_>
    <_>
      <rects>
        <_>
          16 7 8 11 -1.</_>
        <_>
          20 7 4 11 2.</_></rects>
      <tilted>0</tilted></_>
    <_>
      <rects>
        <_>
          16 16 2 2 -1.</_>
        <_>
          16 16 1 1 2.</_>
        <_>
          17 17 1 1 2.</_></rects>
      <tilted>0</tilted></_>
    <_>
      <rects>
        <_>
          16 23 3 1 -1.</_>
        <_>
          17 23 1 1 3.</_></rects>
      <tilted>0</tilted></_>
    <_>
      <rects>
        <_>
          17 1 3 3 -1.</_>
        <_>
          17 2 3 1 3.</_></rects>
      <tilted>0</tilted></_>
    <_>
      <rects>
        <_>
          17 2 6 17 -1.</_>
        <_>
          19 2 2 17 3.</_></rects>
      <tilted>0</tilted></_>
    <_>
      <rects>
        <_>
          17 4 2 20 -1.</_>
        <_>
          18 4 1 20 2.</_></rects>
      <tilted>0</tilted></_>
    <_>
      <rects>
        <_>
          17 7 4 13 -1.</_>
        <_>
          19 7 2 13 2.</_></rects>
      <tilted>0</tilted></_>
    <_>
      <rects>
        <_>
          17 9 6 12 -1.</_>
        <_>
          19 9 2 12 3.</_></rects>
      <tilted>0</tilted></_>
    <_>
      <rects>
        <_>
          17 9 6 12 -1.</_>
        <_>
          20 9 3 12 2.</_></rects>
      <tilted>0</tilted></_>
    <_>
      <rects>
        <_>
          17 10 3 2 -1.</_>
        <_>
          17 11 3 1 2.</_></rects>
      <tilted>0</tilted></_>
    <_>
      <rects>
        <_>
          17 11 6 10 -1.</_>
        <_>
          19 11 2 10 3.</_></rects>
      <tilted>0</tilted></_>
    <_>
      <rects>
        <_>
          17 16 6 2 -1.</_>
        <_>
          19 16 2 2 3.</_></rects>
      <tilted>0</tilted></_>
    <_>
      <rects>
        <_>
          17 18 2 2 -1.</_>
        <_>
          17 18 1 1 2.</_>
        <_>
          18 19 1 1 2.</_></rects>
      <tilted>0</tilted></_>
    <_>
      <rects>
        <_>
          17 23 6 1 -1.</_>
        <_>
          19 23 2 1 3.</_></rects>
      <tilted>0</tilted></_>
    <_>
      <rects>
        <_>
          18 12 2 2 -1.</_>
        <_>
          18 12 1 1 2.</_>
        <_>
          19 13 1 1 2.</_></rects>
      <tilted>0</tilted></_>
    <_>
      <rects>
        <_>
          19 1 3 1 -1.</_>
        <_>
          20 1 1 1 3.</_></rects>
      <tilted>0</tilted></_>
    <_>
      <rects>
        <_>
          19 2 3 10 -1.</_>
        <_>
          20 2 1 10 3.</_></rects>
      <tilted>0</tilted></_>
    <_>
      <rects>
        <_>
          20 0 4 5 -1.</_>
        <_>
          22 0 2 5 2.</_></rects>
      <tilted>0</tilted></_>
    <_>
      <rects>
        <_>
          20 2 2 14 -1.</_>
        <_>
          20 2 1 7 2.</_>
        <_>
          21 9 1 7 2.</_></rects>
      <tilted>0</tilted></_>
    <_>
      <rects>
        <_>
          20 19 4 4 -1.</_>
        <_>
          22 19 2 4 2.</_></rects>
      <tilted>0</tilted></_>
    <_>
      <rects>
        <_>
          20 20 4 4 -1.</_>
        <_>
          20 22 4 2 2.</_></rects>
      <tilted>0</tilted></_>
    <_>
      <rects>
        <_>
          20 22 2 2 -1.</_>
        <_>
          21 22 1 2 2.</_></rects>
      <tilted>0</tilted></_>
    <_>
      <rects>
        <_>
          21 0 3 10 -1.</_>
        <_>
          22 0 1 10 3.</_></rects>
      <tilted>0</tilted></_>
    <_>
      <rects>
        <_>
          21 13 2 2 -1.</_>
        <_>
          22 13 1 2 2.</_></rects>
      <tilted>0</tilted></_>
    <_>
      <rects>
        <_>
          21 18 2 3 -1.</_>
        <_>
          21 19 2 1 3.</_></rects>
      <tilted>0</tilted></_>
    <_>
      <rects>
        <_>
          21 22 2 2 -1.</_>
        <_>
          21 22 1 1 2.</_>
        <_>
          22 23 1 1 2.</_></rects>
      <tilted>0</tilted></_>
    <_>
      <rects>
        <_>
          22 2 2 4 -1.</_>
        <_>
          22 4 2 2 2.</_></rects>
      <tilted>0</tilted></_>
    <_>
      <rects>
        <_>
          22 3 1 2 -1.</_>
        <_>
          22 4 1 1 2.</_></rects>
      <tilted>0</tilted></_>
    <_>
      <rects>
        <_>
          22 3 1 3 -1.</_>
        <_>
          22 4 1 1 3.</_></rects>
      <tilted>0</tilted></_>
    <_>
      <rects>
        <_>
          22 10 2 8 -1.</_>
        <_>
          22 14 2 4 2.</_></rects>
      <tilted>0</tilted></_>
    <_>
      <rects>
        <_>
          22 13 2 9 -1.</_>
        <_>
          22 16 2 3 3.</_></rects>
      <tilted>0</tilted></_>
    <_>
      <rects>
        <_>
          22 19 2 2 -1.</_>
        <_>
          22 20 2 1 2.</_></rects>
      <tilted>0</tilted></_>
    <_>
      <rects>
        <_>
          23 6 1 18 -1.</_>
        <_>
          23 15 1 9 2.</_></rects>
      <tilted>0</tilted></_>
    <_>
      <rects>
        <_>
          23 12 1 12 -1.</_>
        <_>
          23 16 1 4 3.</_></rects>
      <tilted>0</tilted></_>
    <_>
      <rects>
        <_>
          23 18 1 4 -1.</_>
        <_>
          23 20 1 2 2.</_></rects>
      <tilted>0</tilted></_>
    <_>
      <rects>
        <_>
          23 18 1 6 -1.</_>
        <_>
          23 20 1 2 3.</_></rects>
      <tilted>0</tilted></_></features></cascade>
</opencv_storage>
