<?xml version="1.0"?>
<opencv_storage>
<cascade>
  <stageType>BOOST</stageType>
  <featureType>HAAR</featureType>
  <height>24</height>
  <width>24</width>
  <stageParams>
    <boostType>GAB</boostType>
    <minHitRate>9.9500000476837158e-01</minHitRate>
    <maxFalseAlarm>5.0000000000000000e-01</maxFalseAlarm>
    <weightTrimRate>9.4999998807907104e-01</weightTrimRate>
    <maxDepth>1</maxDepth>
    <maxWeakCount>100</maxWeakCount></stageParams>
  <featureParams>
    <maxCatCount>0</maxCatCount>
    <featSize>1</featSize>
    <mode>BASIC</mode></featureParams>
  <stageNum>20</stageNum>
  <stages>
    <!-- stage 0 -->
    <_>
      <maxWeakCount>10</maxWeakCount>
      <stageThreshold>-2.4292886257171631e+00</stageThreshold>
      <weakClassifiers>
        <_>
          <internalNodes>
            0 -1 127 -2.1601926535367966e-02</internalNodes>
          <leafValues>
            8.2857143878936768e-01 -8.6161756515502930e-01</leafValues></_>
        <_>
          <internalNodes>
            0 -1 21 -2.1310009062290192e-02</internalNodes>
          <leafValues>
            1.3464508950710297e-01 -7.1966820955276489e-01</leafValues></_>
        <_>
          <internalNodes>
            0 -1 157 -8.0259488895535469e-03</internalNodes>
          <leafValues>
            5.0770044326782227e-01 -3.8853293657302856e-01</leafValues></_>
        <_>
          <internalNodes>
            0 -1 228 -1.2959700543433428e-03</internalNodes>
          <leafValues>
            3.2834634184837341e-01 -5.9042668342590332e-01</leafValues></_>
        <_>
          <internalNodes>
            0 -1 171 -4.7318078577518463e-03</internalNodes>
          <leafValues>
            7.1789145469665527e-01 -2.3462589085102081e-01</leafValues></_>
        <_>
          <internalNodes>
            0 -1 50 -1.0144258849322796e-02</internalNodes>
          <leafValues>
            7.9749548435211182e-01 -1.7854441702365875e-01</leafValues></_>
        <_>
          <internalNodes>
            0 -1 76 3.3317480701953173e-03</internalNodes>
          <leafValues>
            -1.8596121668815613e-01 6.7365640401840210e-01</leafValues></_>
        <_>
          <internalNodes>
            0 -1 164 -7.4563591624610126e-05</internalNodes>
          <leafValues>
            -4.9975556135177612e-01 3.3758172392845154e-01</leafValues></_>
        <_>
          <internalNodes>
            0 -1 193 1.3725438620895147e-03</internalNodes>
          <leafValues>
            -3.0258432030677795e-01 5.7943272590637207e-01</leafValues></_>
        <_>
          <internalNodes>
            0 -1 211 2.0446425769478083e-03</internalNodes>
          <leafValues>
            -2.1811863780021667e-01 6.2954640388488770e-01</leafValues></_></weakClassifiers></_>
    <!-- stage 1 -->
    <_>
      <maxWeakCount>10</maxWeakCount>
      <stageThreshold>-2.0180621147155762e+00</stageThreshold>
      <weakClassifiers>
        <_>
          <internalNodes>
            0 -1 47 -3.2003515958786011e-01</internalNodes>
          <leafValues>
            1.6504853963851929e-01 -8.8411396741867065e-01</leafValues></_>
        <_>
          <internalNodes>
            0 -1 59 -6.8672403693199158e-02</internalNodes>
          <leafValues>
            5.0950628519058228e-01 -5.7971376180648804e-01</leafValues></_>
        <_>
          <internalNodes>
            0 -1 12 -6.2247537076473236e-02</internalNodes>
          <leafValues>
            5.0860446691513062e-01 -3.7590387463569641e-01</leafValues></_>
        <_>
          <internalNodes>
            0 -1 176 -3.9540161378681660e-04</internalNodes>
          <leafValues>
            -7.7921265363693237e-01 2.1466843783855438e-01</leafValues></_>
        <_>
          <internalNodes>
            0 -1 176 5.2379176486283541e-04</internalNodes>
          <leafValues>
            2.4130710959434509e-01 -7.5840806961059570e-01</leafValues></_>
        <_>
          <internalNodes>
            0 -1 180 -3.9095297455787659e-02</internalNodes>
          <leafValues>
            4.5446196198463440e-01 -4.2026728391647339e-01</leafValues></_>
        <_>
          <internalNodes>
            0 -1 45 -5.4664257913827896e-02</internalNodes>
          <leafValues>
            7.8467851877212524e-01 -1.7747271060943604e-01</leafValues></_>
        <_>
          <internalNodes>
            0 -1 103 4.7706071287393570e-02</internalNodes>
          <leafValues>
            -2.3214976489543915e-01 7.6881891489028931e-01</leafValues></_>
        <_>
          <internalNodes>
            0 -1 49 -1.5890197828412056e-02</internalNodes>
          <leafValues>
            6.1276197433471680e-01 -2.3178856074810028e-01</leafValues></_>
        <_>
          <internalNodes>
            0 -1 188 7.2856587357819080e-03</internalNodes>
          <leafValues>
            -2.8432354331016541e-01 5.5235809087753296e-01</leafValues></_></weakClassifiers></_>
    <!-- stage 2 -->
    <_>
      <maxWeakCount>7</maxWeakCount>
      <stageThreshold>-1.6075319051742554e+00</stageThreshold>
      <weakClassifiers>
        <_>
          <internalNodes>
            0 -1 64 -4.6504706144332886e-01</internalNodes>
          <leafValues>
            5.6862747669219971e-01 -8.6811119318008423e-01</leafValues></_>
        <_>
          <internalNodes>
            0 -1 58 -6.5948396921157837e-02</internalNodes>
          <leafValues>
            3.7167289853096008e-01 -5.8277660608291626e-01</leafValues></_>
        <_>
          <internalNodes>
            0 -1 129 -9.6508144633844495e-04</internalNodes>
          <leafValues>
            -6.4455902576446533e-01 1.9104687869548798e-01</leafValues></_>
        <_>
          <internalNodes>
            0 -1 119 1.2314352716202848e-05</internalNodes>
          <leafValues>
            -3.3886757493019104e-01 4.2524969577789307e-01</leafValues></_>
        <_>
          <internalNodes>
            0 -1 36 -1.9203977659344673e-02</internalNodes>
          <leafValues>
            4.0827554464340210e-01 -3.6017608642578125e-01</leafValues></_>
        <_>
          <internalNodes>
            0 -1 91 1.2310987710952759e-01</internalNodes>
          <leafValues>
            -1.3518039882183075e-01 8.1075906753540039e-01</leafValues></_>
        <_>
          <internalNodes>
            0 -1 92 -6.8491846323013306e-02</internalNodes>
          <leafValues>
            5.5802172422409058e-01 -2.5870594382286072e-01</leafValues></_></weakClassifiers></_>
    <!-- stage 3 -->
    <_>
      <maxWeakCount>9</maxWeakCount>
      <stageThreshold>-1.9160921573638916e+00</stageThreshold>
      <weakClassifiers>
        <_>
          <internalNodes>
            0 -1 74 -5.9557712078094482e-01</internalNodes>
          <leafValues>
            5.6756758689880371e-01 -8.5868036746978760e-01</leafValues></_>
        <_>
          <internalNodes>
            0 -1 54 -2.1752470731735229e-01</internalNodes>
          <leafValues>
            4.0438714623451233e-01 -5.4604929685592651e-01</leafValues></_>
        <_>
          <internalNodes>
            0 -1 131 1.2994170188903809e-01</internalNodes>
          <leafValues>
            1.0493323951959610e-01 -8.4870541095733643e-01</leafValues></_>
        <_>
          <internalNodes>
            0 -1 32 1.3486840762197971e-02</internalNodes>
          <leafValues>
            1.7113189399242401e-01 -6.2223780155181885e-01</leafValues></_>
        <_>
          <internalNodes>
            0 -1 123 -1.1516449376358651e-05</internalNodes>
          <leafValues>
            3.4513953328132629e-01 -3.3876070380210876e-01</leafValues></_>
        <_>
          <internalNodes>
            0 -1 28 1.3888580724596977e-04</internalNodes>
          <leafValues>
            2.0831793546676636e-01 -6.9062143564224243e-01</leafValues></_>
        <_>
          <internalNodes>
            0 -1 217 1.1334995178913232e-05</internalNodes>
          <leafValues>
            -3.2252430915832520e-01 3.9924800395965576e-01</leafValues></_>
        <_>
          <internalNodes>
            0 -1 254 -2.0400672219693661e-03</internalNodes>
          <leafValues>
            -6.1639887094497681e-01 1.5929874777793884e-01</leafValues></_>
        <_>
          <internalNodes>
            0 -1 111 -3.8656016840832308e-05</internalNodes>
          <leafValues>
            4.1350519657135010e-01 -2.7872014045715332e-01</leafValues></_></weakClassifiers></_>
    <!-- stage 4 -->
    <_>
      <maxWeakCount>11</maxWeakCount>
      <stageThreshold>-2.0138037204742432e+00</stageThreshold>
      <weakClassifiers>
        <_>
          <internalNodes>
            0 -1 81 1.7781576514244080e-01</internalNodes>
          <leafValues>
            -8.8178294897079468e-01 5.4545454680919647e-02</leafValues></_>
        <_>
          <internalNodes>
            0 -1 203 3.6896417441312224e-05</internalNodes>
          <leafValues>
            -6.2320601940155029e-01 -1.5606722794473171e-02</leafValues></_>
        <_>
          <internalNodes>
            0 -1 44 -8.3910126704722643e-04</internalNodes>
          <leafValues>
            -6.2897950410842896e-01 1.0694956034421921e-01</leafValues></_>
        <_>
          <internalNodes>
            0 -1 110 -1.2314352716202848e-05</internalNodes>
          <leafValues>
            3.1317335367202759e-01 -3.3294934034347534e-01</leafValues></_>
        <_>
          <internalNodes>
            0 -1 44 1.2150418478995562e-03</internalNodes>
          <leafValues>
            2.1222987771034241e-01 -5.4913985729217529e-01</leafValues></_>
        <_>
          <internalNodes>
            0 -1 195 -1.1052331501559820e-05</internalNodes>
          <leafValues>
            3.3181869983673096e-01 -3.0979582667350769e-01</leafValues></_>
        <_>
          <internalNodes>
            0 -1 190 -3.2558574457652867e-04</internalNodes>
          <leafValues>
            -6.7215293645858765e-01 1.5776628255844116e-01</leafValues></_>
        <_>
          <internalNodes>
            0 -1 190 5.0879758782684803e-04</internalNodes>
          <leafValues>
            1.0433736443519592e-01 -7.9731082916259766e-01</leafValues></_>
        <_>
          <internalNodes>
            0 -1 71 -3.3876294037327170e-04</internalNodes>
          <leafValues>
            3.2172209024429321e-01 -3.2413300871849060e-01</leafValues></_>
        <_>
          <internalNodes>
            0 -1 253 -7.6399452518671751e-04</internalNodes>
          <leafValues>
            -5.6032192707061768e-01 1.8031300604343414e-01</leafValues></_>
        <_>
          <internalNodes>
            0 -1 139 -1.3148333891876973e-05</internalNodes>
          <leafValues>
            3.6250364780426025e-01 -3.0353260040283203e-01</leafValues></_></weakClassifiers></_>
    <!-- stage 5 -->
    <_>
      <maxWeakCount>8</maxWeakCount>
      <stageThreshold>-2.0204272270202637e+00</stageThreshold>
      <weakClassifiers>
        <_>
          <internalNodes>
            0 -1 80 1.0582047700881958e-01</internalNodes>
          <leafValues>
            -8.8217675685882568e-01 -2.7485379576683044e-01</leafValues></_>
        <_>
          <internalNodes>
            0 -1 229 1.6279589384794235e-02</internalNodes>
          <leafValues>
            -6.5195518732070923e-01 -3.5098817199468613e-02</leafValues></_>
        <_>
          <internalNodes>
            0 -1 105 1.3585357010015287e-05</internalNodes>
          <leafValues>
            -3.3471536636352539e-01 2.9833859205245972e-01</leafValues></_>
        <_>
          <internalNodes>
            0 -1 9 4.1363164782524109e-02</internalNodes>
          <leafValues>
            1.2241003662347794e-01 -8.0089515447616577e-01</leafValues></_>
        <_>
          <internalNodes>
            0 -1 73 -1.4440408349037170e-01</internalNodes>
          <leafValues>
            4.6337458491325378e-01 -1.8276424705982208e-01</leafValues></_>
        <_>
          <internalNodes>
            0 -1 46 8.8302344083786011e-03</internalNodes>
          <leafValues>
            -2.6074555516242981e-01 4.8177579045295715e-01</leafValues></_>
        <_>
          <internalNodes>
            0 -1 178 6.5604388713836670e-02</internalNodes>
          <leafValues>
            -2.2625431418418884e-01 4.4792464375495911e-01</leafValues></_>
        <_>
          <internalNodes>
            0 -1 212 -1.1052331501559820e-05</internalNodes>
          <leafValues>
            3.2805684208869934e-01 -2.7840489149093628e-01</leafValues></_></weakClassifiers></_>
    <!-- stage 6 -->
    <_>
      <maxWeakCount>11</maxWeakCount>
      <stageThreshold>-1.7934167385101318e+00</stageThreshold>
      <weakClassifiers>
        <_>
          <internalNodes>
            0 -1 65 -7.7057832479476929e-01</internalNodes>
          <leafValues>
            8.8888889551162720e-01 -8.4879404306411743e-01</leafValues></_>
        <_>
          <internalNodes>
            0 -1 61 4.7782950103282928e-02</internalNodes>
          <leafValues>
            -5.3614407777786255e-01 4.1334506869316101e-01</leafValues></_>
        <_>
          <internalNodes>
            0 -1 112 9.3750748783349991e-03</internalNodes>
          <leafValues>
            -1.8565174937248230e-01 6.4568835496902466e-01</leafValues></_>
        <_>
          <internalNodes>
            0 -1 11 -6.2301214784383774e-02</internalNodes>
          <leafValues>
            3.3213531970977783e-01 -2.6825854182243347e-01</leafValues></_>
        <_>
          <internalNodes>
            0 -1 56 1.3603863408206962e-05</internalNodes>
          <leafValues>
            -2.3184163868427277e-01 3.9090579748153687e-01</leafValues></_>
        <_>
          <internalNodes>
            0 -1 22 -5.2672233432531357e-03</internalNodes>
          <leafValues>
            -5.8489328622817993e-01 1.4876794815063477e-01</leafValues></_>
        <_>
          <internalNodes>
            0 -1 98 -2.8238240629434586e-03</internalNodes>
          <leafValues>
            3.8816845417022705e-01 -2.3485124111175537e-01</leafValues></_>
        <_>
          <internalNodes>
            0 -1 83 4.5995682739885524e-05</internalNodes>
          <leafValues>
            -2.3551084101200104e-01 3.7636029720306396e-01</leafValues></_>
        <_>
          <internalNodes>
            0 -1 42 -2.7491312357597053e-04</internalNodes>
          <leafValues>
            -4.4847124814987183e-01 1.9209954142570496e-01</leafValues></_>
        <_>
          <internalNodes>
            0 -1 185 -1.1678969713102560e-05</internalNodes>
          <leafValues>
            2.9324322938919067e-01 -3.1853955984115601e-01</leafValues></_>
        <_>
          <internalNodes>
            0 -1 78 1.1533855285961181e-05</internalNodes>
          <leafValues>
            -2.2418171167373657e-01 3.6798176169395447e-01</leafValues></_></weakClassifiers></_>
    <!-- stage 7 -->
    <_>
      <maxWeakCount>12</maxWeakCount>
      <stageThreshold>-1.8280124664306641e+00</stageThreshold>
      <weakClassifiers>
        <_>
          <internalNodes>
            0 -1 72 6.2835797667503357e-02</internalNodes>
          <leafValues>
            -8.6374694108963013e-01 -3.2773110270500183e-01</leafValues></_>
        <_>
          <internalNodes>
            0 -1 66 -1.6128109395503998e-01</internalNodes>
          <leafValues>
            -2.6399355381727219e-02 -5.8941489458084106e-01</leafValues></_>
        <_>
          <internalNodes>
            0 -1 109 -1.1836220437544398e-05</internalNodes>
          <leafValues>
            2.4613335728645325e-01 -3.3785179257392883e-01</leafValues></_>
        <_>
          <internalNodes>
            0 -1 231 3.8360559847205877e-04</internalNodes>
          <leafValues>
            1.1024408042430878e-01 -7.1344107389450073e-01</leafValues></_>
        <_>
          <internalNodes>
            0 -1 4 2.8660323470830917e-02</internalNodes>
          <leafValues>
            1.8796437978744507e-01 -5.0582993030548096e-01</leafValues></_>
        <_>
          <internalNodes>
            0 -1 151 1.1678969713102560e-05</internalNodes>
          <leafValues>
            -2.9931968450546265e-01 2.7370086312294006e-01</leafValues></_>
        <_>
          <internalNodes>
            0 -1 48 -7.4783777818083763e-03</internalNodes>
          <leafValues>
            4.4281244277954102e-01 -1.7828756570816040e-01</leafValues></_>
        <_>
          <internalNodes>
            0 -1 184 7.6416321098804474e-04</internalNodes>
          <leafValues>
            -1.9143401086330414e-01 4.6091210842132568e-01</leafValues></_>
        <_>
          <internalNodes>
            0 -1 3 -1.6375281848013401e-04</internalNodes>
          <leafValues>
            -3.4273704886436462e-01 2.5336641073226929e-01</leafValues></_>
        <_>
          <internalNodes>
            0 -1 152 1.1830366929643787e-05</internalNodes>
          <leafValues>
            -2.5768265128135681e-01 3.2140997052192688e-01</leafValues></_>
        <_>
          <internalNodes>
            0 -1 249 -3.1189530272968113e-04</internalNodes>
          <leafValues>
            -6.0027623176574707e-01 1.5279142558574677e-01</leafValues></_>
        <_>
          <internalNodes>
            0 -1 210 -6.0660252347588539e-04</internalNodes>
          <leafValues>
            3.9384135603904724e-01 -2.4476474523544312e-01</leafValues></_></weakClassifiers></_>
    <!-- stage 8 -->
    <_>
      <maxWeakCount>9</maxWeakCount>
      <stageThreshold>-1.7083562612533569e+00</stageThreshold>
      <weakClassifiers>
        <_>
          <internalNodes>
            0 -1 236 3.6544725298881531e-02</internalNodes>
          <leafValues>
            -8.6563557386398315e-01 -2.1904762089252472e-01</leafValues></_>
        <_>
          <internalNodes>
            0 -1 187 -4.0048726077657193e-05</internalNodes>
          <leafValues>
            1.2532159453257918e-03 -5.7533770799636841e-01</leafValues></_>
        <_>
          <internalNodes>
            0 -1 186 3.9792292227502912e-05</internalNodes>
          <leafValues>
            -3.7535041570663452e-01 2.7550560235977173e-01</leafValues></_>
        <_>
          <internalNodes>
            0 -1 114 -1.1084650177508593e-03</internalNodes>
          <leafValues>
            -5.0432026386260986e-01 1.8531323969364166e-01</leafValues></_>
        <_>
          <internalNodes>
            0 -1 125 2.6238422840833664e-02</internalNodes>
          <leafValues>
            1.9557458162307739e-01 -6.3367319107055664e-01</leafValues></_>
        <_>
          <internalNodes>
            0 -1 124 -1.0505929822102189e-05</internalNodes>
          <leafValues>
            3.3450326323509216e-01 -3.4298074245452881e-01</leafValues></_>
        <_>
          <internalNodes>
            0 -1 108 -5.0791427493095398e-02</internalNodes>
          <leafValues>
            -6.6948693990707397e-01 1.5883083641529083e-01</leafValues></_>
        <_>
          <internalNodes>
            0 -1 250 2.8067489620298147e-03</internalNodes>
          <leafValues>
            1.3116693496704102e-01 -6.1297702789306641e-01</leafValues></_>
        <_>
          <internalNodes>
            0 -1 148 2.2713970392942429e-02</internalNodes>
          <leafValues>
            1.0942165553569794e-01 -7.5775080919265747e-01</leafValues></_></weakClassifiers></_>
    <!-- stage 9 -->
    <_>
      <maxWeakCount>13</maxWeakCount>
      <stageThreshold>-1.8299926519393921e+00</stageThreshold>
      <weakClassifiers>
        <_>
          <internalNodes>
            0 -1 143 -2.4309996515512466e-02</internalNodes>
          <leafValues>
            -4.7619048506021500e-02 -8.5788726806640625e-01</leafValues></_>
        <_>
          <internalNodes>
            0 -1 223 2.5943804532289505e-02</internalNodes>
          <leafValues>
            -5.5326062440872192e-01 1.6915120184421539e-01</leafValues></_>
        <_>
          <internalNodes>
            0 -1 40 2.9192407964728773e-05</internalNodes>
          <leafValues>
            1.6863526403903961e-01 -4.6425586938858032e-01</leafValues></_>
        <_>
          <internalNodes>
            0 -1 135 -5.4396558552980423e-03</internalNodes>
          <leafValues>
            2.4411138892173767e-01 -3.4884431958198547e-01</leafValues></_>
        <_>
          <internalNodes>
            0 -1 37 -1.8421489745378494e-02</internalNodes>
          <leafValues>
            2.9376575350761414e-01 -2.7618238329887390e-01</leafValues></_>
        <_>
          <internalNodes>
            0 -1 197 4.9557856982573867e-04</internalNodes>
          <leafValues>
            1.8822248280048370e-01 -5.0595813989639282e-01</leafValues></_>
        <_>
          <internalNodes>
            0 -1 120 1.0130518603546079e-05</internalNodes>
          <leafValues>
            -2.8581139445304871e-01 3.0280175805091858e-01</leafValues></_>
        <_>
          <internalNodes>
            0 -1 145 2.7262634830549359e-05</internalNodes>
          <leafValues>
            1.8907175958156586e-01 -4.6670493483543396e-01</leafValues></_>
        <_>
          <internalNodes>
            0 -1 200 -2.6105334982275963e-02</internalNodes>
          <leafValues>
            4.6477189660072327e-01 -1.9423379004001617e-01</leafValues></_>
        <_>
          <internalNodes>
            0 -1 77 5.1727278332691640e-05</internalNodes>
          <leafValues>
            -2.5267174839973450e-01 3.8722103834152222e-01</leafValues></_>
        <_>
          <internalNodes>
            0 -1 166 1.5692703425884247e-02</internalNodes>
          <leafValues>
            -2.1984432637691498e-01 4.6703761816024780e-01</leafValues></_>
        <_>
          <internalNodes>
            0 -1 134 4.9767564982175827e-02</internalNodes>
          <leafValues>
            -1.0719327628612518e-01 7.1906089782714844e-01</leafValues></_>
        <_>
          <internalNodes>
            0 -1 259 -6.9852569140493870e-05</internalNodes>
          <leafValues>
            -4.4019091129302979e-01 1.9421480596065521e-01</leafValues></_></weakClassifiers></_>
    <!-- stage 10 -->
    <_>
      <maxWeakCount>10</maxWeakCount>
      <stageThreshold>-2.1869659423828125e+00</stageThreshold>
      <weakClassifiers>
        <_>
          <internalNodes>
            0 -1 70 2.0258635282516479e-01</internalNodes>
          <leafValues>
            -8.7869966030120850e-01 -2.6548672467470169e-02</leafValues></_>
        <_>
          <internalNodes>
            0 -1 34 -2.6807910203933716e-01</internalNodes>
          <leafValues>
            1.4636194705963135e-01 -6.3541585206985474e-01</leafValues></_>
        <_>
          <internalNodes>
            0 -1 130 5.1514216465875506e-04</internalNodes>
          <leafValues>
            1.2278757989406586e-01 -6.6033661365509033e-01</leafValues></_>
        <_>
          <internalNodes>
            0 -1 199 1.6051293350756168e-03</internalNodes>
          <leafValues>
            1.3328576087951660e-01 -6.8776643276214600e-01</leafValues></_>
        <_>
          <internalNodes>
            0 -1 258 1.5240433276630938e-04</internalNodes>
          <leafValues>
            2.0173278450965881e-01 -4.9215635657310486e-01</leafValues></_>
        <_>
          <internalNodes>
            0 -1 258 -1.9452322158031166e-04</internalNodes>
          <leafValues>
            -5.8329451084136963e-01 2.3542752861976624e-01</leafValues></_>
        <_>
          <internalNodes>
            0 -1 41 -1.2838060967624187e-02</internalNodes>
          <leafValues>
            5.7554364204406738e-01 -2.1273495256900787e-01</leafValues></_>
        <_>
          <internalNodes>
            0 -1 27 3.2562977867200971e-04</internalNodes>
          <leafValues>
            2.0029307901859283e-01 -5.7818144559860229e-01</leafValues></_>
        <_>
          <internalNodes>
            0 -1 57 9.1931983828544617e-02</internalNodes>
          <leafValues>
            9.3661472201347351e-02 -9.1827416419982910e-01</leafValues></_>
        <_>
          <internalNodes>
            0 -1 128 8.2971825031563640e-04</internalNodes>
          <leafValues>
            1.1429496854543686e-01 -7.3352748155593872e-01</leafValues></_></weakClassifiers></_>
    <!-- stage 11 -->
    <_>
      <maxWeakCount>13</maxWeakCount>
      <stageThreshold>-2.0208494663238525e+00</stageThreshold>
      <weakClassifiers>
        <_>
          <internalNodes>
            0 -1 159 1.0660985484719276e-02</internalNodes>
          <leafValues>
            -8.6562806367874146e-01 -3.0000001192092896e-01</leafValues></_>
        <_>
          <internalNodes>
            0 -1 18 -6.1167128384113312e-02</internalNodes>
          <leafValues>
            3.3583964686840773e-03 -6.0225874185562134e-01</leafValues></_>
        <_>
          <internalNodes>
            0 -1 257 6.9073052145540714e-05</internalNodes>
          <leafValues>
            1.7326846718788147e-01 -4.4870135188102722e-01</leafValues></_>
        <_>
          <internalNodes>
            0 -1 160 -4.7585917636752129e-03</internalNodes>
          <leafValues>
            4.6962732076644897e-01 -1.8679527938365936e-01</leafValues></_>
        <_>
          <internalNodes>
            0 -1 246 -1.9636840443126857e-04</internalNodes>
          <leafValues>
            -5.3067868947982788e-01 1.5474002063274384e-01</leafValues></_>
        <_>
          <internalNodes>
            0 -1 192 6.8930732086300850e-03</internalNodes>
          <leafValues>
            -1.4056611061096191e-01 5.5015599727630615e-01</leafValues></_>
        <_>
          <internalNodes>
            0 -1 196 3.1383822206407785e-03</internalNodes>
          <leafValues>
            -1.4463171362876892e-01 4.3764117360115051e-01</leafValues></_>
        <_>
          <internalNodes>
            0 -1 174 -2.8746761381626129e-03</internalNodes>
          <leafValues>
            4.7870457172393799e-01 -1.6366790235042572e-01</leafValues></_>
        <_>
          <internalNodes>
            0 -1 251 -2.1024057059548795e-04</internalNodes>
          <leafValues>
            -5.5397206544876099e-01 1.7493353784084320e-01</leafValues></_>
        <_>
          <internalNodes>
            0 -1 205 7.8888493590056896e-05</internalNodes>
          <leafValues>
            -3.0171319842338562e-01 2.9097622632980347e-01</leafValues></_>
        <_>
          <internalNodes>
            0 -1 177 -1.5665346290916204e-04</internalNodes>
          <leafValues>
            -5.0811493396759033e-01 1.5190438926219940e-01</leafValues></_>
        <_>
          <internalNodes>
            0 -1 68 -3.3766154956538230e-05</internalNodes>
          <leafValues>
            2.9827034473419189e-01 -2.5060799717903137e-01</leafValues></_>
        <_>
          <internalNodes>
            0 -1 8 7.6243253424763680e-03</internalNodes>
          <leafValues>
            1.2730452418327332e-01 -6.0334438085556030e-01</leafValues></_></weakClassifiers></_>
    <!-- stage 12 -->
    <_>
      <maxWeakCount>16</maxWeakCount>
      <stageThreshold>-2.0079321861267090e+00</stageThreshold>
      <weakClassifiers>
        <_>
          <internalNodes>
            0 -1 38 -2.7919430285692215e-02</internalNodes>
          <leafValues>
            -3.9849624037742615e-01 -8.6281234025955200e-01</leafValues></_>
        <_>
          <internalNodes>
            0 -1 104 -5.1568161696195602e-02</internalNodes>
          <leafValues>
            1.7615240812301636e-01 -4.9090769886970520e-01</leafValues></_>
        <_>
          <internalNodes>
            0 -1 227 -1.8371295300312340e-04</internalNodes>
          <leafValues>
            3.3392429351806641e-01 -2.4214981496334076e-01</leafValues></_>
        <_>
          <internalNodes>
            0 -1 233 -2.0844796672463417e-03</internalNodes>
          <leafValues>
            3.5436370968818665e-01 -2.0505931973457336e-01</leafValues></_>
        <_>
          <internalNodes>
            0 -1 13 -1.7255132552236319e-03</internalNodes>
          <leafValues>
            -6.0802650451660156e-01 1.2484725564718246e-01</leafValues></_>
        <_>
          <internalNodes>
            0 -1 219 1.3229874894022942e-03</internalNodes>
          <leafValues>
            -1.2768198549747467e-01 5.1903575658798218e-01</leafValues></_>
        <_>
          <internalNodes>
            0 -1 222 -1.4974954538047314e-03</internalNodes>
          <leafValues>
            -8.0304872989654541e-01 9.4020761549472809e-02</leafValues></_>
        <_>
          <internalNodes>
            0 -1 55 9.4672880368307233e-04</internalNodes>
          <leafValues>
            -1.6462574899196625e-01 4.2321190237998962e-01</leafValues></_>
        <_>
          <internalNodes>
            0 -1 102 2.2518096375279129e-04</internalNodes>
          <leafValues>
            1.6207872331142426e-01 -4.8775896430015564e-01</leafValues></_>
        <_>
          <internalNodes>
            0 -1 230 -2.3080264509189874e-04</internalNodes>
          <leafValues>
            3.0190193653106689e-01 -2.3409207165241241e-01</leafValues></_>
        <_>
          <internalNodes>
            0 -1 142 1.3631796464323997e-02</internalNodes>
          <leafValues>
            -1.8198777735233307e-01 4.7862562537193298e-01</leafValues></_>
        <_>
          <internalNodes>
            0 -1 256 2.1618811879307032e-03</internalNodes>
          <leafValues>
            1.0702434182167053e-01 -7.2995501756668091e-01</leafValues></_>
        <_>
          <internalNodes>
            0 -1 121 -1.0591074897092767e-05</internalNodes>
          <leafValues>
            2.7667254209518433e-01 -2.7299085259437561e-01</leafValues></_>
        <_>
          <internalNodes>
            0 -1 206 4.8410054296255112e-04</internalNodes>
          <leafValues>
            -2.6385191082954407e-01 2.6869049668312073e-01</leafValues></_>
        <_>
          <internalNodes>
            0 -1 85 5.4758309852331877e-04</internalNodes>
          <leafValues>
            1.0893317312002182e-01 -7.6741164922714233e-01</leafValues></_>
        <_>
          <internalNodes>
            0 -1 161 -2.8826787602156401e-03</internalNodes>
          <leafValues>
            3.2558512687683105e-01 -2.2573696076869965e-01</leafValues></_></weakClassifiers></_>
    <!-- stage 13 -->
    <_>
      <maxWeakCount>16</maxWeakCount>
      <stageThreshold>-2.1675732135772705e+00</stageThreshold>
      <weakClassifiers>
        <_>
          <internalNodes>
            0 -1 16 -1.6949859261512756e-01</internalNodes>
          <leafValues>
            -5.7013577222824097e-01 -9.0184760093688965e-01</leafValues></_>
        <_>
          <internalNodes>
            0 -1 17 -2.2401630878448486e-02</internalNodes>
          <leafValues>
            -1.3389341533184052e-01 -6.6519159078598022e-01</leafValues></_>
        <_>
          <internalNodes>
            0 -1 241 8.0618466017767787e-04</internalNodes>
          <leafValues>
            1.3391745090484619e-01 -5.0246733427047729e-01</leafValues></_>
        <_>
          <internalNodes>
            0 -1 0 -4.2091134673682973e-05</internalNodes>
          <leafValues>
            -4.5399159193038940e-01 1.6140341758728027e-01</leafValues></_>
        <_>
          <internalNodes>
            0 -1 96 -4.0974952280521393e-03</internalNodes>
          <leafValues>
            5.2024549245834351e-01 -1.3989120721817017e-01</leafValues></_>
        <_>
          <internalNodes>
            0 -1 100 -2.4210501462221146e-02</internalNodes>
          <leafValues>
            2.6310881972312927e-01 -2.8313371539115906e-01</leafValues></_>
        <_>
          <internalNodes>
            0 -1 39 6.1093422118574381e-04</internalNodes>
          <leafValues>
            1.5123212337493896e-01 -5.6397163867950439e-01</leafValues></_>
        <_>
          <internalNodes>
            0 -1 88 4.8403271648567170e-05</internalNodes>
          <leafValues>
            1.4927136898040771e-01 -4.2763087153434753e-01</leafValues></_>
        <_>
          <internalNodes>
            0 -1 75 1.8537994474172592e-02</internalNodes>
          <leafValues>
            -1.9997671246528625e-01 3.6034297943115234e-01</leafValues></_>
        <_>
          <internalNodes>
            0 -1 172 -5.9047322720289230e-03</internalNodes>
          <leafValues>
            5.0978839397430420e-01 -1.3727578520774841e-01</leafValues></_>
        <_>
          <internalNodes>
            0 -1 23 -1.0721713770180941e-03</internalNodes>
          <leafValues>
            -7.7203673124313354e-01 1.0441394895315170e-01</leafValues></_>
        <_>
          <internalNodes>
            0 -1 240 -2.2162643726915121e-03</internalNodes>
          <leafValues>
            3.1312468647956848e-01 -2.2157295048236847e-01</leafValues></_>
        <_>
          <internalNodes>
            0 -1 144 6.1208171246107668e-05</internalNodes>
          <leafValues>
            1.4972899854183197e-01 -5.2601647377014160e-01</leafValues></_>
        <_>
          <internalNodes>
            0 -1 90 3.3518008887767792e-02</internalNodes>
          <leafValues>
            8.2997642457485199e-02 -7.7454501390457153e-01</leafValues></_>
        <_>
          <internalNodes>
            0 -1 106 9.9381362088024616e-04</internalNodes>
          <leafValues>
            -2.7166020870208740e-01 3.0993628501892090e-01</leafValues></_>
        <_>
          <internalNodes>
            0 -1 51 8.5794809274375439e-04</internalNodes>
          <leafValues>
            -1.7830134928226471e-01 4.1480460762977600e-01</leafValues></_></weakClassifiers></_>
    <!-- stage 14 -->
    <_>
      <maxWeakCount>16</maxWeakCount>
      <stageThreshold>-1.9660818576812744e+00</stageThreshold>
      <weakClassifiers>
        <_>
          <internalNodes>
            0 -1 215 7.8884750604629517e-02</internalNodes>
          <leafValues>
            -8.8128340244293213e-01 -5.4605263471603394e-01</leafValues></_>
        <_>
          <internalNodes>
            0 -1 140 8.3546694368124008e-03</internalNodes>
          <leafValues>
            -5.7410424947738647e-01 -3.6791447550058365e-02</leafValues></_>
        <_>
          <internalNodes>
            0 -1 29 4.6324817958520725e-05</internalNodes>
          <leafValues>
            9.2868693172931671e-02 -5.2731466293334961e-01</leafValues></_>
        <_>
          <internalNodes>
            0 -1 101 3.7884448829572648e-05</internalNodes>
          <leafValues>
            1.8405401706695557e-01 -3.9263102412223816e-01</leafValues></_>
        <_>
          <internalNodes>
            0 -1 239 4.4212556531419978e-05</internalNodes>
          <leafValues>
            1.3037462532520294e-01 -3.9565101265907288e-01</leafValues></_>
        <_>
          <internalNodes>
            0 -1 14 -1.9861727952957153e-02</internalNodes>
          <leafValues>
            -1. 7.7304288744926453e-02</leafValues></_>
        <_>
          <internalNodes>
            0 -1 19 -7.9665548400953412e-04</internalNodes>
          <leafValues>
            2.3653531074523926e-01 -2.7823436260223389e-01</leafValues></_>
        <_>
          <internalNodes>
            0 -1 220 -1.0072417790070176e-03</internalNodes>
          <leafValues>
            2.6152643561363220e-01 -2.4776725471019745e-01</leafValues></_>
        <_>
          <internalNodes>
            0 -1 2 -3.0990481376647949e-02</internalNodes>
          <leafValues>
            3.7220308184623718e-01 -1.6844914853572845e-01</leafValues></_>
        <_>
          <internalNodes>
            0 -1 35 -6.9365749368444085e-04</internalNodes>
          <leafValues>
            2.3970624804496765e-01 -2.6343569159507751e-01</leafValues></_>
        <_>
          <internalNodes>
            0 -1 156 -1.4382132794708014e-03</internalNodes>
          <leafValues>
            3.5698559880256653e-01 -1.7167361080646515e-01</leafValues></_>
        <_>
          <internalNodes>
            0 -1 118 8.7436791509389877e-03</internalNodes>
          <leafValues>
            -1.7050124704837799e-01 3.7839081883430481e-01</leafValues></_>
        <_>
          <internalNodes>
            0 -1 244 1.3462631031870842e-02</internalNodes>
          <leafValues>
            8.1558957695960999e-02 -7.8527516126632690e-01</leafValues></_>
        <_>
          <internalNodes>
            0 -1 182 -7.3101909947581589e-05</internalNodes>
          <leafValues>
            2.5109818577766418e-01 -2.5055733323097229e-01</leafValues></_>
        <_>
          <internalNodes>
            0 -1 89 2.5273219216614962e-04</internalNodes>
          <leafValues>
            1.4416979253292084e-01 -4.5740061998367310e-01</leafValues></_>
        <_>
          <internalNodes>
            0 -1 117 -2.2293381392955780e-02</internalNodes>
          <leafValues>
            -1. 5.3421933203935623e-02</leafValues></_></weakClassifiers></_>
    <!-- stage 15 -->
    <_>
      <maxWeakCount>19</maxWeakCount>
      <stageThreshold>-2.0282189846038818e+00</stageThreshold>
      <weakClassifiers>
        <_>
          <internalNodes>
            0 -1 216 5.0378322601318359e-02</internalNodes>
          <leafValues>
            -8.8189846277236938e-01 -5.9668511152267456e-01</leafValues></_>
        <_>
          <internalNodes>
            0 -1 126 -5.8993222191929817e-03</internalNodes>
          <leafValues>
            2.1701723337173462e-01 -4.7660681605339050e-01</leafValues></_>
        <_>
          <internalNodes>
            0 -1 232 7.4651514296419919e-05</internalNodes>
          <leafValues>
            1.7976184189319611e-01 -4.2552271485328674e-01</leafValues></_>
        <_>
          <internalNodes>
            0 -1 243 -5.0681563152465969e-05</internalNodes>
          <leafValues>
            -4.7685137391090393e-01 1.5030401945114136e-01</leafValues></_>
        <_>
          <internalNodes>
            0 -1 153 -1.3199724256992340e-02</internalNodes>
          <leafValues>
            5.4038506746292114e-01 -7.9273156821727753e-02</leafValues></_>
        <_>
          <internalNodes>
            0 -1 7 -1.2343791872262955e-01</internalNodes>
          <leafValues>
            3.1265610456466675e-01 -2.1928125619888306e-01</leafValues></_>
        <_>
          <internalNodes>
            0 -1 53 2.3392497678287327e-04</internalNodes>
          <leafValues>
            1.2760515511035919e-01 -4.5715472102165222e-01</leafValues></_>
        <_>
          <internalNodes>
            0 -1 189 -7.8080676030367613e-04</internalNodes>
          <leafValues>
            3.2968610525131226e-01 -1.8891714513301849e-01</leafValues></_>
        <_>
          <internalNodes>
            0 -1 202 -1.6267146915197372e-02</internalNodes>
          <leafValues>
            2.2764359414577484e-01 -2.7536958456039429e-01</leafValues></_>
        <_>
          <internalNodes>
            0 -1 133 -2.6429031044244766e-02</internalNodes>
          <leafValues>
            3.3850690722465515e-01 -1.9189843535423279e-01</leafValues></_>
        <_>
          <internalNodes>
            0 -1 191 -1.2979751452803612e-02</internalNodes>
          <leafValues>
            3.2901638746261597e-01 -1.9118210673332214e-01</leafValues></_>
        <_>
          <internalNodes>
            0 -1 165 -3.0400925315916538e-03</internalNodes>
          <leafValues>
            -5.4888337850570679e-01 1.0640637576580048e-01</leafValues></_>
        <_>
          <internalNodes>
            0 -1 237 -4.7029589768499136e-04</internalNodes>
          <leafValues>
            3.2306680083274841e-01 -1.9187803566455841e-01</leafValues></_>
        <_>
          <internalNodes>
            0 -1 26 -5.9143148973817006e-05</internalNodes>
          <leafValues>
            -4.4224980473518372e-01 1.5672983229160309e-01</leafValues></_>
        <_>
          <internalNodes>
            0 -1 115 2.4765640497207642e-02</internalNodes>
          <leafValues>
            6.3786916434764862e-02 -8.7864106893539429e-01</leafValues></_>
        <_>
          <internalNodes>
            0 -1 97 -5.0470489077270031e-04</internalNodes>
          <leafValues>
            2.6949882507324219e-01 -2.2084516286849976e-01</leafValues></_>
        <_>
          <internalNodes>
            0 -1 113 -1.0765788611024618e-03</internalNodes>
          <leafValues>
            -4.3336194753646851e-01 1.4050886034965515e-01</leafValues></_>
        <_>
          <internalNodes>
            0 -1 204 -3.4645892679691315e-02</internalNodes>
          <leafValues>
            -9.7700875997543335e-01 5.1891826093196869e-02</leafValues></_>
        <_>
          <internalNodes>
            0 -1 122 -9.4990397337824106e-04</internalNodes>
          <leafValues>
            3.0436879396438599e-01 -1.9161278009414673e-01</leafValues></_></weakClassifiers></_>
    <!-- stage 16 -->
    <_>
      <maxWeakCount>18</maxWeakCount>
      <stageThreshold>-1.8956762552261353e+00</stageThreshold>
      <weakClassifiers>
        <_>
          <internalNodes>
            0 -1 218 9.1830134391784668e-02</internalNodes>
          <leafValues>
            -8.6893707513809204e-01 -5.5084747076034546e-01</leafValues></_>
        <_>
          <internalNodes>
            0 -1 163 9.5156399765983224e-05</internalNodes>
          <leafValues>
            -1.9317410886287689e-01 -6.6321545839309692e-01</leafValues></_>
        <_>
          <internalNodes>
            0 -1 25 -5.0811067922040820e-04</internalNodes>
          <leafValues>
            -6.9031614065170288e-01 3.9501544088125229e-02</leafValues></_>
        <_>
          <internalNodes>
            0 -1 24 2.2787419147789478e-03</internalNodes>
          <leafValues>
            -1.7292371392250061e-01 3.0362656712532043e-01</leafValues></_>
        <_>
          <internalNodes>
            0 -1 141 -1.2197352480143309e-03</internalNodes>
          <leafValues>
            2.8249365091323853e-01 -2.1830414235591888e-01</leafValues></_>
        <_>
          <internalNodes>
            0 -1 87 1.1822534725070000e-04</internalNodes>
          <leafValues>
            1.2721674144268036e-01 -3.9629811048507690e-01</leafValues></_>
        <_>
          <internalNodes>
            0 -1 179 -5.8518699370324612e-03</internalNodes>
          <leafValues>
            -8.7799185514450073e-01 8.0123998224735260e-02</leafValues></_>
        <_>
          <internalNodes>
            0 -1 209 1.1334995178913232e-05</internalNodes>
          <leafValues>
            -2.3528048396110535e-01 2.2323121130466461e-01</leafValues></_>
        <_>
          <internalNodes>
            0 -1 214 2.2663411218672991e-03</internalNodes>
          <leafValues>
            -1.7715753614902496e-01 3.8024765253067017e-01</leafValues></_>
        <_>
          <internalNodes>
            0 -1 94 1.8816150259226561e-05</internalNodes>
          <leafValues>
            -2.4520276486873627e-01 2.2082214057445526e-01</leafValues></_>
        <_>
          <internalNodes>
            0 -1 213 4.0734739741310477e-05</internalNodes>
          <leafValues>
            1.3597720861434937e-01 -4.0464064478874207e-01</leafValues></_>
        <_>
          <internalNodes>
            0 -1 60 -1.3719679554924369e-03</internalNodes>
          <leafValues>
            2.9474779963493347e-01 -1.8411178886890411e-01</leafValues></_>
        <_>
          <internalNodes>
            0 -1 213 -6.9608409830834717e-05</internalNodes>
          <leafValues>
            -3.0999457836151123e-01 1.7339515686035156e-01</leafValues></_>
        <_>
          <internalNodes>
            0 -1 226 1.2319488632783759e-05</internalNodes>
          <leafValues>
            -2.1857008337974548e-01 2.4994136393070221e-01</leafValues></_>
        <_>
          <internalNodes>
            0 -1 149 -4.9618645571172237e-03</internalNodes>
          <leafValues>
            -7.3111790418624878e-01 7.8188523650169373e-02</leafValues></_>
        <_>
          <internalNodes>
            0 -1 225 -1.0707555338740349e-04</internalNodes>
          <leafValues>
            2.2649230062961578e-01 -2.4150900542736053e-01</leafValues></_>
        <_>
          <internalNodes>
            0 -1 20 9.7119330894201994e-04</internalNodes>
          <leafValues>
            8.1664010882377625e-02 -5.9864211082458496e-01</leafValues></_>
        <_>
          <internalNodes>
            0 -1 181 -1.0776487033581361e-04</internalNodes>
          <leafValues>
            2.1858119964599609e-01 -2.4922515451908112e-01</leafValues></_></weakClassifiers></_>
    <!-- stage 17 -->
    <_>
      <maxWeakCount>16</maxWeakCount>
      <stageThreshold>-1.7820641994476318e+00</stageThreshold>
      <weakClassifiers>
        <_>
          <internalNodes>
            0 -1 235 3.2864008098840714e-02</internalNodes>
          <leafValues>
            -8.5947549343109131e-01 -5.0326800346374512e-01</leafValues></_>
        <_>
          <internalNodes>
            0 -1 183 2.0272033289074898e-03</internalNodes>
          <leafValues>
            -4.9355718493461609e-01 -4.3535940349102020e-02</leafValues></_>
        <_>
          <internalNodes>
            0 -1 5 -1.1963165889028460e-05</internalNodes>
          <leafValues>
            -3.9445194602012634e-01 1.2430647015571594e-01</leafValues></_>
        <_>
          <internalNodes>
            0 -1 158 -3.2045503030531108e-04</internalNodes>
          <leafValues>
            2.5230255722999573e-01 -2.3019860684871674e-01</leafValues></_>
        <_>
          <internalNodes>
            0 -1 146 1.2619924746104516e-05</internalNodes>
          <leafValues>
            1.7942380905151367e-01 -3.9508625864982605e-01</leafValues></_>
        <_>
          <internalNodes>
            0 -1 194 4.1126087307929993e-04</internalNodes>
          <leafValues>
            -1.7201066017150879e-01 3.5864832997322083e-01</leafValues></_>
        <_>
          <internalNodes>
            0 -1 248 1.9676204770803452e-02</internalNodes>
          <leafValues>
            9.6841223537921906e-02 -6.5829432010650635e-01</leafValues></_>
        <_>
          <internalNodes>
            0 -1 138 -4.1247208719141781e-04</internalNodes>
          <leafValues>
            3.3519092202186584e-01 -1.7054724693298340e-01</leafValues></_>
        <_>
          <internalNodes>
            0 -1 15 -1.0209533502347767e-04</internalNodes>
          <leafValues>
            2.4073106050491333e-01 -2.7568745613098145e-01</leafValues></_>
        <_>
          <internalNodes>
            0 -1 10 -2.4396838853135705e-04</internalNodes>
          <leafValues>
            -2.7087113261222839e-01 2.2940061986446381e-01</leafValues></_>
        <_>
          <internalNodes>
            0 -1 245 -3.1177508644759655e-03</internalNodes>
          <leafValues>
            4.0022629499435425e-01 -1.7262431979179382e-01</leafValues></_>
        <_>
          <internalNodes>
            0 -1 69 2.8722188435494900e-03</internalNodes>
          <leafValues>
            1.3730457425117493e-01 -4.0777683258056641e-01</leafValues></_>
        <_>
          <internalNodes>
            0 -1 234 -1.2450866634026170e-03</internalNodes>
          <leafValues>
            3.4621861577033997e-01 -1.5601123869419098e-01</leafValues></_>
        <_>
          <internalNodes>
            0 -1 93 -2.6371438056230545e-02</internalNodes>
          <leafValues>
            -7.7758228778839111e-01 7.2384603321552277e-02</leafValues></_>
        <_>
          <internalNodes>
            0 -1 247 -6.1153965361882001e-05</internalNodes>
          <leafValues>
            -3.7550374865531921e-01 1.3938845694065094e-01</leafValues></_>
        <_>
          <internalNodes>
            0 -1 30 -6.0073547065258026e-03</internalNodes>
          <leafValues>
            4.1429054737091064e-01 -1.4051906764507294e-01</leafValues></_></weakClassifiers></_>
    <!-- stage 18 -->
    <_>
      <maxWeakCount>23</maxWeakCount>
      <stageThreshold>-1.8426915407180786e+00</stageThreshold>
      <weakClassifiers>
        <_>
          <internalNodes>
            0 -1 116 -1.5053313970565796e-01</internalNodes>
          <leafValues>
            2.8571429848670959e-01 -8.4166663885116577e-01</leafValues></_>
        <_>
          <internalNodes>
            0 -1 6 -1.1419583857059479e-01</internalNodes>
          <leafValues>
            -5.9360027313232422e-02 -5.0735652446746826e-01</leafValues></_>
        <_>
          <internalNodes>
            0 -1 173 -1.1017043143510818e-03</internalNodes>
          <leafValues>
            -6.0481733083724976e-01 5.8396346867084503e-02</leafValues></_>
        <_>
          <internalNodes>
            0 -1 175 4.6799101255601272e-05</internalNodes>
          <leafValues>
            1.8651267886161804e-01 -3.1044307351112366e-01</leafValues></_>
        <_>
          <internalNodes>
            0 -1 242 -2.8647310100495815e-03</internalNodes>
          <leafValues>
            4.1003978252410889e-01 -1.2350383400917053e-01</leafValues></_>
        <_>
          <internalNodes>
            0 -1 170 8.2743186794687063e-05</internalNodes>
          <leafValues>
            -1.9861538708209991e-01 2.4233482778072357e-01</leafValues></_>
        <_>
          <internalNodes>
            0 -1 154 -1.2401464118738659e-05</internalNodes>
          <leafValues>
            2.3917879164218903e-01 -2.3798610270023346e-01</leafValues></_>
        <_>
          <internalNodes>
            0 -1 31 -1.5974874258972704e-05</internalNodes>
          <leafValues>
            -1.7396230995655060e-01 3.1106093525886536e-01</leafValues></_>
        <_>
          <internalNodes>
            0 -1 167 3.1873758416622877e-05</internalNodes>
          <leafValues>
            -2.1728087961673737e-01 2.7114686369895935e-01</leafValues></_>
        <_>
          <internalNodes>
            0 -1 86 1.0156257485505193e-04</internalNodes>
          <leafValues>
            1.2191292643547058e-01 -4.2851981520652771e-01</leafValues></_>
        <_>
          <internalNodes>
            0 -1 107 3.7642492679879069e-04</internalNodes>
          <leafValues>
            -1.8462869524955750e-01 3.0419382452964783e-01</leafValues></_>
        <_>
          <internalNodes>
            0 -1 79 -7.1132600307464600e-02</internalNodes>
          <leafValues>
            -9.1220670938491821e-01 6.0156740248203278e-02</leafValues></_>
        <_>
          <internalNodes>
            0 -1 63 -7.3262760415673256e-03</internalNodes>
          <leafValues>
            -8.0226379632949829e-01 4.4321145862340927e-02</leafValues></_>
        <_>
          <internalNodes>
            0 -1 95 -4.1000974306371063e-05</internalNodes>
          <leafValues>
            2.2942002117633820e-01 -2.2117529809474945e-01</leafValues></_>
        <_>
          <internalNodes>
            0 -1 259 5.6732608936727047e-04</internalNodes>
          <leafValues>
            9.1677643358707428e-02 -5.5816757678985596e-01</leafValues></_>
        <_>
          <internalNodes>
            0 -1 224 7.7464714646339417e-02</internalNodes>
          <leafValues>
            4.7885600477457047e-02 -9.3856430053710938e-01</leafValues></_>
        <_>
          <internalNodes>
            0 -1 162 5.3005954250693321e-03</internalNodes>
          <leafValues>
            -8.9149743318557739e-02 6.5458041429519653e-01</leafValues></_>
        <_>
          <internalNodes>
            0 -1 99 6.7021837458014488e-03</internalNodes>
          <leafValues>
            -1.2600587308406830e-01 3.8615086674690247e-01</leafValues></_>
        <_>
          <internalNodes>
            0 -1 82 -5.4612464737147093e-04</internalNodes>
          <leafValues>
            3.0635607242584229e-01 -1.8592941761016846e-01</leafValues></_>
        <_>
          <internalNodes>
            0 -1 62 -9.1978217824362218e-05</internalNodes>
          <leafValues>
            -4.6821001172065735e-01 1.2218981981277466e-01</leafValues></_>
        <_>
          <internalNodes>
            0 -1 84 -2.3793865693733096e-04</internalNodes>
          <leafValues>
            2.2150850296020508e-01 -2.3562698066234589e-01</leafValues></_>
        <_>
          <internalNodes>
            0 -1 52 1.2043294555041939e-04</internalNodes>
          <leafValues>
            1.2265462428331375e-01 -4.7258356213569641e-01</leafValues></_>
        <_>
          <internalNodes>
            0 -1 137 -4.3954042484983802e-04</internalNodes>
          <leafValues>
            3.0700358748435974e-01 -1.9207058846950531e-01</leafValues></_></weakClassifiers></_>
    <!-- stage 19 -->
    <_>
      <maxWeakCount>19</maxWeakCount>
      <stageThreshold>-1.8967014551162720e+00</stageThreshold>
      <weakClassifiers>
        <_>
          <internalNodes>
            0 -1 136 2.8612278401851654e-02</internalNodes>
          <leafValues>
            -8.3948338031768799e-01 1.</leafValues></_>
        <_>
          <internalNodes>
            0 -1 221 2.4223400279879570e-02</internalNodes>
          <leafValues>
            -5.7209438085556030e-01 -9.9949307739734650e-02</leafValues></_>
        <_>
          <internalNodes>
            0 -1 201 -3.6827492294833064e-05</internalNodes>
          <leafValues>
            1.8337433040142059e-01 -2.5667884945869446e-01</leafValues></_>
        <_>
          <internalNodes>
            0 -1 132 1.5786847099661827e-02</internalNodes>
          <leafValues>
            -1.1599166691303253e-01 4.7675696015357971e-01</leafValues></_>
        <_>
          <internalNodes>
            0 -1 1 -1.2636862265935633e-05</internalNodes>
          <leafValues>
            -2.7124363183975220e-01 1.9146028161048889e-01</leafValues></_>
        <_>
          <internalNodes>
            0 -1 147 -2.3016043007373810e-02</internalNodes>
          <leafValues>
            5.2979546785354614e-01 -7.0406451821327209e-02</leafValues></_>
        <_>
          <internalNodes>
            0 -1 207 1.1656474271148909e-05</internalNodes>
          <leafValues>
            -2.3959687352180481e-01 2.2643011808395386e-01</leafValues></_>
        <_>
          <internalNodes>
            0 -1 252 1.5283920220099390e-04</internalNodes>
          <leafValues>
            1.1298097670078278e-01 -4.6388688683509827e-01</leafValues></_>
        <_>
          <internalNodes>
            0 -1 208 7.0645855739712715e-03</internalNodes>
          <leafValues>
            9.2489130795001984e-02 -6.2250047922134399e-01</leafValues></_>
        <_>
          <internalNodes>
            0 -1 155 1.3585357010015287e-05</internalNodes>
          <leafValues>
            -1.9395028054714203e-01 2.7060699462890625e-01</leafValues></_>
        <_>
          <internalNodes>
            0 -1 238 -3.8203131407499313e-04</internalNodes>
          <leafValues>
            3.7631705403327942e-01 -1.5339817106723785e-01</leafValues></_>
        <_>
          <internalNodes>
            0 -1 67 4.5987337216502056e-05</internalNodes>
          <leafValues>
            1.4408001303672791e-01 -3.7645718455314636e-01</leafValues></_>
        <_>
          <internalNodes>
            0 -1 43 3.2175076194107533e-04</internalNodes>
          <leafValues>
            -1.6966953873634338e-01 2.9524922370910645e-01</leafValues></_>
        <_>
          <internalNodes>
            0 -1 255 2.4473189841955900e-04</internalNodes>
          <leafValues>
            1.3987559080123901e-01 -3.9827427268028259e-01</leafValues></_>
        <_>
          <internalNodes>
            0 -1 150 5.2923116832971573e-02</internalNodes>
          <leafValues>
            6.8773232400417328e-02 -6.9139271974563599e-01</leafValues></_>
        <_>
          <internalNodes>
            0 -1 198 -2.8641074895858765e-03</internalNodes>
          <leafValues>
            -8.1645077466964722e-01 4.9341481178998947e-02</leafValues></_>
        <_>
          <internalNodes>
            0 -1 168 -6.7439861595630646e-04</internalNodes>
          <leafValues>
            3.2615140080451965e-01 -1.8238548934459686e-01</leafValues></_>
        <_>
          <internalNodes>
            0 -1 33 1.4153866686683614e-05</internalNodes>
          <leafValues>
            1.5726187825202942e-01 -3.4337192773818970e-01</leafValues></_>
        <_>
          <internalNodes>
            0 -1 169 -3.3976895792875439e-05</internalNodes>
          <leafValues>
            2.1609069406986237e-01 -2.5985619425773621e-01</leafValues></_></weakClassifiers></_></stages>
  <features>
    <_>
      <rects>
        <_>
          0 0 2 1 -1.</_>
        <_>
          1 0 1 1 2.</_></rects>
      <tilted>0</tilted></_>
    <_>
      <rects>
        <_>
          0 0 8 2 -1.</_>
        <_>
          4 0 4 2 2.</_></rects>
      <tilted>0</tilted></_>
    <_>
      <rects>
        <_>
          0 0 10 12 -1.</_>
        <_>
          0 0 5 6 2.</_>
        <_>
          5 6 5 6 2.</_></rects>
      <tilted>0</tilted></_>
    <_>
      <rects>
        <_>
          0 0 21 2 -1.</_>
        <_>
          0 1 21 1 2.</_></rects>
      <tilted>0</tilted></_>
    <_>
      <rects>
        <_>
          0 1 20 5 -1.</_>
        <_>
          10 1 10 5 2.</_></rects>
      <tilted>0</tilted></_>
    <_>
      <rects>
        <_>
          0 2 5 3 -1.</_>
        <_>
          0 3 5 1 3.</_></rects>
      <tilted>0</tilted></_>
    <_>
      <rects>
        <_>
          0 2 10 16 -1.</_>
        <_>
          5 2 5 16 2.</_></rects>
      <tilted>0</tilted></_>
    <_>
      <rects>
        <_>
          0 2 18 15 -1.</_>
        <_>
          9 2 9 15 2.</_></rects>
      <tilted>0</tilted></_>
    <_>
      <rects>
        <_>
          0 3 1 18 -1.</_>
        <_>
          0 9 1 6 3.</_></rects>
      <tilted>0</tilted></_>
    <_>
      <rects>
        <_>
          0 4 24 2 -1.</_>
        <_>
          12 4 12 2 2.</_></rects>
      <tilted>0</tilted></_>
    <_>
      <rects>
        <_>
          0 5 1 12 -1.</_>
        <_>
          0 11 1 6 2.</_></rects>
      <tilted>0</tilted></_>
    <_>
      <rects>
        <_>
          0 6 15 18 -1.</_>
        <_>
          5 6 5 18 3.</_></rects>
      <tilted>0</tilted></_>
    <_>
      <rects>
        <_>
          0 8 15 14 -1.</_>
        <_>
          5 8 5 14 3.</_></rects>
      <tilted>0</tilted></_>
    <_>
      <rects>
        <_>
          0 9 1 4 -1.</_>
        <_>
          0 11 1 2 2.</_></rects>
      <tilted>0</tilted></_>
    <_>
      <rects>
        <_>
          0 9 5 6 -1.</_>
        <_>
          0 11 5 2 3.</_></rects>
      <tilted>0</tilted></_>
    <_>
      <rects>
        <_>
          0 9 6 2 -1.</_>
        <_>
          0 10 6 1 2.</_></rects>
      <tilted>0</tilted></_>
    <_>
      <rects>
        <_>
          0 9 24 10 -1.</_>
        <_>
          8 9 8 10 3.</_></rects>
      <tilted>0</tilted></_>
    <_>
      <rects>
        <_>
          0 10 8 14 -1.</_>
        <_>
          4 10 4 14 2.</_></rects>
      <tilted>0</tilted></_>
    <_>
      <rects>
        <_>
          0 10 14 8 -1.</_>
        <_>
          7 10 7 8 2.</_></rects>
      <tilted>0</tilted></_>
    <_>
      <rects>
        <_>
          0 10 11 2 -1.</_>
        <_>
          0 11 11 1 2.</_></rects>
      <tilted>0</tilted></_>
    <_>
      <rects>
        <_>
          0 11 2 2 -1.</_>
        <_>
          0 12 2 1 2.</_></rects>
      <tilted>0</tilted></_>
    <_>
      <rects>
        <_>
          0 12 8 8 -1.</_>
        <_>
          4 12 4 8 2.</_></rects>
      <tilted>0</tilted></_>
    <_>
      <rects>
        <_>
          0 15 2 9 -1.</_>
        <_>
          0 18 2 3 3.</_></rects>
      <tilted>0</tilted></_>
    <_>
      <rects>
        <_>
          0 17 1 3 -1.</_>
        <_>
          0 18 1 1 3.</_></rects>
      <tilted>0</tilted></_>
    <_>
      <rects>
        <_>
          0 17 10 4 -1.</_>
        <_>
          0 17 5 2 2.</_>
        <_>
          5 19 5 2 2.</_></rects>
      <tilted>0</tilted></_>
    <_>
      <rects>
        <_>
          0 18 1 2 -1.</_>
        <_>
          0 19 1 1 2.</_></rects>
      <tilted>0</tilted></_>
    <_>
      <rects>
        <_>
          0 20 2 4 -1.</_>
        <_>
          0 20 1 2 2.</_>
        <_>
          1 22 1 2 2.</_></rects>
      <tilted>0</tilted></_>
    <_>
      <rects>
        <_>
          0 21 2 3 -1.</_>
        <_>
          1 21 1 3 2.</_></rects>
      <tilted>0</tilted></_>
    <_>
      <rects>
        <_>
          0 21 6 1 -1.</_>
        <_>
          3 21 3 1 2.</_></rects>
      <tilted>0</tilted></_>
    <_>
      <rects>
        <_>
          0 21 8 3 -1.</_>
        <_>
          4 21 4 3 2.</_></rects>
      <tilted>0</tilted></_>
    <_>
      <rects>
        <_>
          0 21 21 3 -1.</_>
        <_>
          0 22 21 1 3.</_></rects>
      <tilted>0</tilted></_>
    <_>
      <rects>
        <_>
          0 22 24 2 -1.</_>
        <_>
          8 22 8 2 3.</_></rects>
      <tilted>0</tilted></_>
    <_>
      <rects>
        <_>
          0 22 24 2 -1.</_>
        <_>
          12 22 12 2 2.</_></rects>
      <tilted>0</tilted></_>
    <_>
      <rects>
        <_>
          1 0 18 1 -1.</_>
        <_>
          7 0 6 1 3.</_></rects>
      <tilted>0</tilted></_>
    <_>
      <rects>
        <_>
          1 0 21 20 -1.</_>
        <_>
          1 10 21 10 2.</_></rects>
      <tilted>0</tilted></_>
    <_>
      <rects>
        <_>
          1 3 9 2 -1.</_>
        <_>
          1 4 9 1 2.</_></rects>
      <tilted>0</tilted></_>
    <_>
      <rects>
        <_>
          1 4 6 13 -1.</_>
        <_>
          4 4 3 13 2.</_></rects>
      <tilted>0</tilted></_>
    <_>
      <rects>
        <_>
          1 5 9 17 -1.</_>
        <_>
          4 5 3 17 3.</_></rects>
      <tilted>0</tilted></_>
    <_>
      <rects>
        <_>
          1 12 4 6 -1.</_>
        <_>
          3 12 2 6 2.</_></rects>
      <tilted>0</tilted></_>
    <_>
      <rects>
        <_>
          1 17 1 3 -1.</_>
        <_>
          1 18 1 1 3.</_></rects>
      <tilted>0</tilted></_>
    <_>
      <rects>
        <_>
          1 19 1 2 -1.</_>
        <_>
          1 20 1 1 2.</_></rects>
      <tilted>0</tilted></_>
    <_>
      <rects>
        <_>
          1 19 22 3 -1.</_>
        <_>
          1 20 22 1 3.</_></rects>
      <tilted>0</tilted></_>
    <_>
      <rects>
        <_>
          1 20 1 4 -1.</_>
        <_>
          1 22 1 2 2.</_></rects>
      <tilted>0</tilted></_>
    <_>
      <rects>
        <_>
          1 20 3 3 -1.</_>
        <_>
          2 20 1 3 3.</_></rects>
      <tilted>0</tilted></_>
    <_>
      <rects>
        <_>
          1 23 6 1 -1.</_>
        <_>
          3 23 2 1 3.</_></rects>
      <tilted>0</tilted></_>
    <_>
      <rects>
        <_>
          2 2 14 9 -1.</_>
        <_>
          2 5 14 3 3.</_></rects>
      <tilted>0</tilted></_>
    <_>
      <rects>
        <_>
          2 4 17 4 -1.</_>
        <_>
          2 6 17 2 2.</_></rects>
      <tilted>0</tilted></_>
    <_>
      <rects>
        <_>
          2 6 20 18 -1.</_>
        <_>
          2 12 20 6 3.</_></rects>
      <tilted>0</tilted></_>
    <_>
      <rects>
        <_>
          2 14 21 3 -1.</_>
        <_>
          2 15 21 1 3.</_></rects>
      <tilted>0</tilted></_>
    <_>
      <rects>
        <_>
          2 18 21 1 -1.</_>
        <_>
          9 18 7 1 3.</_></rects>
      <tilted>0</tilted></_>
    <_>
      <rects>
        <_>
          2 19 17 3 -1.</_>
        <_>
          2 20 17 1 3.</_></rects>
      <tilted>0</tilted></_>
    <_>
      <rects>
        <_>
          2 21 4 2 -1.</_>
        <_>
          2 21 2 1 2.</_>
        <_>
          4 22 2 1 2.</_></rects>
      <tilted>0</tilted></_>
    <_>
      <rects>
        <_>
          2 22 2 2 -1.</_>
        <_>
          2 22 1 1 2.</_>
        <_>
          3 23 1 1 2.</_></rects>
      <tilted>0</tilted></_>
    <_>
      <rects>
        <_>
          2 22 3 2 -1.</_>
        <_>
          3 22 1 2 3.</_></rects>
      <tilted>0</tilted></_>
    <_>
      <rects>
        <_>
          3 4 21 16 -1.</_>
        <_>
          10 4 7 16 3.</_></rects>
      <tilted>0</tilted></_>
    <_>
      <rects>
        <_>
          3 9 2 4 -1.</_>
        <_>
          3 9 1 2 2.</_>
        <_>
          4 11 1 2 2.</_></rects>
      <tilted>0</tilted></_>
    <_>
      <rects>
        <_>
          3 10 2 1 -1.</_>
        <_>
          4 10 1 1 2.</_></rects>
      <tilted>0</tilted></_>
    <_>
      <rects>
        <_>
          3 11 20 12 -1.</_>
        <_>
          3 11 10 6 2.</_>
        <_>
          13 17 10 6 2.</_></rects>
      <tilted>0</tilted></_>
    <_>
      <rects>
        <_>
          3 14 17 9 -1.</_>
        <_>
          3 17 17 3 3.</_></rects>
      <tilted>0</tilted></_>
    <_>
      <rects>
        <_>
          3 15 18 9 -1.</_>
        <_>
          3 18 18 3 3.</_></rects>
      <tilted>0</tilted></_>
    <_>
      <rects>
        <_>
          3 16 4 6 -1.</_>
        <_>
          3 16 2 3 2.</_>
        <_>
          5 19 2 3 2.</_></rects>
      <tilted>0</tilted></_>
    <_>
      <rects>
        <_>
          3 18 9 6 -1.</_>
        <_>
          3 21 9 3 2.</_></rects>
      <tilted>0</tilted></_>
    <_>
      <rects>
        <_>
          3 22 1 2 -1.</_>
        <_>
          3 23 1 1 2.</_></rects>
      <tilted>0</tilted></_>
    <_>
      <rects>
        <_>
          4 0 3 9 -1.</_>
        <_>
          5 0 1 9 3.</_></rects>
      <tilted>0</tilted></_>
    <_>
      <rects>
        <_>
          4 0 14 24 -1.</_>
        <_>
          4 8 14 8 3.</_></rects>
      <tilted>0</tilted></_>
    <_>
      <rects>
        <_>
          4 0 16 24 -1.</_>
        <_>
          4 8 16 8 3.</_></rects>
      <tilted>0</tilted></_>
    <_>
      <rects>
        <_>
          4 0 17 14 -1.</_>
        <_>
          4 7 17 7 2.</_></rects>
      <tilted>0</tilted></_>
    <_>
      <rects>
        <_>
          4 1 3 1 -1.</_>
        <_>
          5 1 1 1 3.</_></rects>
      <tilted>0</tilted></_>
    <_>
      <rects>
        <_>
          4 9 2 2 -1.</_>
        <_>
          4 9 1 1 2.</_>
        <_>
          5 10 1 1 2.</_></rects>
      <tilted>0</tilted></_>
    <_>
      <rects>
        <_>
          4 10 14 1 -1.</_>
        <_>
          11 10 7 1 2.</_></rects>
      <tilted>0</tilted></_>
    <_>
      <rects>
        <_>
          4 14 17 10 -1.</_>
        <_>
          4 19 17 5 2.</_></rects>
      <tilted>0</tilted></_>
    <_>
      <rects>
        <_>
          4 16 6 2 -1.</_>
        <_>
          4 16 3 1 2.</_>
        <_>
          7 17 3 1 2.</_></rects>
      <tilted>0</tilted></_>
    <_>
      <rects>
        <_>
          4 19 15 4 -1.</_>
        <_>
          4 21 15 2 2.</_></rects>
      <tilted>0</tilted></_>
    <_>
      <rects>
        <_>
          5 0 15 12 -1.</_>
        <_>
          5 6 15 6 2.</_></rects>
      <tilted>0</tilted></_>
    <_>
      <rects>
        <_>
          5 0 15 24 -1.</_>
        <_>
          5 8 15 8 3.</_></rects>
      <tilted>0</tilted></_>
    <_>
      <rects>
        <_>
          5 1 8 22 -1.</_>
        <_>
          5 1 4 11 2.</_>
        <_>
          9 12 4 11 2.</_></rects>
      <tilted>0</tilted></_>
    <_>
      <rects>
        <_>
          5 8 5 3 -1.</_>
        <_>
          5 9 5 1 3.</_></rects>
      <tilted>0</tilted></_>
    <_>
      <rects>
        <_>
          5 10 2 4 -1.</_>
        <_>
          5 10 1 2 2.</_>
        <_>
          6 12 1 2 2.</_></rects>
      <tilted>0</tilted></_>
    <_>
      <rects>
        <_>
          5 11 2 1 -1.</_>
        <_>
          6 11 1 1 2.</_></rects>
      <tilted>0</tilted></_>
    <_>
      <rects>
        <_>
          5 11 7 8 -1.</_>
        <_>
          5 15 7 4 2.</_></rects>
      <tilted>0</tilted></_>
    <_>
      <rects>
        <_>
          5 14 9 10 -1.</_>
        <_>
          5 19 9 5 2.</_></rects>
      <tilted>0</tilted></_>
    <_>
      <rects>
        <_>
          5 14 15 10 -1.</_>
        <_>
          5 19 15 5 2.</_></rects>
      <tilted>0</tilted></_>
    <_>
      <rects>
        <_>
          5 15 1 4 -1.</_>
        <_>
          5 17 1 2 2.</_></rects>
      <tilted>0</tilted></_>
    <_>
      <rects>
        <_>
          5 15 2 4 -1.</_>
        <_>
          6 15 1 4 2.</_></rects>
      <tilted>0</tilted></_>
    <_>
      <rects>
        <_>
          5 16 4 2 -1.</_>
        <_>
          5 16 2 1 2.</_>
        <_>
          7 17 2 1 2.</_></rects>
      <tilted>0</tilted></_>
    <_>
      <rects>
        <_>
          5 22 3 1 -1.</_>
        <_>
          6 22 1 1 3.</_></rects>
      <tilted>0</tilted></_>
    <_>
      <rects>
        <_>
          5 22 6 1 -1.</_>
        <_>
          8 22 3 1 2.</_></rects>
      <tilted>0</tilted></_>
    <_>
      <rects>
        <_>
          5 23 6 1 -1.</_>
        <_>
          7 23 2 1 3.</_></rects>
      <tilted>0</tilted></_>
    <_>
      <rects>
        <_>
          5 23 9 1 -1.</_>
        <_>
          8 23 3 1 3.</_></rects>
      <tilted>0</tilted></_>
    <_>
      <rects>
        <_>
          6 0 3 2 -1.</_>
        <_>
          7 0 1 2 3.</_></rects>
      <tilted>0</tilted></_>
    <_>
      <rects>
        <_>
          6 1 9 15 -1.</_>
        <_>
          9 1 3 15 3.</_></rects>
      <tilted>0</tilted></_>
    <_>
      <rects>
        <_>
          6 1 11 15 -1.</_>
        <_>
          6 6 11 5 3.</_></rects>
      <tilted>0</tilted></_>
    <_>
      <rects>
        <_>
          6 2 16 15 -1.</_>
        <_>
          6 7 16 5 3.</_></rects>
      <tilted>0</tilted></_>
    <_>
      <rects>
        <_>
          6 5 6 10 -1.</_>
        <_>
          8 5 2 10 3.</_></rects>
      <tilted>0</tilted></_>
    <_>
      <rects>
        <_>
          6 7 2 16 -1.</_>
        <_>
          6 7 1 8 2.</_>
        <_>
          7 15 1 8 2.</_></rects>
      <tilted>0</tilted></_>
    <_>
      <rects>
        <_>
          6 10 2 2 -1.</_>
        <_>
          6 10 1 1 2.</_>
        <_>
          7 11 1 1 2.</_></rects>
      <tilted>0</tilted></_>
    <_>
      <rects>
        <_>
          6 12 4 3 -1.</_>
        <_>
          6 13 4 1 3.</_></rects>
      <tilted>0</tilted></_>
    <_>
      <rects>
        <_>
          6 15 4 2 -1.</_>
        <_>
          6 15 2 1 2.</_>
        <_>
          8 16 2 1 2.</_></rects>
      <tilted>0</tilted></_>
    <_>
      <rects>
        <_>
          6 15 11 3 -1.</_>
        <_>
          6 16 11 1 3.</_></rects>
      <tilted>0</tilted></_>
    <_>
      <rects>
        <_>
          6 16 3 6 -1.</_>
        <_>
          6 18 3 2 3.</_></rects>
      <tilted>0</tilted></_>
    <_>
      <rects>
        <_>
          6 16 18 8 -1.</_>
        <_>
          12 16 6 8 3.</_></rects>
      <tilted>0</tilted></_>
    <_>
      <rects>
        <_>
          6 23 9 1 -1.</_>
        <_>
          9 23 3 1 3.</_></rects>
      <tilted>0</tilted></_>
    <_>
      <rects>
        <_>
          7 0 3 2 -1.</_>
        <_>
          8 0 1 2 3.</_></rects>
      <tilted>0</tilted></_>
    <_>
      <rects>
        <_>
          7 1 8 12 -1.</_>
        <_>
          7 5 8 4 3.</_></rects>
      <tilted>0</tilted></_>
    <_>
      <rects>
        <_>
          7 1 10 6 -1.</_>
        <_>
          7 4 10 3 2.</_></rects>
      <tilted>0</tilted></_>
    <_>
      <rects>
        <_>
          7 8 4 2 -1.</_>
        <_>
          7 9 4 1 2.</_></rects>
      <tilted>0</tilted></_>
    <_>
      <rects>
        <_>
          7 9 6 5 -1.</_>
        <_>
          9 9 2 5 3.</_></rects>
      <tilted>0</tilted></_>
    <_>
      <rects>
        <_>
          7 10 5 2 -1.</_>
        <_>
          7 11 5 1 2.</_></rects>
      <tilted>0</tilted></_>
    <_>
      <rects>
        <_>
          7 12 10 12 -1.</_>
        <_>
          12 12 5 12 2.</_></rects>
      <tilted>0</tilted></_>
    <_>
      <rects>
        <_>
          7 13 2 2 -1.</_>
        <_>
          8 13 1 2 2.</_></rects>
      <tilted>0</tilted></_>
    <_>
      <rects>
        <_>
          7 17 3 1 -1.</_>
        <_>
          8 17 1 1 3.</_></rects>
      <tilted>0</tilted></_>
    <_>
      <rects>
        <_>
          7 17 2 2 -1.</_>
        <_>
          7 17 1 1 2.</_>
        <_>
          8 18 1 1 2.</_></rects>
      <tilted>0</tilted></_>
    <_>
      <rects>
        <_>
          7 18 7 3 -1.</_>
        <_>
          7 19 7 1 3.</_></rects>
      <tilted>0</tilted></_>
    <_>
      <rects>
        <_>
          7 21 8 1 -1.</_>
        <_>
          11 21 4 1 2.</_></rects>
      <tilted>0</tilted></_>
    <_>
      <rects>
        <_>
          7 22 14 2 -1.</_>
        <_>
          14 22 7 2 2.</_></rects>
      <tilted>0</tilted></_>
    <_>
      <rects>
        <_>
          8 0 6 10 -1.</_>
        <_>
          8 0 3 5 2.</_>
        <_>
          11 5 3 5 2.</_></rects>
      <tilted>0</tilted></_>
    <_>
      <rects>
        <_>
          8 0 9 9 -1.</_>
        <_>
          8 3 9 3 3.</_></rects>
      <tilted>0</tilted></_>
    <_>
      <rects>
        <_>
          8 3 6 7 -1.</_>
        <_>
          10 3 2 7 3.</_></rects>
      <tilted>0</tilted></_>
    <_>
      <rects>
        <_>
          8 3 9 4 -1.</_>
        <_>
          8 5 9 2 2.</_></rects>
      <tilted>0</tilted></_>
    <_>
      <rects>
        <_>
          8 7 1 2 -1.</_>
        <_>
          8 8 1 1 2.</_></rects>
      <tilted>0</tilted></_>
    <_>
      <rects>
        <_>
          8 11 2 2 -1.</_>
        <_>
          8 11 1 1 2.</_>
        <_>
          9 12 1 1 2.</_></rects>
      <tilted>0</tilted></_>
    <_>
      <rects>
        <_>
          8 12 2 2 -1.</_>
        <_>
          8 12 1 1 2.</_>
        <_>
          9 13 1 1 2.</_></rects>
      <tilted>0</tilted></_>
    <_>
      <rects>
        <_>
          8 14 2 3 -1.</_>
        <_>
          8 15 2 1 3.</_></rects>
      <tilted>0</tilted></_>
    <_>
      <rects>
        <_>
          8 15 1 2 -1.</_>
        <_>
          8 16 1 1 2.</_></rects>
      <tilted>0</tilted></_>
    <_>
      <rects>
        <_>
          8 16 1 2 -1.</_>
        <_>
          8 17 1 1 2.</_></rects>
      <tilted>0</tilted></_>
    <_>
      <rects>
        <_>
          8 16 10 8 -1.</_>
        <_>
          13 16 5 8 2.</_></rects>
      <tilted>0</tilted></_>
    <_>
      <rects>
        <_>
          8 17 3 3 -1.</_>
        <_>
          8 18 3 1 3.</_></rects>
      <tilted>0</tilted></_>
    <_>
      <rects>
        <_>
          8 17 9 3 -1.</_>
        <_>
          8 18 9 1 3.</_></rects>
      <tilted>0</tilted></_>
    <_>
      <rects>
        <_>
          8 21 3 3 -1.</_>
        <_>
          9 21 1 3 3.</_></rects>
      <tilted>0</tilted></_>
    <_>
      <rects>
        <_>
          8 22 16 2 -1.</_>
        <_>
          16 22 8 2 2.</_></rects>
      <tilted>0</tilted></_>
    <_>
      <rects>
        <_>
          8 23 6 1 -1.</_>
        <_>
          10 23 2 1 3.</_></rects>
      <tilted>0</tilted></_>
    <_>
      <rects>
        <_>
          9 0 14 24 -1.</_>
        <_>
          9 12 14 12 2.</_></rects>
      <tilted>0</tilted></_>
    <_>
      <rects>
        <_>
          9 1 4 6 -1.</_>
        <_>
          9 3 4 2 3.</_></rects>
      <tilted>0</tilted></_>
    <_>
      <rects>
        <_>
          9 1 6 12 -1.</_>
        <_>
          9 5 6 4 3.</_></rects>
      <tilted>0</tilted></_>
    <_>
      <rects>
        <_>
          9 2 6 8 -1.</_>
        <_>
          9 6 6 4 2.</_></rects>
      <tilted>0</tilted></_>
    <_>
      <rects>
        <_>
          9 8 3 12 -1.</_>
        <_>
          9 14 3 6 2.</_></rects>
      <tilted>0</tilted></_>
    <_>
      <rects>
        <_>
          9 13 1 10 -1.</_>
        <_>
          9 18 1 5 2.</_></rects>
      <tilted>0</tilted></_>
    <_>
      <rects>
        <_>
          9 14 1 2 -1.</_>
        <_>
          9 15 1 1 2.</_></rects>
      <tilted>0</tilted></_>
    <_>
      <rects>
        <_>
          9 14 2 2 -1.</_>
        <_>
          9 14 1 1 2.</_>
        <_>
          10 15 1 1 2.</_></rects>
      <tilted>0</tilted></_>
    <_>
      <rects>
        <_>
          9 16 2 2 -1.</_>
        <_>
          9 16 1 1 2.</_>
        <_>
          10 17 1 1 2.</_></rects>
      <tilted>0</tilted></_>
    <_>
      <rects>
        <_>
          9 16 3 8 -1.</_>
        <_>
          9 20 3 4 2.</_></rects>
      <tilted>0</tilted></_>
    <_>
      <rects>
        <_>
          9 17 1 6 -1.</_>
        <_>
          9 19 1 2 3.</_></rects>
      <tilted>0</tilted></_>
    <_>
      <rects>
        <_>
          9 17 5 6 -1.</_>
        <_>
          9 19 5 2 3.</_></rects>
      <tilted>0</tilted></_>
    <_>
      <rects>
        <_>
          9 17 9 3 -1.</_>
        <_>
          9 18 9 1 3.</_></rects>
      <tilted>0</tilted></_>
    <_>
      <rects>
        <_>
          9 22 2 1 -1.</_>
        <_>
          10 22 1 1 2.</_></rects>
      <tilted>0</tilted></_>
    <_>
      <rects>
        <_>
          9 23 9 1 -1.</_>
        <_>
          12 23 3 1 3.</_></rects>
      <tilted>0</tilted></_>
    <_>
      <rects>
        <_>
          9 23 12 1 -1.</_>
        <_>
          13 23 4 1 3.</_></rects>
      <tilted>0</tilted></_>
    <_>
      <rects>
        <_>
          10 0 7 6 -1.</_>
        <_>
          10 2 7 2 3.</_></rects>
      <tilted>0</tilted></_>
    <_>
      <rects>
        <_>
          10 1 6 16 -1.</_>
        <_>
          10 1 3 8 2.</_>
        <_>
          13 9 3 8 2.</_></rects>
      <tilted>0</tilted></_>
    <_>
      <rects>
        <_>
          10 7 2 13 -1.</_>
        <_>
          11 7 1 13 2.</_></rects>
      <tilted>0</tilted></_>
    <_>
      <rects>
        <_>
          10 7 8 12 -1.</_>
        <_>
          10 13 8 6 2.</_></rects>
      <tilted>0</tilted></_>
    <_>
      <rects>
        <_>
          10 8 2 1 -1.</_>
        <_>
          11 8 1 1 2.</_></rects>
      <tilted>0</tilted></_>
    <_>
      <rects>
        <_>
          10 8 2 2 -1.</_>
        <_>
          10 8 1 1 2.</_>
        <_>
          11 9 1 1 2.</_></rects>
      <tilted>0</tilted></_>
    <_>
      <rects>
        <_>
          10 9 13 3 -1.</_>
        <_>
          10 10 13 1 3.</_></rects>
      <tilted>0</tilted></_>
    <_>
      <rects>
        <_>
          10 12 3 1 -1.</_>
        <_>
          11 12 1 1 3.</_></rects>
      <tilted>0</tilted></_>
    <_>
      <rects>
        <_>
          10 14 1 2 -1.</_>
        <_>
          10 15 1 1 2.</_></rects>
      <tilted>0</tilted></_>
    <_>
      <rects>
        <_>
          10 14 2 3 -1.</_>
        <_>
          10 15 2 1 3.</_></rects>
      <tilted>0</tilted></_>
    <_>
      <rects>
        <_>
          10 14 6 6 -1.</_>
        <_>
          10 16 6 2 3.</_></rects>
      <tilted>0</tilted></_>
    <_>
      <rects>
        <_>
          10 17 1 3 -1.</_>
        <_>
          10 18 1 1 3.</_></rects>
      <tilted>0</tilted></_>
    <_>
      <rects>
        <_>
          10 18 6 2 -1.</_>
        <_>
          10 19 6 1 2.</_></rects>
      <tilted>0</tilted></_>
    <_>
      <rects>
        <_>
          10 19 5 3 -1.</_>
        <_>
          10 20 5 1 3.</_></rects>
      <tilted>0</tilted></_>
    <_>
      <rects>
        <_>
          10 19 6 3 -1.</_>
        <_>
          10 20 6 1 3.</_></rects>
      <tilted>0</tilted></_>
    <_>
      <rects>
        <_>
          10 21 2 3 -1.</_>
        <_>
          10 22 2 1 3.</_></rects>
      <tilted>0</tilted></_>
    <_>
      <rects>
        <_>
          10 21 6 3 -1.</_>
        <_>
          12 21 2 3 3.</_></rects>
      <tilted>0</tilted></_>
    <_>
      <rects>
        <_>
          10 23 14 1 -1.</_>
        <_>
          17 23 7 1 2.</_></rects>
      <tilted>0</tilted></_>
    <_>
      <rects>
        <_>
          11 1 2 13 -1.</_>
        <_>
          12 1 1 13 2.</_></rects>
      <tilted>0</tilted></_>
    <_>
      <rects>
        <_>
          11 2 12 6 -1.</_>
        <_>
          11 2 6 3 2.</_>
        <_>
          17 5 6 3 2.</_></rects>
      <tilted>0</tilted></_>
    <_>
      <rects>
        <_>
          11 5 1 2 -1.</_>
        <_>
          11 6 1 1 2.</_></rects>
      <tilted>0</tilted></_>
    <_>
      <rects>
        <_>
          11 6 1 3 -1.</_>
        <_>
          11 7 1 1 3.</_></rects>
      <tilted>0</tilted></_>
    <_>
      <rects>
        <_>
          11 6 6 2 -1.</_>
        <_>
          11 6 3 1 2.</_>
        <_>
          14 7 3 1 2.</_></rects>
      <tilted>0</tilted></_>
    <_>
      <rects>
        <_>
          11 12 2 2 -1.</_>
        <_>
          11 12 1 1 2.</_>
        <_>
          12 13 1 1 2.</_></rects>
      <tilted>0</tilted></_>
    <_>
      <rects>
        <_>
          11 14 6 3 -1.</_>
        <_>
          11 15 6 1 3.</_></rects>
      <tilted>0</tilted></_>
    <_>
      <rects>
        <_>
          11 18 8 3 -1.</_>
        <_>
          11 19 8 1 3.</_></rects>
      <tilted>0</tilted></_>
    <_>
      <rects>
        <_>
          11 20 3 4 -1.</_>
        <_>
          12 20 1 4 3.</_></rects>
      <tilted>0</tilted></_>
    <_>
      <rects>
        <_>
          11 20 5 3 -1.</_>
        <_>
          11 21 5 1 3.</_></rects>
      <tilted>0</tilted></_>
    <_>
      <rects>
        <_>
          11 21 3 3 -1.</_>
        <_>
          12 21 1 3 3.</_></rects>
      <tilted>0</tilted></_>
    <_>
      <rects>
        <_>
          11 23 3 1 -1.</_>
        <_>
          12 23 1 1 3.</_></rects>
      <tilted>0</tilted></_>
    <_>
      <rects>
        <_>
          12 0 3 1 -1.</_>
        <_>
          13 0 1 1 3.</_></rects>
      <tilted>0</tilted></_>
    <_>
      <rects>
        <_>
          12 0 12 14 -1.</_>
        <_>
          18 0 6 14 2.</_></rects>
      <tilted>0</tilted></_>
    <_>
      <rects>
        <_>
          12 5 2 10 -1.</_>
        <_>
          12 5 1 5 2.</_>
        <_>
          13 10 1 5 2.</_></rects>
      <tilted>0</tilted></_>
    <_>
      <rects>
        <_>
          12 7 12 17 -1.</_>
        <_>
          16 7 4 17 3.</_></rects>
      <tilted>0</tilted></_>
    <_>
      <rects>
        <_>
          12 10 3 4 -1.</_>
        <_>
          13 10 1 4 3.</_></rects>
      <tilted>0</tilted></_>
    <_>
      <rects>
        <_>
          12 11 2 2 -1.</_>
        <_>
          12 11 1 1 2.</_>
        <_>
          13 12 1 1 2.</_></rects>
      <tilted>0</tilted></_>
    <_>
      <rects>
        <_>
          12 13 8 2 -1.</_>
        <_>
          12 13 4 1 2.</_>
        <_>
          16 14 4 1 2.</_></rects>
      <tilted>0</tilted></_>
    <_>
      <rects>
        <_>
          12 14 1 3 -1.</_>
        <_>
          12 15 1 1 3.</_></rects>
      <tilted>0</tilted></_>
    <_>
      <rects>
        <_>
          12 14 3 2 -1.</_>
        <_>
          13 14 1 2 3.</_></rects>
      <tilted>0</tilted></_>
    <_>
      <rects>
        <_>
          12 14 2 4 -1.</_>
        <_>
          12 14 1 2 2.</_>
        <_>
          13 16 1 2 2.</_></rects>
      <tilted>0</tilted></_>
    <_>
      <rects>
        <_>
          12 15 2 2 -1.</_>
        <_>
          12 15 1 1 2.</_>
        <_>
          13 16 1 1 2.</_></rects>
      <tilted>0</tilted></_>
    <_>
      <rects>
        <_>
          12 16 7 6 -1.</_>
        <_>
          12 18 7 2 3.</_></rects>
      <tilted>0</tilted></_>
    <_>
      <rects>
        <_>
          12 20 3 3 -1.</_>
        <_>
          12 21 3 1 3.</_></rects>
      <tilted>0</tilted></_>
    <_>
      <rects>
        <_>
          12 23 3 1 -1.</_>
        <_>
          13 23 1 1 3.</_></rects>
      <tilted>0</tilted></_>
    <_>
      <rects>
        <_>
          13 0 8 10 -1.</_>
        <_>
          13 0 4 5 2.</_>
        <_>
          17 5 4 5 2.</_></rects>
      <tilted>0</tilted></_>
    <_>
      <rects>
        <_>
          13 8 6 3 -1.</_>
        <_>
          13 9 6 1 3.</_></rects>
      <tilted>0</tilted></_>
    <_>
      <rects>
        <_>
          13 14 2 3 -1.</_>
        <_>
          13 15 2 1 3.</_></rects>
      <tilted>0</tilted></_>
    <_>
      <rects>
        <_>
          13 15 2 2 -1.</_>
        <_>
          13 15 1 1 2.</_>
        <_>
          14 16 1 1 2.</_></rects>
      <tilted>0</tilted></_>
    <_>
      <rects>
        <_>
          13 17 2 1 -1.</_>
        <_>
          14 17 1 1 2.</_></rects>
      <tilted>0</tilted></_>
    <_>
      <rects>
        <_>
          13 17 6 3 -1.</_>
        <_>
          13 18 6 1 3.</_></rects>
      <tilted>0</tilted></_>
    <_>
      <rects>
        <_>
          13 20 2 3 -1.</_>
        <_>
          14 20 1 3 2.</_></rects>
      <tilted>0</tilted></_>
    <_>
      <rects>
        <_>
          13 20 3 4 -1.</_>
        <_>
          14 20 1 4 3.</_></rects>
      <tilted>0</tilted></_>
    <_>
      <rects>
        <_>
          13 22 6 2 -1.</_>
        <_>
          15 22 2 2 3.</_></rects>
      <tilted>0</tilted></_>
    <_>
      <rects>
        <_>
          14 2 10 10 -1.</_>
        <_>
          14 2 5 5 2.</_>
        <_>
          19 7 5 5 2.</_></rects>
      <tilted>0</tilted></_>
    <_>
      <rects>
        <_>
          14 4 2 4 -1.</_>
        <_>
          14 4 1 2 2.</_>
        <_>
          15 6 1 2 2.</_></rects>
      <tilted>0</tilted></_>
    <_>
      <rects>
        <_>
          14 7 9 10 -1.</_>
        <_>
          14 12 9 5 2.</_></rects>
      <tilted>0</tilted></_>
    <_>
      <rects>
        <_>
          14 8 1 2 -1.</_>
        <_>
          14 9 1 1 2.</_></rects>
      <tilted>0</tilted></_>
    <_>
      <rects>
        <_>
          14 13 5 6 -1.</_>
        <_>
          14 16 5 3 2.</_></rects>
      <tilted>0</tilted></_>
    <_>
      <rects>
        <_>
          14 14 2 6 -1.</_>
        <_>
          14 14 1 3 2.</_>
        <_>
          15 17 1 3 2.</_></rects>
      <tilted>0</tilted></_>
    <_>
      <rects>
        <_>
          14 15 8 2 -1.</_>
        <_>
          14 15 4 1 2.</_>
        <_>
          18 16 4 1 2.</_></rects>
      <tilted>0</tilted></_>
    <_>
      <rects>
        <_>
          14 18 2 5 -1.</_>
        <_>
          15 18 1 5 2.</_></rects>
      <tilted>0</tilted></_>
    <_>
      <rects>
        <_>
          15 1 2 22 -1.</_>
        <_>
          16 1 1 22 2.</_></rects>
      <tilted>0</tilted></_>
    <_>
      <rects>
        <_>
          15 7 2 2 -1.</_>
        <_>
          15 8 2 1 2.</_></rects>
      <tilted>0</tilted></_>
    <_>
      <rects>
        <_>
          15 13 4 2 -1.</_>
        <_>
          15 13 2 1 2.</_>
        <_>
          17 14 2 1 2.</_></rects>
      <tilted>0</tilted></_>
    <_>
      <rects>
        <_>
          15 15 1 6 -1.</_>
        <_>
          15 17 1 2 3.</_></rects>
      <tilted>0</tilted></_>
    <_>
      <rects>
        <_>
          15 17 2 1 -1.</_>
        <_>
          16 17 1 1 2.</_></rects>
      <tilted>0</tilted></_>
    <_>
      <rects>
        <_>
          16 0 3 1 -1.</_>
        <_>
          17 0 1 1 3.</_></rects>
      <tilted>0</tilted></_>
    <_>
      <rects>
        <_>
          16 3 1 6 -1.</_>
        <_>
          16 5 1 2 3.</_></rects>
      <tilted>0</tilted></_>
    <_>
      <rects>
        <_>
          16 5 8 12 -1.</_>
        <_>
          20 5 4 12 2.</_></rects>
      <tilted>0</tilted></_>
    <_>
      <rects>
        <_>
          16 6 8 8 -1.</_>
        <_>
          20 6 4 8 2.</_></rects>
      <tilted>0</tilted></_>
    <_>
      <rects>
        <_>
          16 7 2 2 -1.</_>
        <_>
          16 8 2 1 2.</_></rects>
      <tilted>0</tilted></_>
    <_>
      <rects>
        <_>
          16 7 8 10 -1.</_>
        <_>
          20 7 4 10 2.</_></rects>
      <tilted>0</tilted></_>
    <_>
      <rects>
        <_>
          16 14 4 2 -1.</_>
        <_>
          16 14 2 1 2.</_>
        <_>
          18 15 2 1 2.</_></rects>
      <tilted>0</tilted></_>
    <_>
      <rects>
        <_>
          16 15 2 4 -1.</_>
        <_>
          16 17 2 2 2.</_></rects>
      <tilted>0</tilted></_>
    <_>
      <rects>
        <_>
          16 15 8 9 -1.</_>
        <_>
          20 15 4 9 2.</_></rects>
      <tilted>0</tilted></_>
    <_>
      <rects>
        <_>
          17 0 2 2 -1.</_>
        <_>
          18 0 1 2 2.</_></rects>
      <tilted>0</tilted></_>
    <_>
      <rects>
        <_>
          17 0 6 16 -1.</_>
        <_>
          17 0 3 8 2.</_>
        <_>
          20 8 3 8 2.</_></rects>
      <tilted>0</tilted></_>
    <_>
      <rects>
        <_>
          17 2 7 12 -1.</_>
        <_>
          17 6 7 4 3.</_></rects>
      <tilted>0</tilted></_>
    <_>
      <rects>
        <_>
          17 12 2 4 -1.</_>
        <_>
          17 12 1 2 2.</_>
        <_>
          18 14 1 2 2.</_></rects>
      <tilted>0</tilted></_>
    <_>
      <rects>
        <_>
          17 13 2 2 -1.</_>
        <_>
          17 13 1 1 2.</_>
        <_>
          18 14 1 1 2.</_></rects>
      <tilted>0</tilted></_>
    <_>
      <rects>
        <_>
          17 14 2 2 -1.</_>
        <_>
          17 14 1 1 2.</_>
        <_>
          18 15 1 1 2.</_></rects>
      <tilted>0</tilted></_>
    <_>
      <rects>
        <_>
          18 0 1 20 -1.</_>
        <_>
          18 10 1 10 2.</_></rects>
      <tilted>0</tilted></_>
    <_>
      <rects>
        <_>
          18 11 6 13 -1.</_>
        <_>
          21 11 3 13 2.</_></rects>
      <tilted>0</tilted></_>
    <_>
      <rects>
        <_>
          18 12 2 6 -1.</_>
        <_>
          18 12 1 3 2.</_>
        <_>
          19 15 1 3 2.</_></rects>
      <tilted>0</tilted></_>
    <_>
      <rects>
        <_>
          18 23 3 1 -1.</_>
        <_>
          19 23 1 1 3.</_></rects>
      <tilted>0</tilted></_>
    <_>
      <rects>
        <_>
          19 0 3 3 -1.</_>
        <_>
          20 0 1 3 3.</_></rects>
      <tilted>0</tilted></_>
    <_>
      <rects>
        <_>
          19 6 3 10 -1.</_>
        <_>
          20 6 1 10 3.</_></rects>
      <tilted>0</tilted></_>
    <_>
      <rects>
        <_>
          19 9 3 2 -1.</_>
        <_>
          20 9 1 2 3.</_></rects>
      <tilted>0</tilted></_>
    <_>
      <rects>
        <_>
          19 9 4 7 -1.</_>
        <_>
          21 9 2 7 2.</_></rects>
      <tilted>0</tilted></_>
    <_>
      <rects>
        <_>
          19 9 4 9 -1.</_>
        <_>
          21 9 2 9 2.</_></rects>
      <tilted>0</tilted></_>
    <_>
      <rects>
        <_>
          19 10 2 4 -1.</_>
        <_>
          19 10 1 2 2.</_>
        <_>
          20 12 1 2 2.</_></rects>
      <tilted>0</tilted></_>
    <_>
      <rects>
        <_>
          19 13 2 2 -1.</_>
        <_>
          19 13 1 1 2.</_>
        <_>
          20 14 1 1 2.</_></rects>
      <tilted>0</tilted></_>
    <_>
      <rects>
        <_>
          20 0 2 3 -1.</_>
        <_>
          21 0 1 3 2.</_></rects>
      <tilted>0</tilted></_>
    <_>
      <rects>
        <_>
          20 0 3 16 -1.</_>
        <_>
          21 0 1 16 3.</_></rects>
      <tilted>0</tilted></_>
    <_>
      <rects>
        <_>
          20 1 4 8 -1.</_>
        <_>
          20 5 4 4 2.</_></rects>
      <tilted>0</tilted></_>
    <_>
      <rects>
        <_>
          20 10 3 4 -1.</_>
        <_>
          21 10 1 4 3.</_></rects>
      <tilted>0</tilted></_>
    <_>
      <rects>
        <_>
          20 23 3 1 -1.</_>
        <_>
          21 23 1 1 3.</_></rects>
      <tilted>0</tilted></_>
    <_>
      <rects>
        <_>
          21 6 3 9 -1.</_>
        <_>
          21 9 3 3 3.</_></rects>
      <tilted>0</tilted></_>
    <_>
      <rects>
        <_>
          21 7 3 11 -1.</_>
        <_>
          22 7 1 11 3.</_></rects>
      <tilted>0</tilted></_>
    <_>
      <rects>
        <_>
          21 23 3 1 -1.</_>
        <_>
          22 23 1 1 3.</_></rects>
      <tilted>0</tilted></_>
    <_>
      <rects>
        <_>
          22 1 2 2 -1.</_>
        <_>
          22 2 2 1 2.</_></rects>
      <tilted>0</tilted></_>
    <_>
      <rects>
        <_>
          22 5 2 16 -1.</_>
        <_>
          22 13 2 8 2.</_></rects>
      <tilted>0</tilted></_>
    <_>
      <rects>
        <_>
          22 17 2 2 -1.</_>
        <_>
          22 18 2 1 2.</_></rects>
      <tilted>0</tilted></_>
    <_>
      <rects>
        <_>
          23 4 1 12 -1.</_>
        <_>
          23 8 1 4 3.</_></rects>
      <tilted>0</tilted></_>
    <_>
      <rects>
        <_>
          23 9 1 3 -1.</_>
        <_>
          23 10 1 1 3.</_></rects>
      <tilted>0</tilted></_>
    <_>
      <rects>
        <_>
          23 15 1 3 -1.</_>
        <_>
          23 16 1 1 3.</_></rects>
      <tilted>0</tilted></_>
    <_>
      <rects>
        <_>
          23 15 1 6 -1.</_>
        <_>
          23 17 1 2 3.</_></rects>
      <tilted>0</tilted></_>
    <_>
      <rects>
        <_>
          23 16 1 6 -1.</_>
        <_>
          23 19 1 3 2.</_></rects>
      <tilted>0</tilted></_>
    <_>
      <rects>
        <_>
          23 17 1 3 -1.</_>
        <_>
          23 18 1 1 3.</_></rects>
      <tilted>0</tilted></_>
    <_>
      <rects>
        <_>
          23 17 1 4 -1.</_>
        <_>
          23 19 1 2 2.</_></rects>
      <tilted>0</tilted></_>
    <_>
      <rects>
        <_>
          23 18 1 4 -1.</_>
        <_>
          23 20 1 2 2.</_></rects>
      <tilted>0</tilted></_>
    <_>
      <rects>
        <_>
          23 19 1 2 -1.</_>
        <_>
          23 20 1 1 2.</_></rects>
      <tilted>0</tilted></_>
    <_>
      <rects>
        <_>
          23 19 1 3 -1.</_>
        <_>
          23 20 1 1 3.</_></rects>
      <tilted>0</tilted></_></features></cascade>
</opencv_storage>
