<?xml version="1.0"?>
<opencv_storage>
<cascade>
  <stageType>BOOST</stageType>
  <featureType>HAAR</featureType>
  <height>24</height>
  <width>24</width>
  <stageParams>
    <boostType>GAB</boostType>
    <minHitRate>9.9500000476837158e-01</minHitRate>
    <maxFalseAlarm>5.0000000000000000e-01</maxFalseAlarm>
    <weightTrimRate>9.4999998807907104e-01</weightTrimRate>
    <maxDepth>1</maxDepth>
    <maxWeakCount>100</maxWeakCount></stageParams>
  <featureParams>
    <maxCatCount>0</maxCatCount>
    <featSize>1</featSize>
    <mode>BASIC</mode></featureParams>
  <stageNum>20</stageNum>
  <stages>
    <!-- stage 0 -->
    <_>
      <maxWeakCount>9</maxWeakCount>
      <stageThreshold>-1.6874718666076660e+00</stageThreshold>
      <weakClassifiers>
        <_>
          <internalNodes>
            0 -1 122 1.5446292236447334e-02</internalNodes>
          <leafValues>
            -8.6219912767410278e-01 2.2857142984867096e-01</leafValues></_>
        <_>
          <internalNodes>
            0 -1 93 -9.9889867007732391e-02</internalNodes>
          <leafValues>
            7.9011559486389160e-02 -7.4793404340744019e-01</leafValues></_>
        <_>
          <internalNodes>
            0 -1 247 1.9926659297198057e-03</internalNodes>
          <leafValues>
            -4.0374544262886047e-01 5.8063560724258423e-01</leafValues></_>
        <_>
          <internalNodes>
            0 -1 42 -2.0041622221469879e-02</internalNodes>
          <leafValues>
            5.6839144229888916e-01 -3.0875158309936523e-01</leafValues></_>
        <_>
          <internalNodes>
            0 -1 127 -3.4060978796333075e-03</internalNodes>
          <leafValues>
            5.6188231706619263e-01 -2.2804024815559387e-01</leafValues></_>
        <_>
          <internalNodes>
            0 -1 180 -9.8299356177449226e-03</internalNodes>
          <leafValues>
            5.3560101985931396e-01 -2.4268902838230133e-01</leafValues></_>
        <_>
          <internalNodes>
            0 -1 155 -3.2074935734272003e-03</internalNodes>
          <leafValues>
            4.4904026389122009e-01 -3.0561807751655579e-01</leafValues></_>
        <_>
          <internalNodes>
            0 -1 237 -3.0365437269210815e-03</internalNodes>
          <leafValues>
            -6.9840723276138306e-01 2.2522151470184326e-01</leafValues></_>
        <_>
          <internalNodes>
            0 -1 120 6.0487282462418079e-03</internalNodes>
          <leafValues>
            -2.6161360740661621e-01 6.0367786884307861e-01</leafValues></_></weakClassifiers></_>
    <!-- stage 1 -->
    <_>
      <maxWeakCount>8</maxWeakCount>
      <stageThreshold>-1.8568136692047119e+00</stageThreshold>
      <weakClassifiers>
        <_>
          <internalNodes>
            0 -1 35 -9.2349782586097717e-02</internalNodes>
          <leafValues>
            -9.9009899422526360e-03 -8.6685824394226074e-01</leafValues></_>
        <_>
          <internalNodes>
            0 -1 138 -8.0853939056396484e-02</internalNodes>
          <leafValues>
            2.6111754775047302e-01 -5.9885507822036743e-01</leafValues></_>
        <_>
          <internalNodes>
            0 -1 103 -6.0352306813001633e-02</internalNodes>
          <leafValues>
            7.0792645215988159e-01 -2.3379792273044586e-01</leafValues></_>
        <_>
          <internalNodes>
            0 -1 72 -4.2297415435314178e-02</internalNodes>
          <leafValues>
            6.6225475072860718e-01 -1.9174231588840485e-01</leafValues></_>
        <_>
          <internalNodes>
            0 -1 118 2.5500245392322540e-02</internalNodes>
          <leafValues>
            1.9522699713706970e-01 -8.4172052145004272e-01</leafValues></_>
        <_>
          <internalNodes>
            0 -1 260 -7.9370744060724974e-04</internalNodes>
          <leafValues>
            -4.6047300100326538e-01 3.1466412544250488e-01</leafValues></_>
        <_>
          <internalNodes>
            0 -1 25 -2.4114169180393219e-02</internalNodes>
          <leafValues>
            5.3424406051635742e-01 -2.4749726057052612e-01</leafValues></_>
        <_>
          <internalNodes>
            0 -1 78 -1.7636958509683609e-02</internalNodes>
          <leafValues>
            5.5969506502151489e-01 -2.2795392572879791e-01</leafValues></_></weakClassifiers></_>
    <!-- stage 2 -->
    <_>
      <maxWeakCount>9</maxWeakCount>
      <stageThreshold>-1.7560724020004272e+00</stageThreshold>
      <weakClassifiers>
        <_>
          <internalNodes>
            0 -1 12 -3.1914347410202026e-01</internalNodes>
          <leafValues>
            -4.4481605291366577e-01 -8.8783067464828491e-01</leafValues></_>
        <_>
          <internalNodes>
            0 -1 195 -4.8011988401412964e-02</internalNodes>
          <leafValues>
            9.7314380109310150e-02 -5.5491596460342407e-01</leafValues></_>
        <_>
          <internalNodes>
            0 -1 173 -1.3939738273620605e-03</internalNodes>
          <leafValues>
            -7.5670868158340454e-01 9.1685242950916290e-02</leafValues></_>
        <_>
          <internalNodes>
            0 -1 175 8.7467941921204329e-04</internalNodes>
          <leafValues>
            2.0560126006603241e-01 -6.7286920547485352e-01</leafValues></_>
        <_>
          <internalNodes>
            0 -1 8 -2.7457737922668457e-01</internalNodes>
          <leafValues>
            -6.4999145269393921e-01 1.0494562983512878e-01</leafValues></_>
        <_>
          <internalNodes>
            0 -1 269 -1.8778665689751506e-03</internalNodes>
          <leafValues>
            -8.2567805051803589e-01 1.3228313624858856e-01</leafValues></_>
        <_>
          <internalNodes>
            0 -1 262 3.6898414691677317e-05</internalNodes>
          <leafValues>
            -3.6239135265350342e-01 2.9863482713699341e-01</leafValues></_>
        <_>
          <internalNodes>
            0 -1 47 1.7267869785428047e-02</internalNodes>
          <leafValues>
            1.6930037736892700e-01 -5.8883124589920044e-01</leafValues></_>
        <_>
          <internalNodes>
            0 -1 223 1.2091357348253950e-05</internalNodes>
          <leafValues>
            -3.0624961853027344e-01 3.2082587480545044e-01</leafValues></_></weakClassifiers></_>
    <!-- stage 3 -->
    <_>
      <maxWeakCount>10</maxWeakCount>
      <stageThreshold>-2.0133359432220459e+00</stageThreshold>
      <weakClassifiers>
        <_>
          <internalNodes>
            0 -1 19 -5.7427906990051270e-01</internalNodes>
          <leafValues>
            6.1224490404129028e-02 -8.4766352176666260e-01</leafValues></_>
        <_>
          <internalNodes>
            0 -1 69 -3.1903240596875548e-05</internalNodes>
          <leafValues>
            -1.4547988772392273e-02 -6.1528283357620239e-01</leafValues></_>
        <_>
          <internalNodes>
            0 -1 188 7.2067207656800747e-04</internalNodes>
          <leafValues>
            1.0679666697978973e-01 -7.1837735176086426e-01</leafValues></_>
        <_>
          <internalNodes>
            0 -1 183 1.3086916624160949e-05</internalNodes>
          <leafValues>
            -2.9774045944213867e-01 3.5178232192993164e-01</leafValues></_>
        <_>
          <internalNodes>
            0 -1 97 -1.1949233339692000e-05</internalNodes>
          <leafValues>
            3.5522148013114929e-01 -2.7443927526473999e-01</leafValues></_>
        <_>
          <internalNodes>
            0 -1 213 -1.4458424629992805e-05</internalNodes>
          <leafValues>
            2.9088082909584045e-01 -3.1381016969680786e-01</leafValues></_>
        <_>
          <internalNodes>
            0 -1 271 -1.2459526769816875e-03</internalNodes>
          <leafValues>
            -9.8466426134109497e-01 7.5139328837394714e-02</leafValues></_>
        <_>
          <internalNodes>
            0 -1 224 -1.5457544577657245e-05</internalNodes>
          <leafValues>
            2.3111051321029663e-01 -3.4567680954933167e-01</leafValues></_>
        <_>
          <internalNodes>
            0 -1 36 5.3018814651295543e-04</internalNodes>
          <leafValues>
            1.1538363993167877e-01 -6.2207311391830444e-01</leafValues></_>
        <_>
          <internalNodes>
            0 -1 152 -6.8468009121716022e-03</internalNodes>
          <leafValues>
            5.2500826120376587e-01 -1.5776938199996948e-01</leafValues></_></weakClassifiers></_>
    <!-- stage 4 -->
    <_>
      <maxWeakCount>10</maxWeakCount>
      <stageThreshold>-1.8136036396026611e+00</stageThreshold>
      <weakClassifiers>
        <_>
          <internalNodes>
            0 -1 17 -1.5592816472053528e-01</internalNodes>
          <leafValues>
            -5.4787236452102661e-01 -8.8527303934097290e-01</leafValues></_>
        <_>
          <internalNodes>
            0 -1 88 -5.3990490734577179e-02</internalNodes>
          <leafValues>
            1.9021780788898468e-01 -4.9184530973434448e-01</leafValues></_>
        <_>
          <internalNodes>
            0 -1 164 -1.9597839564085007e-02</internalNodes>
          <leafValues>
            3.9712989330291748e-01 -2.5028073787689209e-01</leafValues></_>
        <_>
          <internalNodes>
            0 -1 31 -1.2181190401315689e-01</internalNodes>
          <leafValues>
            3.2754018902778625e-01 -2.7677929401397705e-01</leafValues></_>
        <_>
          <internalNodes>
            0 -1 18 1.8654662370681763e-01</internalNodes>
          <leafValues>
            -1.5768204629421234e-01 6.4959633350372314e-01</leafValues></_>
        <_>
          <internalNodes>
            0 -1 91 -5.2159368991851807e-02</internalNodes>
          <leafValues>
            5.6456053256988525e-01 -1.4608204364776611e-01</leafValues></_>
        <_>
          <internalNodes>
            0 -1 139 -1.0368112270953134e-05</internalNodes>
          <leafValues>
            3.2338428497314453e-01 -2.6686769723892212e-01</leafValues></_>
        <_>
          <internalNodes>
            0 -1 58 -5.0213874783366919e-04</internalNodes>
          <leafValues>
            -6.9568192958831787e-01 1.6924984753131866e-01</leafValues></_>
        <_>
          <internalNodes>
            0 -1 231 -1.4068135060369968e-03</internalNodes>
          <leafValues>
            2.9397413134574890e-01 -3.2504516839981079e-01</leafValues></_>
        <_>
          <internalNodes>
            0 -1 116 7.8144832514226437e-04</internalNodes>
          <leafValues>
            1.9798260927200317e-01 -5.2004945278167725e-01</leafValues></_></weakClassifiers></_>
    <!-- stage 5 -->
    <_>
      <maxWeakCount>13</maxWeakCount>
      <stageThreshold>-1.9688167572021484e+00</stageThreshold>
      <weakClassifiers>
        <_>
          <internalNodes>
            0 -1 144 5.4365463554859161e-02</internalNodes>
          <leafValues>
            -8.5052031278610229e-01 -1.7333333194255829e-01</leafValues></_>
        <_>
          <internalNodes>
            0 -1 174 1.1949233339692000e-05</internalNodes>
          <leafValues>
            -5.8890181779861450e-01 -5.2101872861385345e-03</leafValues></_>
        <_>
          <internalNodes>
            0 -1 200 -1.1949630788876675e-05</internalNodes>
          <leafValues>
            3.0088508129119873e-01 -3.0439427495002747e-01</leafValues></_>
        <_>
          <internalNodes>
            0 -1 131 2.7837825473397970e-04</internalNodes>
          <leafValues>
            1.6223910450935364e-01 -5.7046407461166382e-01</leafValues></_>
        <_>
          <internalNodes>
            0 -1 131 -5.3679675329476595e-04</internalNodes>
          <leafValues>
            -6.0681575536727905e-01 1.8369786441326141e-01</leafValues></_>
        <_>
          <internalNodes>
            0 -1 112 2.6656487025320530e-03</internalNodes>
          <leafValues>
            -2.5694787502288818e-01 3.5951212048530579e-01</leafValues></_>
        <_>
          <internalNodes>
            0 -1 111 -9.5951734110713005e-03</internalNodes>
          <leafValues>
            5.1457482576370239e-01 -1.7781174182891846e-01</leafValues></_>
        <_>
          <internalNodes>
            0 -1 184 1.3750263860856649e-05</internalNodes>
          <leafValues>
            -2.8427883982658386e-01 3.0950030684471130e-01</leafValues></_>
        <_>
          <internalNodes>
            0 -1 51 1.0231358557939529e-01</internalNodes>
          <leafValues>
            -1.7077857255935669e-01 5.1419132947921753e-01</leafValues></_>
        <_>
          <internalNodes>
            0 -1 211 9.4394505023956299e-02</internalNodes>
          <leafValues>
            -2.3741608858108521e-01 4.2139816284179688e-01</leafValues></_>
        <_>
          <internalNodes>
            0 -1 20 7.5749501585960388e-02</internalNodes>
          <leafValues>
            2.3202022910118103e-01 -3.8676664233207703e-01</leafValues></_>
        <_>
          <internalNodes>
            0 -1 57 -6.6408549901098013e-04</internalNodes>
          <leafValues>
            -7.5926756858825684e-01 1.0236200690269470e-01</leafValues></_>
        <_>
          <internalNodes>
            0 -1 143 -6.1883783200755715e-04</internalNodes>
          <leafValues>
            3.6712050437927246e-01 -2.5417548418045044e-01</leafValues></_></weakClassifiers></_>
    <!-- stage 6 -->
    <_>
      <maxWeakCount>15</maxWeakCount>
      <stageThreshold>-1.8303292989730835e+00</stageThreshold>
      <weakClassifiers>
        <_>
          <internalNodes>
            0 -1 101 1.3414476811885834e-01</internalNodes>
          <leafValues>
            -8.3471071720123291e-01 6.3636362552642822e-01</leafValues></_>
        <_>
          <internalNodes>
            0 -1 26 -2.6542451232671738e-02</internalNodes>
          <leafValues>
            3.7156254053115845e-02 -5.1322102546691895e-01</leafValues></_>
        <_>
          <internalNodes>
            0 -1 104 -9.8020590841770172e-02</internalNodes>
          <leafValues>
            3.1149932742118835e-01 -2.5551453232765198e-01</leafValues></_>
        <_>
          <internalNodes>
            0 -1 168 -2.9262918978929520e-03</internalNodes>
          <leafValues>
            4.2384549975395203e-01 -1.8433496356010437e-01</leafValues></_>
        <_>
          <internalNodes>
            0 -1 22 -2.2967169061303139e-03</internalNodes>
          <leafValues>
            -3.2846969366073608e-01 2.4548286199569702e-01</leafValues></_>
        <_>
          <internalNodes>
            0 -1 16 1.9266307353973389e-02</internalNodes>
          <leafValues>
            -1.9592462480068207e-01 4.1316124796867371e-01</leafValues></_>
        <_>
          <internalNodes>
            0 -1 193 3.2678937714081258e-05</internalNodes>
          <leafValues>
            -2.1077495813369751e-01 3.9260697364807129e-01</leafValues></_>
        <_>
          <internalNodes>
            0 -1 196 -1.2605519259523135e-05</internalNodes>
          <leafValues>
            3.2165428996086121e-01 -2.3414714634418488e-01</leafValues></_>
        <_>
          <internalNodes>
            0 -1 225 -1.2414334341883659e-03</internalNodes>
          <leafValues>
            -6.7294079065322876e-01 1.0412582010030746e-01</leafValues></_>
        <_>
          <internalNodes>
            0 -1 185 1.2265415534784552e-05</internalNodes>
          <leafValues>
            -2.7928826212882996e-01 3.0294421315193176e-01</leafValues></_>
        <_>
          <internalNodes>
            0 -1 145 -4.5809084549546242e-03</internalNodes>
          <leafValues>
            4.7934654355049133e-01 -1.5238499641418457e-01</leafValues></_>
        <_>
          <internalNodes>
            0 -1 198 -2.7403976768255234e-02</internalNodes>
          <leafValues>
            3.3492165803909302e-01 -2.3513509333133698e-01</leafValues></_>
        <_>
          <internalNodes>
            0 -1 95 -7.9640699550509453e-04</internalNodes>
          <leafValues>
            5.1629698276519775e-01 -1.4596225321292877e-01</leafValues></_>
        <_>
          <internalNodes>
            0 -1 186 -2.0547183230519295e-03</internalNodes>
          <leafValues>
            3.6400768160820007e-01 -2.1126836538314819e-01</leafValues></_>
        <_>
          <internalNodes>
            0 -1 129 -4.8802420496940613e-03</internalNodes>
          <leafValues>
            -5.6292611360549927e-01 1.4707563817501068e-01</leafValues></_></weakClassifiers></_>
    <!-- stage 7 -->
    <_>
      <maxWeakCount>12</maxWeakCount>
      <stageThreshold>-1.8993028402328491e+00</stageThreshold>
      <weakClassifiers>
        <_>
          <internalNodes>
            0 -1 119 -2.4556975404266268e-05</internalNodes>
          <leafValues>
            -6.2007170915603638e-01 -8.9822196960449219e-01</leafValues></_>
        <_>
          <internalNodes>
            0 -1 159 -1.4458424629992805e-05</internalNodes>
          <leafValues>
            -2.0758369937539101e-02 -6.3166511058807373e-01</leafValues></_>
        <_>
          <internalNodes>
            0 -1 264 -2.9242202799650840e-05</internalNodes>
          <leafValues>
            3.0996954441070557e-01 -3.1505283713340759e-01</leafValues></_>
        <_>
          <internalNodes>
            0 -1 137 -1.0368112270953134e-05</internalNodes>
          <leafValues>
            3.3179387450218201e-01 -2.7074605226516724e-01</leafValues></_>
        <_>
          <internalNodes>
            0 -1 205 -3.7818725104443729e-05</internalNodes>
          <leafValues>
            2.9160866141319275e-01 -2.8743052482604980e-01</leafValues></_>
        <_>
          <internalNodes>
            0 -1 53 -1.3791732490062714e-02</internalNodes>
          <leafValues>
            3.5372719168663025e-01 -2.1269343793392181e-01</leafValues></_>
        <_>
          <internalNodes>
            0 -1 13 1.9669644534587860e-02</internalNodes>
          <leafValues>
            2.3249039053916931e-01 -3.5908594727516174e-01</leafValues></_>
        <_>
          <internalNodes>
            0 -1 209 -1.4152316376566887e-02</internalNodes>
          <leafValues>
            1.5536597371101379e-01 -5.0156915187835693e-01</leafValues></_>
        <_>
          <internalNodes>
            0 -1 199 1.2858050467912108e-05</internalNodes>
          <leafValues>
            -1.9545832276344299e-01 4.0604600310325623e-01</leafValues></_>
        <_>
          <internalNodes>
            0 -1 176 -4.4277054257690907e-04</internalNodes>
          <leafValues>
            -6.9117701053619385e-01 1.1443206667900085e-01</leafValues></_>
        <_>
          <internalNodes>
            0 -1 63 -1.7074912786483765e-02</internalNodes>
          <leafValues>
            3.2990616559982300e-01 -2.4200965464115143e-01</leafValues></_>
        <_>
          <internalNodes>
            0 -1 40 1.0596022475510836e-03</internalNodes>
          <leafValues>
            1.1717868596315384e-01 -6.5538907051086426e-01</leafValues></_></weakClassifiers></_>
    <!-- stage 8 -->
    <_>
      <maxWeakCount>13</maxWeakCount>
      <stageThreshold>-1.7336893081665039e+00</stageThreshold>
      <weakClassifiers>
        <_>
          <internalNodes>
            0 -1 117 -1.0494284331798553e-02</internalNodes>
          <leafValues>
            -2.2222222387790680e-01 -8.5326343774795532e-01</leafValues></_>
        <_>
          <internalNodes>
            0 -1 113 1.3726650649914518e-05</internalNodes>
          <leafValues>
            -5.5220925807952881e-01 -7.5836107134819031e-03</leafValues></_>
        <_>
          <internalNodes>
            0 -1 113 -2.3226428311318159e-05</internalNodes>
          <leafValues>
            3.0500686168670654e-01 -2.7526289224624634e-01</leafValues></_>
        <_>
          <internalNodes>
            0 -1 190 -7.2301412001252174e-04</internalNodes>
          <leafValues>
            4.2144477367401123e-01 -1.9833497703075409e-01</leafValues></_>
        <_>
          <internalNodes>
            0 -1 170 -8.9113255962729454e-03</internalNodes>
          <leafValues>
            -6.6729772090911865e-01 1.2006472051143646e-01</leafValues></_>
        <_>
          <internalNodes>
            0 -1 172 -1.4312084203993436e-05</internalNodes>
          <leafValues>
            2.9738426208496094e-01 -3.0699235200881958e-01</leafValues></_>
        <_>
          <internalNodes>
            0 -1 6 -1.0569493751972914e-03</internalNodes>
          <leafValues>
            -5.5228459835052490e-01 9.1910481452941895e-02</leafValues></_>
        <_>
          <internalNodes>
            0 -1 154 -5.5437406990677118e-04</internalNodes>
          <leafValues>
            3.5944274067878723e-01 -1.9184717535972595e-01</leafValues></_>
        <_>
          <internalNodes>
            0 -1 192 -2.9519473173422739e-05</internalNodes>
          <leafValues>
            3.1841406226158142e-01 -2.5190514326095581e-01</leafValues></_>
        <_>
          <internalNodes>
            0 -1 108 -7.7398484572768211e-03</internalNodes>
          <leafValues>
            3.6671915650367737e-01 -2.1359562873840332e-01</leafValues></_>
        <_>
          <internalNodes>
            0 -1 136 -5.8567514643073082e-03</internalNodes>
          <leafValues>
            4.8465767502784729e-01 -1.4375342428684235e-01</leafValues></_>
        <_>
          <internalNodes>
            0 -1 156 -8.2558864960446954e-05</internalNodes>
          <leafValues>
            2.7186754345893860e-01 -2.8253319859504700e-01</leafValues></_>
        <_>
          <internalNodes>
            0 -1 110 -5.3810989484190941e-03</internalNodes>
          <leafValues>
            4.7456678748130798e-01 -1.6232678294181824e-01</leafValues></_></weakClassifiers></_>
    <!-- stage 9 -->
    <_>
      <maxWeakCount>11</maxWeakCount>
      <stageThreshold>-1.7507284879684448e+00</stageThreshold>
      <weakClassifiers>
        <_>
          <internalNodes>
            0 -1 160 6.4775198698043823e-02</internalNodes>
          <leafValues>
            -8.3801198005676270e-01 6.2500000000000000e-01</leafValues></_>
        <_>
          <internalNodes>
            0 -1 92 -1.3292294740676880e-01</internalNodes>
          <leafValues>
            -4.9425143748521805e-02 -6.1669880151748657e-01</leafValues></_>
        <_>
          <internalNodes>
            0 -1 161 -5.6012137793004513e-04</internalNodes>
          <leafValues>
            -6.4144438505172729e-01 7.7997550368309021e-02</leafValues></_>
        <_>
          <internalNodes>
            0 -1 255 -4.4663122389465570e-04</internalNodes>
          <leafValues>
            -4.7461479902267456e-01 1.5011054277420044e-01</leafValues></_>
        <_>
          <internalNodes>
            0 -1 162 -2.2024504840373993e-02</internalNodes>
          <leafValues>
            4.0538799762725830e-01 -2.1832174062728882e-01</leafValues></_>
        <_>
          <internalNodes>
            0 -1 107 -2.6493400800973177e-03</internalNodes>
          <leafValues>
            3.1356653571128845e-01 -2.8721493482589722e-01</leafValues></_>
        <_>
          <internalNodes>
            0 -1 50 1.9641876220703125e-02</internalNodes>
          <leafValues>
            -1.5868529677391052e-01 5.0192004442214966e-01</leafValues></_>
        <_>
          <internalNodes>
            0 -1 27 -7.0768147706985474e-02</internalNodes>
          <leafValues>
            3.6876377463340759e-01 -2.2323247790336609e-01</leafValues></_>
        <_>
          <internalNodes>
            0 -1 146 -1.8159914179705083e-04</internalNodes>
          <leafValues>
            -4.2007708549499512e-01 1.8606540560722351e-01</leafValues></_>
        <_>
          <internalNodes>
            0 -1 4 -2.9604804515838623e-01</internalNodes>
          <leafValues>
            -1. 7.7980645000934601e-02</leafValues></_>
        <_>
          <internalNodes>
            0 -1 246 1.9069132395088673e-03</internalNodes>
          <leafValues>
            1.2900948524475098e-01 -4.8735275864601135e-01</leafValues></_></weakClassifiers></_>
    <!-- stage 10 -->
    <_>
      <maxWeakCount>9</maxWeakCount>
      <stageThreshold>-1.8181859254837036e+00</stageThreshold>
      <weakClassifiers>
        <_>
          <internalNodes>
            0 -1 60 -3.2526817917823792e-01</internalNodes>
          <leafValues>
            -5.7539683580398560e-01 -9.0267062187194824e-01</leafValues></_>
        <_>
          <internalNodes>
            0 -1 48 -1.2325581163167953e-02</internalNodes>
          <leafValues>
            2.1304801106452942e-01 -4.9115055799484253e-01</leafValues></_>
        <_>
          <internalNodes>
            0 -1 270 6.3541613053530455e-04</internalNodes>
          <leafValues>
            1.0606550425291061e-01 -7.1734184026718140e-01</leafValues></_>
        <_>
          <internalNodes>
            0 -1 254 -2.0614094100892544e-03</internalNodes>
          <leafValues>
            -7.8047800064086914e-01 1.4977374672889709e-01</leafValues></_>
        <_>
          <internalNodes>
            0 -1 46 2.8038068558089435e-04</internalNodes>
          <leafValues>
            1.2123253941535950e-01 -6.1370265483856201e-01</leafValues></_>
        <_>
          <internalNodes>
            0 -1 3 9.6249073743820190e-02</internalNodes>
          <leafValues>
            7.0753283798694611e-02 -8.9785450696945190e-01</leafValues></_>
        <_>
          <internalNodes>
            0 -1 266 -1.2106685899198055e-03</internalNodes>
          <leafValues>
            -4.7911131381988525e-01 1.6086827218532562e-01</leafValues></_>
        <_>
          <internalNodes>
            0 -1 102 2.2589229047298431e-02</internalNodes>
          <leafValues>
            1.0381714254617691e-01 -7.6334035396575928e-01</leafValues></_>
        <_>
          <internalNodes>
            0 -1 228 2.5733552873134613e-02</internalNodes>
          <leafValues>
            7.6683215796947479e-02 -8.2416945695877075e-01</leafValues></_></weakClassifiers></_>
    <!-- stage 11 -->
    <_>
      <maxWeakCount>15</maxWeakCount>
      <stageThreshold>-1.7168926000595093e+00</stageThreshold>
      <weakClassifiers>
        <_>
          <internalNodes>
            0 -1 259 2.0641963928937912e-02</internalNodes>
          <leafValues>
            -8.4359091520309448e-01 4.2857143282890320e-01</leafValues></_>
        <_>
          <internalNodes>
            0 -1 128 -6.4073773100972176e-03</internalNodes>
          <leafValues>
            2.9322654008865356e-01 -4.6461033821105957e-01</leafValues></_>
        <_>
          <internalNodes>
            0 -1 38 -8.1805262016132474e-04</internalNodes>
          <leafValues>
            -4.3397349119186401e-01 1.3554872572422028e-01</leafValues></_>
        <_>
          <internalNodes>
            0 -1 232 4.4208597391843796e-03</internalNodes>
          <leafValues>
            -1.8542662262916565e-01 3.9859247207641602e-01</leafValues></_>
        <_>
          <internalNodes>
            0 -1 244 6.2734924722462893e-04</internalNodes>
          <leafValues>
            1.1783412843942642e-01 -6.2782782316207886e-01</leafValues></_>
        <_>
          <internalNodes>
            0 -1 39 -2.8904207283630967e-04</internalNodes>
          <leafValues>
            -3.5431942343711853e-01 2.2487969696521759e-01</leafValues></_>
        <_>
          <internalNodes>
            0 -1 142 -5.6198555976152420e-03</internalNodes>
          <leafValues>
            4.1040819883346558e-01 -1.6486796736717224e-01</leafValues></_>
        <_>
          <internalNodes>
            0 -1 43 -3.4485571086406708e-03</internalNodes>
          <leafValues>
            -5.6375384330749512e-01 1.2968327105045319e-01</leafValues></_>
        <_>
          <internalNodes>
            0 -1 37 -1.2246941030025482e-01</internalNodes>
          <leafValues>
            4.6541050076484680e-01 -1.7390379309654236e-01</leafValues></_>
        <_>
          <internalNodes>
            0 -1 125 -1.7021559178829193e-03</internalNodes>
          <leafValues>
            4.0257132053375244e-01 -1.7550791800022125e-01</leafValues></_>
        <_>
          <internalNodes>
            0 -1 153 -3.2399008050560951e-03</internalNodes>
          <leafValues>
            3.4195539355278015e-01 -1.8252299726009369e-01</leafValues></_>
        <_>
          <internalNodes>
            0 -1 68 -5.0396438688039780e-02</internalNodes>
          <leafValues>
            5.7104301452636719e-01 -1.0901626199483871e-01</leafValues></_>
        <_>
          <internalNodes>
            0 -1 64 -1.8608326092362404e-02</internalNodes>
          <leafValues>
            1.2240596115589142e-01 -5.4269433021545410e-01</leafValues></_>
        <_>
          <internalNodes>
            0 -1 114 -9.1215837746858597e-03</internalNodes>
          <leafValues>
            4.7682246565818787e-01 -1.3267923891544342e-01</leafValues></_>
        <_>
          <internalNodes>
            0 -1 267 -3.5419763298705220e-04</internalNodes>
          <leafValues>
            -5.4302591085433960e-01 1.2550359964370728e-01</leafValues></_></weakClassifiers></_>
    <!-- stage 12 -->
    <_>
      <maxWeakCount>18</maxWeakCount>
      <stageThreshold>-1.8382759094238281e+00</stageThreshold>
      <weakClassifiers>
        <_>
          <internalNodes>
            0 -1 258 2.6426210999488831e-02</internalNodes>
          <leafValues>
            -8.3547794818878174e-01 5.3846156597137451e-01</leafValues></_>
        <_>
          <internalNodes>
            0 -1 67 -5.5833002552390099e-03</internalNodes>
          <leafValues>
            1.3756199181079865e-01 -4.7390913963317871e-01</leafValues></_>
        <_>
          <internalNodes>
            0 -1 132 -1.7107275128364563e-01</internalNodes>
          <leafValues>
            -9.1681891679763794e-01 4.1351567953824997e-02</leafValues></_>
        <_>
          <internalNodes>
            0 -1 76 -8.5304901003837585e-03</internalNodes>
          <leafValues>
            4.0446397662162781e-01 -1.4061713218688965e-01</leafValues></_>
        <_>
          <internalNodes>
            0 -1 109 -1.4372763037681580e-01</internalNodes>
          <leafValues>
            3.8388541340827942e-01 -1.6172219812870026e-01</leafValues></_>
        <_>
          <internalNodes>
            0 -1 220 -2.9176946554798633e-05</internalNodes>
          <leafValues>
            2.2614601254463196e-01 -2.6650774478912354e-01</leafValues></_>
        <_>
          <internalNodes>
            0 -1 233 -1.7483771080151200e-04</internalNodes>
          <leafValues>
            -3.8084244728088379e-01 1.4982216060161591e-01</leafValues></_>
        <_>
          <internalNodes>
            0 -1 151 -4.7150547616183758e-03</internalNodes>
          <leafValues>
            -9.3665951490402222e-01 8.0190472304821014e-02</leafValues></_>
        <_>
          <internalNodes>
            0 -1 81 1.4211729168891907e-02</internalNodes>
          <leafValues>
            -1.5654121339321136e-01 4.0943032503128052e-01</leafValues></_>
        <_>
          <internalNodes>
            0 -1 30 1.3370258733630180e-02</internalNodes>
          <leafValues>
            -1.2596410512924194e-01 4.0591537952423096e-01</leafValues></_>
        <_>
          <internalNodes>
            0 -1 28 2.0002540200948715e-02</internalNodes>
          <leafValues>
            -1.4539106190204620e-01 3.9134484529495239e-01</leafValues></_>
        <_>
          <internalNodes>
            0 -1 161 2.2493596770800650e-04</internalNodes>
          <leafValues>
            1.3697612285614014e-01 -4.5174223184585571e-01</leafValues></_>
        <_>
          <internalNodes>
            0 -1 215 -2.3388694971799850e-03</internalNodes>
          <leafValues>
            2.4035800993442535e-01 -2.4434517323970795e-01</leafValues></_>
        <_>
          <internalNodes>
            0 -1 252 -1.0099948849529028e-03</internalNodes>
          <leafValues>
            -5.9567809104919434e-01 9.7152918577194214e-02</leafValues></_>
        <_>
          <internalNodes>
            0 -1 234 1.3085721060633659e-02</internalNodes>
          <leafValues>
            -1.3802890479564667e-01 3.9808490872383118e-01</leafValues></_>
        <_>
          <internalNodes>
            0 -1 221 -2.3703675833530724e-04</internalNodes>
          <leafValues>
            2.5825083255767822e-01 -2.0042258501052856e-01</leafValues></_>
        <_>
          <internalNodes>
            0 -1 36 -6.1354634817689657e-04</internalNodes>
          <leafValues>
            -4.5573741197586060e-01 1.1858882009983063e-01</leafValues></_>
        <_>
          <internalNodes>
            0 -1 169 -6.5715005621314049e-04</internalNodes>
          <leafValues>
            3.1419870257377625e-01 -1.8487456440925598e-01</leafValues></_></weakClassifiers></_>
    <!-- stage 13 -->
    <_>
      <maxWeakCount>15</maxWeakCount>
      <stageThreshold>-1.6854647397994995e+00</stageThreshold>
      <weakClassifiers>
        <_>
          <internalNodes>
            0 -1 212 9.3631438910961151e-02</internalNodes>
          <leafValues>
            -8.8426762819290161e-01 -6.4905661344528198e-01</leafValues></_>
        <_>
          <internalNodes>
            0 -1 10 3.8161069824127480e-05</internalNodes>
          <leafValues>
            -1.6881258785724640e-01 -6.4930576086044312e-01</leafValues></_>
        <_>
          <internalNodes>
            0 -1 115 -2.4478349834680557e-02</internalNodes>
          <leafValues>
            2.1452429890632629e-01 -3.2007312774658203e-01</leafValues></_>
        <_>
          <internalNodes>
            0 -1 134 -2.2154325619339943e-02</internalNodes>
          <leafValues>
            3.8679167628288269e-01 -1.4137874543666840e-01</leafValues></_>
        <_>
          <internalNodes>
            0 -1 90 1.0359112918376923e-01</internalNodes>
          <leafValues>
            -1.2735353410243988e-01 4.4431066513061523e-01</leafValues></_>
        <_>
          <internalNodes>
            0 -1 33 -1.1627703905105591e-02</internalNodes>
          <leafValues>
            4.0034726262092590e-01 -1.1278037726879120e-01</leafValues></_>
        <_>
          <internalNodes>
            0 -1 56 6.3979495316743851e-03</internalNodes>
          <leafValues>
            -1.7641495168209076e-01 3.3631736040115356e-01</leafValues></_>
        <_>
          <internalNodes>
            0 -1 106 -6.7007638514041901e-02</internalNodes>
          <leafValues>
            2.6204732060432434e-01 -2.2936528921127319e-01</leafValues></_>
        <_>
          <internalNodes>
            0 -1 82 -3.4671880304813385e-02</internalNodes>
          <leafValues>
            -7.1598470211029053e-01 8.9986070990562439e-02</leafValues></_>
        <_>
          <internalNodes>
            0 -1 208 1.9351002993062139e-03</internalNodes>
          <leafValues>
            -2.0759956538677216e-01 2.6279839873313904e-01</leafValues></_>
        <_>
          <internalNodes>
            0 -1 59 9.2381308786571026e-04</internalNodes>
          <leafValues>
            8.6122639477252960e-02 -7.3430478572845459e-01</leafValues></_>
        <_>
          <internalNodes>
            0 -1 41 1.8875992391258478e-03</internalNodes>
          <leafValues>
            -1.9554521143436432e-01 3.2829886674880981e-01</leafValues></_>
        <_>
          <internalNodes>
            0 -1 44 -1.0287610813975334e-02</internalNodes>
          <leafValues>
            3.4635758399963379e-01 -1.5639260411262512e-01</leafValues></_>
        <_>
          <internalNodes>
            0 -1 257 2.8225931600900367e-05</internalNodes>
          <leafValues>
            1.8536126613616943e-01 -3.1396245956420898e-01</leafValues></_>
        <_>
          <internalNodes>
            0 -1 167 -1.4936800580471754e-03</internalNodes>
          <leafValues>
            2.2804386913776398e-01 -2.4942667782306671e-01</leafValues></_></weakClassifiers></_>
    <!-- stage 14 -->
    <_>
      <maxWeakCount>16</maxWeakCount>
      <stageThreshold>-1.5891309976577759e+00</stageThreshold>
      <weakClassifiers>
        <_>
          <internalNodes>
            0 -1 130 -1.2726766988635063e-02</internalNodes>
          <leafValues>
            2.9411765933036804e-01 -8.3609575033187866e-01</leafValues></_>
        <_>
          <internalNodes>
            0 -1 207 9.9420174956321716e-02</internalNodes>
          <leafValues>
            -5.2284020185470581e-01 1.5340924263000488e-02</leafValues></_>
        <_>
          <internalNodes>
            0 -1 256 1.9072638824582100e-03</internalNodes>
          <leafValues>
            5.2875731140375137e-02 -5.3834915161132813e-01</leafValues></_>
        <_>
          <internalNodes>
            0 -1 235 -2.4259854108095169e-02</internalNodes>
          <leafValues>
            -8.5334873199462891e-01 8.5144959390163422e-02</leafValues></_>
        <_>
          <internalNodes>
            0 -1 178 -8.0756098031997681e-03</internalNodes>
          <leafValues>
            -7.2671598196029663e-01 2.6106141507625580e-02</leafValues></_>
        <_>
          <internalNodes>
            0 -1 52 4.2361137457191944e-03</internalNodes>
          <leafValues>
            -6.6474333405494690e-02 5.8232539892196655e-01</leafValues></_>
        <_>
          <internalNodes>
            0 -1 11 1.5656331554055214e-02</internalNodes>
          <leafValues>
            7.4515476822853088e-02 -6.2756925821304321e-01</leafValues></_>
        <_>
          <internalNodes>
            0 -1 75 6.3444569241255522e-04</internalNodes>
          <leafValues>
            -1.5436768531799316e-01 3.3045727014541626e-01</leafValues></_>
        <_>
          <internalNodes>
            0 -1 85 -3.3724387176334858e-03</internalNodes>
          <leafValues>
            2.6020711660385132e-01 -1.8774642050266266e-01</leafValues></_>
        <_>
          <internalNodes>
            0 -1 242 -4.4649513438344002e-03</internalNodes>
          <leafValues>
            -8.3357453346252441e-01 5.4000135511159897e-02</leafValues></_>
        <_>
          <internalNodes>
            0 -1 171 -3.5452749580144882e-03</internalNodes>
          <leafValues>
            3.1798052787780762e-01 -1.7273700237274170e-01</leafValues></_>
        <_>
          <internalNodes>
            0 -1 54 -7.8175321221351624e-02</internalNodes>
          <leafValues>
            3.4804338216781616e-01 -1.3124628365039825e-01</leafValues></_>
        <_>
          <internalNodes>
            0 -1 74 1.2487437343224883e-03</internalNodes>
          <leafValues>
            -1.3434487581253052e-01 3.6235216259956360e-01</leafValues></_>
        <_>
          <internalNodes>
            0 -1 96 -1.8899904098361731e-03</internalNodes>
          <leafValues>
            3.2531788945198059e-01 -1.6987445950508118e-01</leafValues></_>
        <_>
          <internalNodes>
            0 -1 21 -5.5066272616386414e-03</internalNodes>
          <leafValues>
            -8.9848518371582031e-01 5.1737509667873383e-02</leafValues></_>
        <_>
          <internalNodes>
            0 -1 238 -8.6344385636039078e-05</internalNodes>
          <leafValues>
            -2.9109594225883484e-01 1.4178559184074402e-01</leafValues></_></weakClassifiers></_>
    <!-- stage 15 -->
    <_>
      <maxWeakCount>18</maxWeakCount>
      <stageThreshold>-1.7160854339599609e+00</stageThreshold>
      <weakClassifiers>
        <_>
          <internalNodes>
            0 -1 140 1.9906666874885559e-01</internalNodes>
          <leafValues>
            -8.3150184154510498e-01 1.</leafValues></_>
        <_>
          <internalNodes>
            0 -1 15 -8.6831584572792053e-02</internalNodes>
          <leafValues>
            -1.3989721238613129e-01 -5.2726256847381592e-01</leafValues></_>
        <_>
          <internalNodes>
            0 -1 100 -5.8051629457622766e-04</internalNodes>
          <leafValues>
            -5.2596855163574219e-01 4.9567539244890213e-02</leafValues></_>
        <_>
          <internalNodes>
            0 -1 261 -3.3837853698059916e-04</internalNodes>
          <leafValues>
            2.2762136161327362e-01 -1.8319751322269440e-01</leafValues></_>
        <_>
          <internalNodes>
            0 -1 229 -1.1646077036857605e-03</internalNodes>
          <leafValues>
            3.9412444829940796e-01 -9.4485454261302948e-02</leafValues></_>
        <_>
          <internalNodes>
            0 -1 158 5.2717048674821854e-03</internalNodes>
          <leafValues>
            -1.0146307945251465e-01 4.6970036625862122e-01</leafValues></_>
        <_>
          <internalNodes>
            0 -1 61 6.6313170827925205e-04</internalNodes>
          <leafValues>
            9.5453642308712006e-02 -4.5455056428909302e-01</leafValues></_>
        <_>
          <internalNodes>
            0 -1 147 6.2721263384446502e-04</internalNodes>
          <leafValues>
            -1.6140289604663849e-01 2.6371788978576660e-01</leafValues></_>
        <_>
          <internalNodes>
            0 -1 239 1.6261880518868566e-03</internalNodes>
          <leafValues>
            9.2019863426685333e-02 -4.9838605523109436e-01</leafValues></_>
        <_>
          <internalNodes>
            0 -1 7 6.6719739697873592e-04</internalNodes>
          <leafValues>
            9.4610117375850677e-02 -4.2433005571365356e-01</leafValues></_>
        <_>
          <internalNodes>
            0 -1 94 -2.5564259849488735e-03</internalNodes>
          <leafValues>
            2.8029721975326538e-01 -1.6286811232566833e-01</leafValues></_>
        <_>
          <internalNodes>
            0 -1 121 1.2011752463877201e-02</internalNodes>
          <leafValues>
            -1.0737112909555435e-01 5.3274405002593994e-01</leafValues></_>
        <_>
          <internalNodes>
            0 -1 157 -2.9515245842048898e-05</internalNodes>
          <leafValues>
            2.0383499562740326e-01 -2.0162406563758850e-01</leafValues></_>
        <_>
          <internalNodes>
            0 -1 98 -9.0343790361657739e-04</internalNodes>
          <leafValues>
            2.5726783275604248e-01 -1.6078118979930878e-01</leafValues></_>
        <_>
          <internalNodes>
            0 -1 165 -2.9574958607554436e-03</internalNodes>
          <leafValues>
            -7.6991927623748779e-01 5.9145040810108185e-02</leafValues></_>
        <_>
          <internalNodes>
            0 -1 1 -3.0293107556644827e-05</internalNodes>
          <leafValues>
            -2.8144699335098267e-01 1.3756351172924042e-01</leafValues></_>
        <_>
          <internalNodes>
            0 -1 265 -7.4424134800210595e-04</internalNodes>
          <leafValues>
            -6.9635617733001709e-01 6.1918985098600388e-02</leafValues></_>
        <_>
          <internalNodes>
            0 -1 263 -5.9801584575325251e-04</internalNodes>
          <leafValues>
            3.5866880416870117e-01 -1.4383858442306519e-01</leafValues></_></weakClassifiers></_>
    <!-- stage 16 -->
    <_>
      <maxWeakCount>22</maxWeakCount>
      <stageThreshold>-1.7419953346252441e+00</stageThreshold>
      <weakClassifiers>
        <_>
          <internalNodes>
            0 -1 245 6.1460677534341812e-03</internalNodes>
          <leafValues>
            -8.4225350618362427e-01 -2.8813558816909790e-01</leafValues></_>
        <_>
          <internalNodes>
            0 -1 62 -7.3394300416111946e-03</internalNodes>
          <leafValues>
            1.4113511145114899e-01 -4.2100709676742554e-01</leafValues></_>
        <_>
          <internalNodes>
            0 -1 0 7.1198656223714352e-04</internalNodes>
          <leafValues>
            5.6242663413286209e-02 -5.7560425996780396e-01</leafValues></_>
        <_>
          <internalNodes>
            0 -1 49 -4.0422803722321987e-03</internalNodes>
          <leafValues>
            3.7551569938659668e-01 -8.6344860494136810e-02</leafValues></_>
        <_>
          <internalNodes>
            0 -1 268 1.0904311784543097e-04</internalNodes>
          <leafValues>
            1.4453266561031342e-01 -3.0568093061447144e-01</leafValues></_>
        <_>
          <internalNodes>
            0 -1 268 -2.6843149680644274e-04</internalNodes>
          <leafValues>
            -4.0688896179199219e-01 1.1508959531784058e-01</leafValues></_>
        <_>
          <internalNodes>
            0 -1 214 -4.9041840247809887e-04</internalNodes>
          <leafValues>
            3.0260276794433594e-01 -1.5125690400600433e-01</leafValues></_>
        <_>
          <internalNodes>
            0 -1 141 1.2860128283500671e-01</internalNodes>
          <leafValues>
            4.5182876288890839e-02 -7.8706860542297363e-01</leafValues></_>
        <_>
          <internalNodes>
            0 -1 226 2.2050074767321348e-03</internalNodes>
          <leafValues>
            -2.5126883387565613e-01 1.8732696771621704e-01</leafValues></_>
        <_>
          <internalNodes>
            0 -1 55 -7.5149320764467120e-04</internalNodes>
          <leafValues>
            -5.5361491441726685e-01 8.1517770886421204e-02</leafValues></_>
        <_>
          <internalNodes>
            0 -1 177 -2.0125371520407498e-04</internalNodes>
          <leafValues>
            -4.2523989081382751e-01 1.0281509160995483e-01</leafValues></_>
        <_>
          <internalNodes>
            0 -1 204 1.1391399893909693e-03</internalNodes>
          <leafValues>
            -1.7107617855072021e-01 2.9163125157356262e-01</leafValues></_>
        <_>
          <internalNodes>
            0 -1 230 3.6850739270448685e-03</internalNodes>
          <leafValues>
            1.1443100869655609e-01 -3.8123372197151184e-01</leafValues></_>
        <_>
          <internalNodes>
            0 -1 194 -2.3886305280029774e-03</internalNodes>
          <leafValues>
            3.2788765430450439e-01 -1.5072573721408844e-01</leafValues></_>
        <_>
          <internalNodes>
            0 -1 191 -1.1320613324642181e-02</internalNodes>
          <leafValues>
            -9.5588505268096924e-01 5.8930121362209320e-02</leafValues></_>
        <_>
          <internalNodes>
            0 -1 189 -7.9700741916894913e-03</internalNodes>
          <leafValues>
            2.6197049021720886e-01 -1.8560439348220825e-01</leafValues></_>
        <_>
          <internalNodes>
            0 -1 83 -4.9065323546528816e-03</internalNodes>
          <leafValues>
            4.6667334437370300e-01 -9.2055775225162506e-02</leafValues></_>
        <_>
          <internalNodes>
            0 -1 87 -7.1602404117584229e-02</internalNodes>
          <leafValues>
            -1. 4.8333585262298584e-02</leafValues></_>
        <_>
          <internalNodes>
            0 -1 216 9.1476846137084067e-05</internalNodes>
          <leafValues>
            1.5053120255470276e-01 -2.8988623619079590e-01</leafValues></_>
        <_>
          <internalNodes>
            0 -1 24 -4.3107522651553154e-03</internalNodes>
          <leafValues>
            4.2769578099250793e-01 -1.0656827688217163e-01</leafValues></_>
        <_>
          <internalNodes>
            0 -1 124 -8.8380184024572372e-03</internalNodes>
          <leafValues>
            -7.0812165737152100e-01 6.7404262721538544e-02</leafValues></_>
        <_>
          <internalNodes>
            0 -1 66 -2.1427989850053564e-05</internalNodes>
          <leafValues>
            -2.0180672407150269e-01 2.1350835263729095e-01</leafValues></_></weakClassifiers></_>
    <!-- stage 17 -->
    <_>
      <maxWeakCount>20</maxWeakCount>
      <stageThreshold>-1.6082354784011841e+00</stageThreshold>
      <weakClassifiers>
        <_>
          <internalNodes>
            0 -1 182 1.6465310007333755e-02</internalNodes>
          <leafValues>
            -8.3656507730484009e-01 4.3478261679410934e-02</leafValues></_>
        <_>
          <internalNodes>
            0 -1 148 -4.2144069448113441e-03</internalNodes>
          <leafValues>
            1.1496371030807495e-01 -4.1719278693199158e-01</leafValues></_>
        <_>
          <internalNodes>
            0 -1 133 3.0565029010176659e-03</internalNodes>
          <leafValues>
            -1.8332986533641815e-01 2.2668312489986420e-01</leafValues></_>
        <_>
          <internalNodes>
            0 -1 79 2.4423678405582905e-03</internalNodes>
          <leafValues>
            5.2787374705076218e-02 -8.1291520595550537e-01</leafValues></_>
        <_>
          <internalNodes>
            0 -1 135 1.2466635555028915e-02</internalNodes>
          <leafValues>
            5.3112231194972992e-02 -9.2840933799743652e-01</leafValues></_>
        <_>
          <internalNodes>
            0 -1 166 -1.3822731561958790e-03</internalNodes>
          <leafValues>
            2.1338370442390442e-01 -1.7830631136894226e-01</leafValues></_>
        <_>
          <internalNodes>
            0 -1 218 -9.7568519413471222e-03</internalNodes>
          <leafValues>
            1.9445794820785522e-01 -2.0183965563774109e-01</leafValues></_>
        <_>
          <internalNodes>
            0 -1 210 6.5719455480575562e-02</internalNodes>
          <leafValues>
            -8.1117868423461914e-02 5.3597527742385864e-01</leafValues></_>
        <_>
          <internalNodes>
            0 -1 80 -1.6982827801257372e-03</internalNodes>
          <leafValues>
            -8.5853606462478638e-01 5.1204219460487366e-02</leafValues></_>
        <_>
          <internalNodes>
            0 -1 5 -9.0766479843296111e-05</internalNodes>
          <leafValues>
            -2.6477727293968201e-01 1.4433629810810089e-01</leafValues></_>
        <_>
          <internalNodes>
            0 -1 240 4.1130842873826623e-05</internalNodes>
          <leafValues>
            -1.9090202450752258e-01 2.0473885536193848e-01</leafValues></_>
        <_>
          <internalNodes>
            0 -1 99 3.8958175573498011e-03</internalNodes>
          <leafValues>
            -1.0212410241365433e-01 3.8956990838050842e-01</leafValues></_>
        <_>
          <internalNodes>
            0 -1 86 3.9813229814171791e-03</internalNodes>
          <leafValues>
            -1.2406779080629349e-01 4.0505844354629517e-01</leafValues></_>
        <_>
          <internalNodes>
            0 -1 9 1.6275953385047615e-05</internalNodes>
          <leafValues>
            1.3694658875465393e-01 -3.1242913007736206e-01</leafValues></_>
        <_>
          <internalNodes>
            0 -1 23 -9.6975214546546340e-05</internalNodes>
          <leafValues>
            -2.4405950307846069e-01 1.7007689177989960e-01</leafValues></_>
        <_>
          <internalNodes>
            0 -1 2 -9.4144921749830246e-03</internalNodes>
          <leafValues>
            3.5714468359947205e-01 -1.3269662857055664e-01</leafValues></_>
        <_>
          <internalNodes>
            0 -1 73 2.8101261705160141e-03</internalNodes>
          <leafValues>
            -1.1103986203670502e-01 3.4362134337425232e-01</leafValues></_>
        <_>
          <internalNodes>
            0 -1 251 3.7880577147006989e-03</internalNodes>
          <leafValues>
            6.2484573572874069e-02 -6.8937408924102783e-01</leafValues></_>
        <_>
          <internalNodes>
            0 -1 77 2.2287839092314243e-03</internalNodes>
          <leafValues>
            -1.4947557449340820e-01 2.8559318184852600e-01</leafValues></_>
        <_>
          <internalNodes>
            0 -1 34 -5.5328902089968324e-04</internalNodes>
          <leafValues>
            -4.4602811336517334e-01 9.3224994838237762e-02</leafValues></_></weakClassifiers></_>
    <!-- stage 18 -->
    <_>
      <maxWeakCount>17</maxWeakCount>
      <stageThreshold>-1.6962260007858276e+00</stageThreshold>
      <weakClassifiers>
        <_>
          <internalNodes>
            0 -1 149 1.9990798830986023e-01</internalNodes>
          <leafValues>
            -8.3234083652496338e-01 1.</leafValues></_>
        <_>
          <internalNodes>
            0 -1 29 -1.4082426205277443e-02</internalNodes>
          <leafValues>
            2.5408476591110229e-01 -4.0021017193794250e-01</leafValues></_>
        <_>
          <internalNodes>
            0 -1 32 -7.5867027044296265e-03</internalNodes>
          <leafValues>
            -6.1636722087860107e-01 5.2216924726963043e-02</leafValues></_>
        <_>
          <internalNodes>
            0 -1 123 -3.6093234084546566e-03</internalNodes>
          <leafValues>
            1.6534942388534546e-01 -3.5227972269058228e-01</leafValues></_>
        <_>
          <internalNodes>
            0 -1 14 -4.8042912036180496e-02</internalNodes>
          <leafValues>
            2.2956073284149170e-01 -1.9743891060352325e-01</leafValues></_>
        <_>
          <internalNodes>
            0 -1 187 -8.2167086657136679e-04</internalNodes>
          <leafValues>
            -4.8303544521331787e-01 7.1966253221035004e-02</leafValues></_>
        <_>
          <internalNodes>
            0 -1 247 2.0368248224258423e-03</internalNodes>
          <leafValues>
            -1.6388167440891266e-01 2.7017927169799805e-01</leafValues></_>
        <_>
          <internalNodes>
            0 -1 241 -7.7080978080630302e-03</internalNodes>
          <leafValues>
            -5.1622098684310913e-01 9.2716418206691742e-02</leafValues></_>
        <_>
          <internalNodes>
            0 -1 201 7.5467221904546022e-04</internalNodes>
          <leafValues>
            -1.5018640458583832e-01 3.0328086018562317e-01</leafValues></_>
        <_>
          <internalNodes>
            0 -1 126 6.9908900186419487e-03</internalNodes>
          <leafValues>
            -1.0650594532489777e-01 4.7676566243171692e-01</leafValues></_>
        <_>
          <internalNodes>
            0 -1 227 -2.4130234960466623e-03</internalNodes>
          <leafValues>
            -8.5362792015075684e-01 6.3299998641014099e-02</leafValues></_>
        <_>
          <internalNodes>
            0 -1 105 1.8392174970358610e-03</internalNodes>
          <leafValues>
            -1.6244055330753326e-01 2.7150711417198181e-01</leafValues></_>
        <_>
          <internalNodes>
            0 -1 206 -1.1480740067781880e-04</internalNodes>
          <leafValues>
            -4.2775005102157593e-01 1.0761597752571106e-01</leafValues></_>
        <_>
          <internalNodes>
            0 -1 179 -1.6267589526250958e-03</internalNodes>
          <leafValues>
            -8.5954177379608154e-01 4.6572998166084290e-02</leafValues></_>
        <_>
          <internalNodes>
            0 -1 65 7.7682163100689650e-04</internalNodes>
          <leafValues>
            -1.1474206298589706e-01 4.2332649230957031e-01</leafValues></_>
        <_>
          <internalNodes>
            0 -1 45 -7.1969709824770689e-04</internalNodes>
          <leafValues>
            -6.8989390134811401e-01 6.4066857099533081e-02</leafValues></_>
        <_>
          <internalNodes>
            0 -1 250 -7.6735988259315491e-03</internalNodes>
          <leafValues>
            7.8558129072189331e-01 -6.6817328333854675e-02</leafValues></_></weakClassifiers></_>
    <!-- stage 19 -->
    <_>
      <maxWeakCount>20</maxWeakCount>
      <stageThreshold>-1.7910633087158203e+00</stageThreshold>
      <weakClassifiers>
        <_>
          <internalNodes>
            0 -1 236 -1.1689244769513607e-02</internalNodes>
          <leafValues>
            3.3333334326744080e-01 -8.3371609449386597e-01</leafValues></_>
        <_>
          <internalNodes>
            0 -1 70 2.2850241512060165e-03</internalNodes>
          <leafValues>
            -4.8130279779434204e-01 -9.1874621808528900e-02</leafValues></_>
        <_>
          <internalNodes>
            0 -1 248 -1.4701863983646035e-04</internalNodes>
          <leafValues>
            2.2787593305110931e-01 -1.7685665190219879e-01</leafValues></_>
        <_>
          <internalNodes>
            0 -1 217 4.5104374294169247e-05</internalNodes>
          <leafValues>
            1.6207794845104218e-01 -2.1959431469440460e-01</leafValues></_>
        <_>
          <internalNodes>
            0 -1 202 -6.8695662776008248e-04</internalNodes>
          <leafValues>
            2.6061674952507019e-01 -1.4732909202575684e-01</leafValues></_>
        <_>
          <internalNodes>
            0 -1 163 6.7225224338471889e-03</internalNodes>
          <leafValues>
            4.4473804533481598e-02 -8.7445467710494995e-01</leafValues></_>
        <_>
          <internalNodes>
            0 -1 219 -2.9123838990926743e-02</internalNodes>
          <leafValues>
            -4.2197141051292419e-01 8.8130071759223938e-02</leafValues></_>
        <_>
          <internalNodes>
            0 -1 71 1.4442220330238342e-01</internalNodes>
          <leafValues>
            6.8829029798507690e-02 -1.</leafValues></_>
        <_>
          <internalNodes>
            0 -1 89 1.7976655066013336e-01</internalNodes>
          <leafValues>
            -8.0908425152301788e-02 5.6872177124023438e-01</leafValues></_>
        <_>
          <internalNodes>
            0 -1 150 -7.6049119234085083e-02</internalNodes>
          <leafValues>
            2.3392239212989807e-01 -1.7636549472808838e-01</leafValues></_>
        <_>
          <internalNodes>
            0 -1 203 -3.3884984441101551e-04</internalNodes>
          <leafValues>
            1.9778031110763550e-01 -2.0865355432033539e-01</leafValues></_>
        <_>
          <internalNodes>
            0 -1 222 -2.8103418298996985e-04</internalNodes>
          <leafValues>
            2.6132175326347351e-01 -1.6355152428150177e-01</leafValues></_>
        <_>
          <internalNodes>
            0 -1 84 -3.4641331434249878e-01</internalNodes>
          <leafValues>
            -8.0205982923507690e-01 4.3345261365175247e-02</leafValues></_>
        <_>
          <internalNodes>
            0 -1 181 -1.5430334955453873e-02</internalNodes>
          <leafValues>
            1.9452391564846039e-01 -2.2683961689472198e-01</leafValues></_>
        <_>
          <internalNodes>
            0 -1 197 2.3515295237302780e-02</internalNodes>
          <leafValues>
            -1.4110884070396423e-01 3.3453309535980225e-01</leafValues></_>
        <_>
          <internalNodes>
            0 -1 268 5.3046998800709844e-04</internalNodes>
          <leafValues>
            9.6498161554336548e-02 -4.9017375707626343e-01</leafValues></_>
        <_>
          <internalNodes>
            0 -1 243 1.2249461724422872e-04</internalNodes>
          <leafValues>
            -1.6425214707851410e-01 2.5624811649322510e-01</leafValues></_>
        <_>
          <internalNodes>
            0 -1 253 3.4258826053701341e-04</internalNodes>
          <leafValues>
            8.3222903311252594e-02 -4.7099220752716064e-01</leafValues></_>
        <_>
          <internalNodes>
            0 -1 249 -8.9682551333680749e-04</internalNodes>
          <leafValues>
            3.1253659725189209e-01 -1.3816288113594055e-01</leafValues></_>
        <_>
          <internalNodes>
            0 -1 177 5.2613999287132174e-05</internalNodes>
          <leafValues>
            1.4325189590454102e-01 -2.9330509901046753e-01</leafValues></_></weakClassifiers></_></stages>
  <features>
    <_>
      <rects>
        <_>
          0 0 1 2 -1.</_>
        <_>
          0 1 1 1 2.</_></rects>
      <tilted>0</tilted></_>
    <_>
      <rects>
        <_>
          0 0 1 3 -1.</_>
        <_>
          0 1 1 1 3.</_></rects>
      <tilted>0</tilted></_>
    <_>
      <rects>
        <_>
          0 0 4 12 -1.</_>
        <_>
          0 0 2 6 2.</_>
        <_>
          2 6 2 6 2.</_></rects>
      <tilted>0</tilted></_>
    <_>
      <rects>
        <_>
          0 0 18 7 -1.</_>
        <_>
          6 0 6 7 3.</_></rects>
      <tilted>0</tilted></_>
    <_>
      <rects>
        <_>
          0 0 10 18 -1.</_>
        <_>
          0 9 10 9 2.</_></rects>
      <tilted>0</tilted></_>
    <_>
      <rects>
        <_>
          0 1 2 4 -1.</_>
        <_>
          0 1 1 2 2.</_>
        <_>
          1 3 1 2 2.</_></rects>
      <tilted>0</tilted></_>
    <_>
      <rects>
        <_>
          0 1 4 1 -1.</_>
        <_>
          2 1 2 1 2.</_></rects>
      <tilted>0</tilted></_>
    <_>
      <rects>
        <_>
          0 1 4 2 -1.</_>
        <_>
          0 1 2 1 2.</_>
        <_>
          2 2 2 1 2.</_></rects>
      <tilted>0</tilted></_>
    <_>
      <rects>
        <_>
          0 1 24 22 -1.</_>
        <_>
          12 1 12 22 2.</_></rects>
      <tilted>0</tilted></_>
    <_>
      <rects>
        <_>
          0 2 1 12 -1.</_>
        <_>
          0 8 1 6 2.</_></rects>
      <tilted>0</tilted></_>
    <_>
      <rects>
        <_>
          0 2 2 8 -1.</_>
        <_>
          0 6 2 4 2.</_></rects>
      <tilted>0</tilted></_>
    <_>
      <rects>
        <_>
          0 2 4 8 -1.</_>
        <_>
          0 6 4 4 2.</_></rects>
      <tilted>0</tilted></_>
    <_>
      <rects>
        <_>
          0 2 24 22 -1.</_>
        <_>
          8 2 8 22 3.</_></rects>
      <tilted>0</tilted></_>
    <_>
      <rects>
        <_>
          0 2 22 3 -1.</_>
        <_>
          11 2 11 3 2.</_></rects>
      <tilted>0</tilted></_>
    <_>
      <rects>
        <_>
          0 3 21 9 -1.</_>
        <_>
          7 3 7 9 3.</_></rects>
      <tilted>0</tilted></_>
    <_>
      <rects>
        <_>
          0 3 20 19 -1.</_>
        <_>
          10 3 10 19 2.</_></rects>
      <tilted>0</tilted></_>
    <_>
      <rects>
        <_>
          0 3 16 6 -1.</_>
        <_>
          0 5 16 2 3.</_></rects>
      <tilted>0</tilted></_>
    <_>
      <rects>
        <_>
          0 4 24 12 -1.</_>
        <_>
          8 4 8 12 3.</_></rects>
      <tilted>0</tilted></_>
    <_>
      <rects>
        <_>
          0 4 24 13 -1.</_>
        <_>
          8 4 8 13 3.</_></rects>
      <tilted>0</tilted></_>
    <_>
      <rects>
        <_>
          0 4 24 18 -1.</_>
        <_>
          8 4 8 18 3.</_></rects>
      <tilted>0</tilted></_>
    <_>
      <rects>
        <_>
          0 4 24 18 -1.</_>
        <_>
          12 4 12 18 2.</_></rects>
      <tilted>0</tilted></_>
    <_>
      <rects>
        <_>
          0 5 1 4 -1.</_>
        <_>
          0 7 1 2 2.</_></rects>
      <tilted>0</tilted></_>
    <_>
      <rects>
        <_>
          0 7 1 16 -1.</_>
        <_>
          0 15 1 8 2.</_></rects>
      <tilted>0</tilted></_>
    <_>
      <rects>
        <_>
          0 8 3 2 -1.</_>
        <_>
          0 9 3 1 2.</_></rects>
      <tilted>0</tilted></_>
    <_>
      <rects>
        <_>
          0 9 2 10 -1.</_>
        <_>
          0 9 1 5 2.</_>
        <_>
          1 14 1 5 2.</_></rects>
      <tilted>0</tilted></_>
    <_>
      <rects>
        <_>
          0 9 9 9 -1.</_>
        <_>
          3 9 3 9 3.</_></rects>
      <tilted>0</tilted></_>
    <_>
      <rects>
        <_>
          0 9 9 14 -1.</_>
        <_>
          3 9 3 14 3.</_></rects>
      <tilted>0</tilted></_>
    <_>
      <rects>
        <_>
          0 9 10 15 -1.</_>
        <_>
          5 9 5 15 2.</_></rects>
      <tilted>0</tilted></_>
    <_>
      <rects>
        <_>
          0 9 16 6 -1.</_>
        <_>
          0 9 8 3 2.</_>
        <_>
          8 12 8 3 2.</_></rects>
      <tilted>0</tilted></_>
    <_>
      <rects>
        <_>
          0 10 2 12 -1.</_>
        <_>
          1 10 1 12 2.</_></rects>
      <tilted>0</tilted></_>
    <_>
      <rects>
        <_>
          0 11 9 4 -1.</_>
        <_>
          3 11 3 4 3.</_></rects>
      <tilted>0</tilted></_>
    <_>
      <rects>
        <_>
          0 11 24 13 -1.</_>
        <_>
          8 11 8 13 3.</_></rects>
      <tilted>0</tilted></_>
    <_>
      <rects>
        <_>
          0 12 1 12 -1.</_>
        <_>
          0 18 1 6 2.</_></rects>
      <tilted>0</tilted></_>
    <_>
      <rects>
        <_>
          0 12 6 4 -1.</_>
        <_>
          3 12 3 4 2.</_></rects>
      <tilted>0</tilted></_>
    <_>
      <rects>
        <_>
          0 13 1 3 -1.</_>
        <_>
          0 14 1 1 3.</_></rects>
      <tilted>0</tilted></_>
    <_>
      <rects>
        <_>
          0 13 15 8 -1.</_>
        <_>
          5 13 5 8 3.</_></rects>
      <tilted>0</tilted></_>
    <_>
      <rects>
        <_>
          0 14 1 3 -1.</_>
        <_>
          0 15 1 1 3.</_></rects>
      <tilted>0</tilted></_>
    <_>
      <rects>
        <_>
          0 15 21 6 -1.</_>
        <_>
          7 15 7 6 3.</_></rects>
      <tilted>0</tilted></_>
    <_>
      <rects>
        <_>
          0 16 1 6 -1.</_>
        <_>
          0 18 1 2 3.</_></rects>
      <tilted>0</tilted></_>
    <_>
      <rects>
        <_>
          0 18 1 6 -1.</_>
        <_>
          0 20 1 2 3.</_></rects>
      <tilted>0</tilted></_>
    <_>
      <rects>
        <_>
          0 18 2 2 -1.</_>
        <_>
          0 19 2 1 2.</_></rects>
      <tilted>0</tilted></_>
    <_>
      <rects>
        <_>
          0 18 14 2 -1.</_>
        <_>
          0 19 14 1 2.</_></rects>
      <tilted>0</tilted></_>
    <_>
      <rects>
        <_>
          0 19 24 1 -1.</_>
        <_>
          8 19 8 1 3.</_></rects>
      <tilted>0</tilted></_>
    <_>
      <rects>
        <_>
          0 20 3 4 -1.</_>
        <_>
          0 22 3 2 2.</_></rects>
      <tilted>0</tilted></_>
    <_>
      <rects>
        <_>
          0 21 18 1 -1.</_>
        <_>
          6 21 6 1 3.</_></rects>
      <tilted>0</tilted></_>
    <_>
      <rects>
        <_>
          0 22 2 2 -1.</_>
        <_>
          0 22 1 1 2.</_>
        <_>
          1 23 1 1 2.</_></rects>
      <tilted>0</tilted></_>
    <_>
      <rects>
        <_>
          0 23 2 1 -1.</_>
        <_>
          1 23 1 1 2.</_></rects>
      <tilted>0</tilted></_>
    <_>
      <rects>
        <_>
          0 23 24 1 -1.</_>
        <_>
          12 23 12 1 2.</_></rects>
      <tilted>0</tilted></_>
    <_>
      <rects>
        <_>
          1 1 18 3 -1.</_>
        <_>
          1 2 18 1 3.</_></rects>
      <tilted>0</tilted></_>
    <_>
      <rects>
        <_>
          1 3 2 12 -1.</_>
        <_>
          1 3 1 6 2.</_>
        <_>
          2 9 1 6 2.</_></rects>
      <tilted>0</tilted></_>
    <_>
      <rects>
        <_>
          1 3 8 8 -1.</_>
        <_>
          1 3 4 4 2.</_>
        <_>
          5 7 4 4 2.</_></rects>
      <tilted>0</tilted></_>
    <_>
      <rects>
        <_>
          1 5 23 12 -1.</_>
        <_>
          1 9 23 4 3.</_></rects>
      <tilted>0</tilted></_>
    <_>
      <rects>
        <_>
          1 9 2 6 -1.</_>
        <_>
          1 9 1 3 2.</_>
        <_>
          2 12 1 3 2.</_></rects>
      <tilted>0</tilted></_>
    <_>
      <rects>
        <_>
          1 10 14 6 -1.</_>
        <_>
          1 12 14 2 3.</_></rects>
      <tilted>0</tilted></_>
    <_>
      <rects>
        <_>
          1 11 15 8 -1.</_>
        <_>
          6 11 5 8 3.</_></rects>
      <tilted>0</tilted></_>
    <_>
      <rects>
        <_>
          1 15 1 3 -1.</_>
        <_>
          1 16 1 1 3.</_></rects>
      <tilted>0</tilted></_>
    <_>
      <rects>
        <_>
          1 15 12 3 -1.</_>
        <_>
          5 15 4 3 3.</_></rects>
      <tilted>0</tilted></_>
    <_>
      <rects>
        <_>
          1 18 1 2 -1.</_>
        <_>
          1 19 1 1 2.</_></rects>
      <tilted>0</tilted></_>
    <_>
      <rects>
        <_>
          1 20 1 2 -1.</_>
        <_>
          1 21 1 1 2.</_></rects>
      <tilted>0</tilted></_>
    <_>
      <rects>
        <_>
          1 21 2 2 -1.</_>
        <_>
          2 21 1 2 2.</_></rects>
      <tilted>0</tilted></_>
    <_>
      <rects>
        <_>
          2 0 22 22 -1.</_>
        <_>
          2 11 22 11 2.</_></rects>
      <tilted>0</tilted></_>
    <_>
      <rects>
        <_>
          2 1 3 1 -1.</_>
        <_>
          3 1 1 1 3.</_></rects>
      <tilted>0</tilted></_>
    <_>
      <rects>
        <_>
          2 1 10 2 -1.</_>
        <_>
          2 1 5 1 2.</_>
        <_>
          7 2 5 1 2.</_></rects>
      <tilted>0</tilted></_>
    <_>
      <rects>
        <_>
          2 2 9 15 -1.</_>
        <_>
          5 2 3 15 3.</_></rects>
      <tilted>0</tilted></_>
    <_>
      <rects>
        <_>
          2 5 20 14 -1.</_>
        <_>
          2 12 20 7 2.</_></rects>
      <tilted>0</tilted></_>
    <_>
      <rects>
        <_>
          2 8 2 2 -1.</_>
        <_>
          2 8 1 1 2.</_>
        <_>
          3 9 1 1 2.</_></rects>
      <tilted>0</tilted></_>
    <_>
      <rects>
        <_>
          2 9 3 6 -1.</_>
        <_>
          2 12 3 3 2.</_></rects>
      <tilted>0</tilted></_>
    <_>
      <rects>
        <_>
          2 15 9 1 -1.</_>
        <_>
          5 15 3 1 3.</_></rects>
      <tilted>0</tilted></_>
    <_>
      <rects>
        <_>
          2 17 15 6 -1.</_>
        <_>
          2 20 15 3 2.</_></rects>
      <tilted>0</tilted></_>
    <_>
      <rects>
        <_>
          2 22 2 1 -1.</_>
        <_>
          3 22 1 1 2.</_></rects>
      <tilted>0</tilted></_>
    <_>
      <rects>
        <_>
          2 22 12 2 -1.</_>
        <_>
          2 23 12 1 2.</_></rects>
      <tilted>0</tilted></_>
    <_>
      <rects>
        <_>
          3 2 15 10 -1.</_>
        <_>
          8 2 5 10 3.</_></rects>
      <tilted>0</tilted></_>
    <_>
      <rects>
        <_>
          3 4 16 9 -1.</_>
        <_>
          3 7 16 3 3.</_></rects>
      <tilted>0</tilted></_>
    <_>
      <rects>
        <_>
          3 5 5 2 -1.</_>
        <_>
          3 6 5 1 2.</_></rects>
      <tilted>0</tilted></_>
    <_>
      <rects>
        <_>
          3 6 2 4 -1.</_>
        <_>
          3 6 1 2 2.</_>
        <_>
          4 8 1 2 2.</_></rects>
      <tilted>0</tilted></_>
    <_>
      <rects>
        <_>
          3 9 2 4 -1.</_>
        <_>
          3 9 1 2 2.</_>
        <_>
          4 11 1 2 2.</_></rects>
      <tilted>0</tilted></_>
    <_>
      <rects>
        <_>
          3 10 16 3 -1.</_>
        <_>
          3 11 16 1 3.</_></rects>
      <tilted>0</tilted></_>
    <_>
      <rects>
        <_>
          3 18 13 3 -1.</_>
        <_>
          3 19 13 1 3.</_></rects>
      <tilted>0</tilted></_>
    <_>
      <rects>
        <_>
          3 18 15 6 -1.</_>
        <_>
          3 20 15 2 3.</_></rects>
      <tilted>0</tilted></_>
    <_>
      <rects>
        <_>
          3 19 2 5 -1.</_>
        <_>
          4 19 1 5 2.</_></rects>
      <tilted>0</tilted></_>
    <_>
      <rects>
        <_>
          3 23 3 1 -1.</_>
        <_>
          4 23 1 1 3.</_></rects>
      <tilted>0</tilted></_>
    <_>
      <rects>
        <_>
          4 0 4 18 -1.</_>
        <_>
          4 0 2 9 2.</_>
        <_>
          6 9 2 9 2.</_></rects>
      <tilted>0</tilted></_>
    <_>
      <rects>
        <_>
          4 1 14 3 -1.</_>
        <_>
          11 1 7 3 2.</_></rects>
      <tilted>0</tilted></_>
    <_>
      <rects>
        <_>
          4 2 2 10 -1.</_>
        <_>
          4 2 1 5 2.</_>
        <_>
          5 7 1 5 2.</_></rects>
      <tilted>0</tilted></_>
    <_>
      <rects>
        <_>
          4 4 16 18 -1.</_>
        <_>
          4 13 16 9 2.</_></rects>
      <tilted>0</tilted></_>
    <_>
      <rects>
        <_>
          4 7 1 8 -1.</_>
        <_>
          4 11 1 4 2.</_></rects>
      <tilted>0</tilted></_>
    <_>
      <rects>
        <_>
          4 20 7 2 -1.</_>
        <_>
          4 21 7 1 2.</_></rects>
      <tilted>0</tilted></_>
    <_>
      <rects>
        <_>
          5 0 4 15 -1.</_>
        <_>
          5 5 4 5 3.</_></rects>
      <tilted>0</tilted></_>
    <_>
      <rects>
        <_>
          5 0 10 9 -1.</_>
        <_>
          5 3 10 3 3.</_></rects>
      <tilted>0</tilted></_>
    <_>
      <rects>
        <_>
          5 0 14 12 -1.</_>
        <_>
          5 6 14 6 2.</_></rects>
      <tilted>0</tilted></_>
    <_>
      <rects>
        <_>
          5 3 18 13 -1.</_>
        <_>
          11 3 6 13 3.</_></rects>
      <tilted>0</tilted></_>
    <_>
      <rects>
        <_>
          5 3 19 9 -1.</_>
        <_>
          5 6 19 3 3.</_></rects>
      <tilted>0</tilted></_>
    <_>
      <rects>
        <_>
          5 4 12 20 -1.</_>
        <_>
          5 14 12 10 2.</_></rects>
      <tilted>0</tilted></_>
    <_>
      <rects>
        <_>
          5 5 17 16 -1.</_>
        <_>
          5 13 17 8 2.</_></rects>
      <tilted>0</tilted></_>
    <_>
      <rects>
        <_>
          5 6 5 3 -1.</_>
        <_>
          5 7 5 1 3.</_></rects>
      <tilted>0</tilted></_>
    <_>
      <rects>
        <_>
          5 10 2 2 -1.</_>
        <_>
          5 10 1 1 2.</_>
        <_>
          6 11 1 1 2.</_></rects>
      <tilted>0</tilted></_>
    <_>
      <rects>
        <_>
          5 10 8 2 -1.</_>
        <_>
          5 10 4 1 2.</_>
        <_>
          9 11 4 1 2.</_></rects>
      <tilted>0</tilted></_>
    <_>
      <rects>
        <_>
          5 15 2 2 -1.</_>
        <_>
          5 15 1 1 2.</_>
        <_>
          6 16 1 1 2.</_></rects>
      <tilted>0</tilted></_>
    <_>
      <rects>
        <_>
          5 17 3 2 -1.</_>
        <_>
          5 18 3 1 2.</_></rects>
      <tilted>0</tilted></_>
    <_>
      <rects>
        <_>
          5 19 5 3 -1.</_>
        <_>
          5 20 5 1 3.</_></rects>
      <tilted>0</tilted></_>
    <_>
      <rects>
        <_>
          5 23 3 1 -1.</_>
        <_>
          6 23 1 1 3.</_></rects>
      <tilted>0</tilted></_>
    <_>
      <rects>
        <_>
          6 0 3 18 -1.</_>
        <_>
          6 6 3 6 3.</_></rects>
      <tilted>0</tilted></_>
    <_>
      <rects>
        <_>
          6 0 12 2 -1.</_>
        <_>
          12 0 6 2 2.</_></rects>
      <tilted>0</tilted></_>
    <_>
      <rects>
        <_>
          6 0 11 9 -1.</_>
        <_>
          6 3 11 3 3.</_></rects>
      <tilted>0</tilted></_>
    <_>
      <rects>
        <_>
          6 0 13 12 -1.</_>
        <_>
          6 6 13 6 2.</_></rects>
      <tilted>0</tilted></_>
    <_>
      <rects>
        <_>
          6 2 4 4 -1.</_>
        <_>
          6 2 2 2 2.</_>
        <_>
          8 4 2 2 2.</_></rects>
      <tilted>0</tilted></_>
    <_>
      <rects>
        <_>
          6 3 6 16 -1.</_>
        <_>
          6 11 6 8 2.</_></rects>
      <tilted>0</tilted></_>
    <_>
      <rects>
        <_>
          6 4 11 12 -1.</_>
        <_>
          6 8 11 4 3.</_></rects>
      <tilted>0</tilted></_>
    <_>
      <rects>
        <_>
          6 6 6 6 -1.</_>
        <_>
          6 8 6 2 3.</_></rects>
      <tilted>0</tilted></_>
    <_>
      <rects>
        <_>
          6 6 18 17 -1.</_>
        <_>
          12 6 6 17 3.</_></rects>
      <tilted>0</tilted></_>
    <_>
      <rects>
        <_>
          6 6 7 3 -1.</_>
        <_>
          6 7 7 1 3.</_></rects>
      <tilted>0</tilted></_>
    <_>
      <rects>
        <_>
          6 7 6 6 -1.</_>
        <_>
          6 9 6 2 3.</_></rects>
      <tilted>0</tilted></_>
    <_>
      <rects>
        <_>
          6 9 5 3 -1.</_>
        <_>
          6 10 5 1 3.</_></rects>
      <tilted>0</tilted></_>
    <_>
      <rects>
        <_>
          6 12 2 2 -1.</_>
        <_>
          6 12 1 1 2.</_>
        <_>
          7 13 1 1 2.</_></rects>
      <tilted>0</tilted></_>
    <_>
      <rects>
        <_>
          6 12 11 3 -1.</_>
        <_>
          6 13 11 1 3.</_></rects>
      <tilted>0</tilted></_>
    <_>
      <rects>
        <_>
          6 19 18 5 -1.</_>
        <_>
          12 19 6 5 3.</_></rects>
      <tilted>0</tilted></_>
    <_>
      <rects>
        <_>
          6 23 9 1 -1.</_>
        <_>
          9 23 3 1 3.</_></rects>
      <tilted>0</tilted></_>
    <_>
      <rects>
        <_>
          7 1 6 2 -1.</_>
        <_>
          7 2 6 1 2.</_></rects>
      <tilted>0</tilted></_>
    <_>
      <rects>
        <_>
          7 4 10 18 -1.</_>
        <_>
          7 13 10 9 2.</_></rects>
      <tilted>0</tilted></_>
    <_>
      <rects>
        <_>
          7 5 2 2 -1.</_>
        <_>
          7 5 1 1 2.</_>
        <_>
          8 6 1 1 2.</_></rects>
      <tilted>0</tilted></_>
    <_>
      <rects>
        <_>
          7 5 8 3 -1.</_>
        <_>
          7 6 8 1 3.</_></rects>
      <tilted>0</tilted></_>
    <_>
      <rects>
        <_>
          7 6 7 3 -1.</_>
        <_>
          7 7 7 1 3.</_></rects>
      <tilted>0</tilted></_>
    <_>
      <rects>
        <_>
          7 9 11 3 -1.</_>
        <_>
          7 10 11 1 3.</_></rects>
      <tilted>0</tilted></_>
    <_>
      <rects>
        <_>
          7 10 9 10 -1.</_>
        <_>
          7 15 9 5 2.</_></rects>
      <tilted>0</tilted></_>
    <_>
      <rects>
        <_>
          7 11 6 2 -1.</_>
        <_>
          9 11 2 2 3.</_></rects>
      <tilted>0</tilted></_>
    <_>
      <rects>
        <_>
          7 15 3 3 -1.</_>
        <_>
          7 16 3 1 3.</_></rects>
      <tilted>0</tilted></_>
    <_>
      <rects>
        <_>
          7 15 8 3 -1.</_>
        <_>
          7 16 8 1 3.</_></rects>
      <tilted>0</tilted></_>
    <_>
      <rects>
        <_>
          7 15 11 3 -1.</_>
        <_>
          7 16 11 1 3.</_></rects>
      <tilted>0</tilted></_>
    <_>
      <rects>
        <_>
          7 18 6 3 -1.</_>
        <_>
          7 19 6 1 3.</_></rects>
      <tilted>0</tilted></_>
    <_>
      <rects>
        <_>
          7 20 6 4 -1.</_>
        <_>
          9 20 2 4 3.</_></rects>
      <tilted>0</tilted></_>
    <_>
      <rects>
        <_>
          7 21 5 2 -1.</_>
        <_>
          7 22 5 1 2.</_></rects>
      <tilted>0</tilted></_>
    <_>
      <rects>
        <_>
          7 23 3 1 -1.</_>
        <_>
          8 23 1 1 3.</_></rects>
      <tilted>0</tilted></_>
    <_>
      <rects>
        <_>
          8 0 5 20 -1.</_>
        <_>
          8 10 5 10 2.</_></rects>
      <tilted>0</tilted></_>
    <_>
      <rects>
        <_>
          8 0 11 3 -1.</_>
        <_>
          8 1 11 1 3.</_></rects>
      <tilted>0</tilted></_>
    <_>
      <rects>
        <_>
          8 0 12 4 -1.</_>
        <_>
          8 2 12 2 2.</_></rects>
      <tilted>0</tilted></_>
    <_>
      <rects>
        <_>
          8 4 4 6 -1.</_>
        <_>
          8 4 2 3 2.</_>
        <_>
          10 7 2 3 2.</_></rects>
      <tilted>0</tilted></_>
    <_>
      <rects>
        <_>
          8 5 6 3 -1.</_>
        <_>
          8 6 6 1 3.</_></rects>
      <tilted>0</tilted></_>
    <_>
      <rects>
        <_>
          8 6 2 2 -1.</_>
        <_>
          8 6 1 1 2.</_>
        <_>
          9 7 1 1 2.</_></rects>
      <tilted>0</tilted></_>
    <_>
      <rects>
        <_>
          8 6 15 18 -1.</_>
        <_>
          13 6 5 18 3.</_></rects>
      <tilted>0</tilted></_>
    <_>
      <rects>
        <_>
          8 7 2 1 -1.</_>
        <_>
          9 7 1 1 2.</_></rects>
      <tilted>0</tilted></_>
    <_>
      <rects>
        <_>
          8 8 16 10 -1.</_>
        <_>
          8 8 8 5 2.</_>
        <_>
          16 13 8 5 2.</_></rects>
      <tilted>0</tilted></_>
    <_>
      <rects>
        <_>
          8 9 16 6 -1.</_>
        <_>
          16 9 8 6 2.</_></rects>
      <tilted>0</tilted></_>
    <_>
      <rects>
        <_>
          8 13 10 3 -1.</_>
        <_>
          8 14 10 1 3.</_></rects>
      <tilted>0</tilted></_>
    <_>
      <rects>
        <_>
          8 18 2 3 -1.</_>
        <_>
          8 19 2 1 3.</_></rects>
      <tilted>0</tilted></_>
    <_>
      <rects>
        <_>
          8 18 9 6 -1.</_>
        <_>
          8 21 9 3 2.</_></rects>
      <tilted>0</tilted></_>
    <_>
      <rects>
        <_>
          8 19 8 3 -1.</_>
        <_>
          8 20 8 1 3.</_></rects>
      <tilted>0</tilted></_>
    <_>
      <rects>
        <_>
          8 23 2 1 -1.</_>
        <_>
          9 23 1 1 2.</_></rects>
      <tilted>0</tilted></_>
    <_>
      <rects>
        <_>
          9 0 2 6 -1.</_>
        <_>
          9 0 1 3 2.</_>
        <_>
          10 3 1 3 2.</_></rects>
      <tilted>0</tilted></_>
    <_>
      <rects>
        <_>
          9 0 3 3 -1.</_>
        <_>
          9 1 3 1 3.</_></rects>
      <tilted>0</tilted></_>
    <_>
      <rects>
        <_>
          9 1 14 9 -1.</_>
        <_>
          9 4 14 3 3.</_></rects>
      <tilted>0</tilted></_>
    <_>
      <rects>
        <_>
          9 2 5 18 -1.</_>
        <_>
          9 11 5 9 2.</_></rects>
      <tilted>0</tilted></_>
    <_>
      <rects>
        <_>
          9 5 2 6 -1.</_>
        <_>
          9 5 1 3 2.</_>
        <_>
          10 8 1 3 2.</_></rects>
      <tilted>0</tilted></_>
    <_>
      <rects>
        <_>
          9 5 7 3 -1.</_>
        <_>
          9 6 7 1 3.</_></rects>
      <tilted>0</tilted></_>
    <_>
      <rects>
        <_>
          9 6 3 18 -1.</_>
        <_>
          10 6 1 18 3.</_></rects>
      <tilted>0</tilted></_>
    <_>
      <rects>
        <_>
          9 10 1 3 -1.</_>
        <_>
          9 11 1 1 3.</_></rects>
      <tilted>0</tilted></_>
    <_>
      <rects>
        <_>
          9 11 3 4 -1.</_>
        <_>
          9 13 3 2 2.</_></rects>
      <tilted>0</tilted></_>
    <_>
      <rects>
        <_>
          9 12 1 3 -1.</_>
        <_>
          9 13 1 1 3.</_></rects>
      <tilted>0</tilted></_>
    <_>
      <rects>
        <_>
          9 14 2 3 -1.</_>
        <_>
          9 15 2 1 3.</_></rects>
      <tilted>0</tilted></_>
    <_>
      <rects>
        <_>
          9 15 10 2 -1.</_>
        <_>
          9 15 5 1 2.</_>
        <_>
          14 16 5 1 2.</_></rects>
      <tilted>0</tilted></_>
    <_>
      <rects>
        <_>
          9 20 2 2 -1.</_>
        <_>
          10 20 1 2 2.</_></rects>
      <tilted>0</tilted></_>
    <_>
      <rects>
        <_>
          9 20 10 4 -1.</_>
        <_>
          9 22 10 2 2.</_></rects>
      <tilted>0</tilted></_>
    <_>
      <rects>
        <_>
          9 23 3 1 -1.</_>
        <_>
          10 23 1 1 3.</_></rects>
      <tilted>0</tilted></_>
    <_>
      <rects>
        <_>
          10 0 9 12 -1.</_>
        <_>
          10 4 9 4 3.</_></rects>
      <tilted>0</tilted></_>
    <_>
      <rects>
        <_>
          10 1 2 7 -1.</_>
        <_>
          11 1 1 7 2.</_></rects>
      <tilted>0</tilted></_>
    <_>
      <rects>
        <_>
          10 4 5 12 -1.</_>
        <_>
          10 8 5 4 3.</_></rects>
      <tilted>0</tilted></_>
    <_>
      <rects>
        <_>
          10 6 3 2 -1.</_>
        <_>
          11 6 1 2 3.</_></rects>
      <tilted>0</tilted></_>
    <_>
      <rects>
        <_>
          10 13 11 3 -1.</_>
        <_>
          10 14 11 1 3.</_></rects>
      <tilted>0</tilted></_>
    <_>
      <rects>
        <_>
          10 17 2 6 -1.</_>
        <_>
          10 19 2 2 3.</_></rects>
      <tilted>0</tilted></_>
    <_>
      <rects>
        <_>
          10 17 8 2 -1.</_>
        <_>
          10 18 8 1 2.</_></rects>
      <tilted>0</tilted></_>
    <_>
      <rects>
        <_>
          10 18 1 3 -1.</_>
        <_>
          10 19 1 1 3.</_></rects>
      <tilted>0</tilted></_>
    <_>
      <rects>
        <_>
          10 19 6 5 -1.</_>
        <_>
          12 19 2 5 3.</_></rects>
      <tilted>0</tilted></_>
    <_>
      <rects>
        <_>
          10 19 5 4 -1.</_>
        <_>
          10 21 5 2 2.</_></rects>
      <tilted>0</tilted></_>
    <_>
      <rects>
        <_>
          10 20 6 3 -1.</_>
        <_>
          12 20 2 3 3.</_></rects>
      <tilted>0</tilted></_>
    <_>
      <rects>
        <_>
          10 21 3 3 -1.</_>
        <_>
          11 21 1 3 3.</_></rects>
      <tilted>0</tilted></_>
    <_>
      <rects>
        <_>
          10 22 1 2 -1.</_>
        <_>
          10 23 1 1 2.</_></rects>
      <tilted>0</tilted></_>
    <_>
      <rects>
        <_>
          10 22 3 2 -1.</_>
        <_>
          11 22 1 2 3.</_></rects>
      <tilted>0</tilted></_>
    <_>
      <rects>
        <_>
          10 23 2 1 -1.</_>
        <_>
          11 23 1 1 2.</_></rects>
      <tilted>0</tilted></_>
    <_>
      <rects>
        <_>
          10 23 3 1 -1.</_>
        <_>
          11 23 1 1 3.</_></rects>
      <tilted>0</tilted></_>
    <_>
      <rects>
        <_>
          11 1 2 23 -1.</_>
        <_>
          12 1 1 23 2.</_></rects>
      <tilted>0</tilted></_>
    <_>
      <rects>
        <_>
          11 2 3 1 -1.</_>
        <_>
          12 2 1 1 3.</_></rects>
      <tilted>0</tilted></_>
    <_>
      <rects>
        <_>
          11 8 10 6 -1.</_>
        <_>
          11 10 10 2 3.</_></rects>
      <tilted>0</tilted></_>
    <_>
      <rects>
        <_>
          11 10 3 12 -1.</_>
        <_>
          11 16 3 6 2.</_></rects>
      <tilted>0</tilted></_>
    <_>
      <rects>
        <_>
          11 10 7 2 -1.</_>
        <_>
          11 11 7 1 2.</_></rects>
      <tilted>0</tilted></_>
    <_>
      <rects>
        <_>
          11 12 2 3 -1.</_>
        <_>
          12 12 1 3 2.</_></rects>
      <tilted>0</tilted></_>
    <_>
      <rects>
        <_>
          11 16 2 1 -1.</_>
        <_>
          12 16 1 1 2.</_></rects>
      <tilted>0</tilted></_>
    <_>
      <rects>
        <_>
          11 18 2 1 -1.</_>
        <_>
          12 18 1 1 2.</_></rects>
      <tilted>0</tilted></_>
    <_>
      <rects>
        <_>
          11 19 3 4 -1.</_>
        <_>
          11 21 3 2 2.</_></rects>
      <tilted>0</tilted></_>
    <_>
      <rects>
        <_>
          11 21 3 3 -1.</_>
        <_>
          12 21 1 3 3.</_></rects>
      <tilted>0</tilted></_>
    <_>
      <rects>
        <_>
          11 23 6 1 -1.</_>
        <_>
          13 23 2 1 3.</_></rects>
      <tilted>0</tilted></_>
    <_>
      <rects>
        <_>
          12 2 8 6 -1.</_>
        <_>
          12 4 8 2 3.</_></rects>
      <tilted>0</tilted></_>
    <_>
      <rects>
        <_>
          12 3 1 3 -1.</_>
        <_>
          12 4 1 1 3.</_></rects>
      <tilted>0</tilted></_>
    <_>
      <rects>
        <_>
          12 4 3 13 -1.</_>
        <_>
          13 4 1 13 3.</_></rects>
      <tilted>0</tilted></_>
    <_>
      <rects>
        <_>
          12 6 2 2 -1.</_>
        <_>
          12 6 1 1 2.</_>
        <_>
          13 7 1 1 2.</_></rects>
      <tilted>0</tilted></_>
    <_>
      <rects>
        <_>
          12 6 4 2 -1.</_>
        <_>
          12 7 4 1 2.</_></rects>
      <tilted>0</tilted></_>
    <_>
      <rects>
        <_>
          12 9 3 6 -1.</_>
        <_>
          13 9 1 6 3.</_></rects>
      <tilted>0</tilted></_>
    <_>
      <rects>
        <_>
          12 10 12 14 -1.</_>
        <_>
          16 10 4 14 3.</_></rects>
      <tilted>0</tilted></_>
    <_>
      <rects>
        <_>
          12 11 2 2 -1.</_>
        <_>
          12 11 1 1 2.</_>
        <_>
          13 12 1 1 2.</_></rects>
      <tilted>0</tilted></_>
    <_>
      <rects>
        <_>
          12 12 9 12 -1.</_>
        <_>
          12 18 9 6 2.</_></rects>
      <tilted>0</tilted></_>
    <_>
      <rects>
        <_>
          12 12 10 12 -1.</_>
        <_>
          12 16 10 4 3.</_></rects>
      <tilted>0</tilted></_>
    <_>
      <rects>
        <_>
          12 15 1 2 -1.</_>
        <_>
          12 16 1 1 2.</_></rects>
      <tilted>0</tilted></_>
    <_>
      <rects>
        <_>
          12 16 2 2 -1.</_>
        <_>
          12 16 1 1 2.</_>
        <_>
          13 17 1 1 2.</_></rects>
      <tilted>0</tilted></_>
    <_>
      <rects>
        <_>
          12 16 3 2 -1.</_>
        <_>
          12 17 3 1 2.</_></rects>
      <tilted>0</tilted></_>
    <_>
      <rects>
        <_>
          13 3 1 3 -1.</_>
        <_>
          13 4 1 1 3.</_></rects>
      <tilted>0</tilted></_>
    <_>
      <rects>
        <_>
          13 6 2 12 -1.</_>
        <_>
          13 6 1 6 2.</_>
        <_>
          14 12 1 6 2.</_></rects>
      <tilted>0</tilted></_>
    <_>
      <rects>
        <_>
          13 18 9 1 -1.</_>
        <_>
          16 18 3 1 3.</_></rects>
      <tilted>0</tilted></_>
    <_>
      <rects>
        <_>
          13 20 1 3 -1.</_>
        <_>
          13 21 1 1 3.</_></rects>
      <tilted>0</tilted></_>
    <_>
      <rects>
        <_>
          13 23 2 1 -1.</_>
        <_>
          14 23 1 1 2.</_></rects>
      <tilted>0</tilted></_>
    <_>
      <rects>
        <_>
          14 1 10 22 -1.</_>
        <_>
          19 1 5 22 2.</_></rects>
      <tilted>0</tilted></_>
    <_>
      <rects>
        <_>
          14 3 4 6 -1.</_>
        <_>
          14 3 2 3 2.</_>
        <_>
          16 6 2 3 2.</_></rects>
      <tilted>0</tilted></_>
    <_>
      <rects>
        <_>
          14 5 6 18 -1.</_>
        <_>
          14 14 6 9 2.</_></rects>
      <tilted>0</tilted></_>
    <_>
      <rects>
        <_>
          14 6 6 14 -1.</_>
        <_>
          17 6 3 14 2.</_></rects>
      <tilted>0</tilted></_>
    <_>
      <rects>
        <_>
          14 6 10 18 -1.</_>
        <_>
          19 6 5 18 2.</_></rects>
      <tilted>0</tilted></_>
    <_>
      <rects>
        <_>
          14 7 10 17 -1.</_>
        <_>
          19 7 5 17 2.</_></rects>
      <tilted>0</tilted></_>
    <_>
      <rects>
        <_>
          14 10 1 2 -1.</_>
        <_>
          14 11 1 1 2.</_></rects>
      <tilted>0</tilted></_>
    <_>
      <rects>
        <_>
          14 18 1 3 -1.</_>
        <_>
          14 19 1 1 3.</_></rects>
      <tilted>0</tilted></_>
    <_>
      <rects>
        <_>
          14 20 10 3 -1.</_>
        <_>
          14 21 10 1 3.</_></rects>
      <tilted>0</tilted></_>
    <_>
      <rects>
        <_>
          15 0 4 2 -1.</_>
        <_>
          17 0 2 2 2.</_></rects>
      <tilted>0</tilted></_>
    <_>
      <rects>
        <_>
          15 1 7 3 -1.</_>
        <_>
          15 2 7 1 3.</_></rects>
      <tilted>0</tilted></_>
    <_>
      <rects>
        <_>
          15 4 9 14 -1.</_>
        <_>
          18 4 3 14 3.</_></rects>
      <tilted>0</tilted></_>
    <_>
      <rects>
        <_>
          15 9 5 12 -1.</_>
        <_>
          15 13 5 4 3.</_></rects>
      <tilted>0</tilted></_>
    <_>
      <rects>
        <_>
          15 11 2 3 -1.</_>
        <_>
          15 12 2 1 3.</_></rects>
      <tilted>0</tilted></_>
    <_>
      <rects>
        <_>
          15 13 4 2 -1.</_>
        <_>
          15 13 2 1 2.</_>
        <_>
          17 14 2 1 2.</_></rects>
      <tilted>0</tilted></_>
    <_>
      <rects>
        <_>
          15 19 1 3 -1.</_>
        <_>
          15 20 1 1 3.</_></rects>
      <tilted>0</tilted></_>
    <_>
      <rects>
        <_>
          15 21 2 1 -1.</_>
        <_>
          16 21 1 1 2.</_></rects>
      <tilted>0</tilted></_>
    <_>
      <rects>
        <_>
          15 22 8 2 -1.</_>
        <_>
          15 22 4 1 2.</_>
        <_>
          19 23 4 1 2.</_></rects>
      <tilted>0</tilted></_>
    <_>
      <rects>
        <_>
          15 23 6 1 -1.</_>
        <_>
          18 23 3 1 2.</_></rects>
      <tilted>0</tilted></_>
    <_>
      <rects>
        <_>
          16 22 8 1 -1.</_>
        <_>
          20 22 4 1 2.</_></rects>
      <tilted>0</tilted></_>
    <_>
      <rects>
        <_>
          16 22 4 2 -1.</_>
        <_>
          16 23 4 1 2.</_></rects>
      <tilted>0</tilted></_>
    <_>
      <rects>
        <_>
          17 0 6 8 -1.</_>
        <_>
          17 4 6 4 2.</_></rects>
      <tilted>0</tilted></_>
    <_>
      <rects>
        <_>
          17 15 1 3 -1.</_>
        <_>
          17 16 1 1 3.</_></rects>
      <tilted>0</tilted></_>
    <_>
      <rects>
        <_>
          17 18 4 6 -1.</_>
        <_>
          17 18 2 3 2.</_>
        <_>
          19 21 2 3 2.</_></rects>
      <tilted>0</tilted></_>
    <_>
      <rects>
        <_>
          17 20 6 3 -1.</_>
        <_>
          17 21 6 1 3.</_></rects>
      <tilted>0</tilted></_>
    <_>
      <rects>
        <_>
          17 21 7 3 -1.</_>
        <_>
          17 22 7 1 3.</_></rects>
      <tilted>0</tilted></_>
    <_>
      <rects>
        <_>
          18 0 3 3 -1.</_>
        <_>
          18 1 3 1 3.</_></rects>
      <tilted>0</tilted></_>
    <_>
      <rects>
        <_>
          18 9 6 3 -1.</_>
        <_>
          21 9 3 3 2.</_></rects>
      <tilted>0</tilted></_>
    <_>
      <rects>
        <_>
          18 13 6 6 -1.</_>
        <_>
          18 15 6 2 3.</_></rects>
      <tilted>0</tilted></_>
    <_>
      <rects>
        <_>
          18 14 2 8 -1.</_>
        <_>
          18 14 1 4 2.</_>
        <_>
          19 18 1 4 2.</_></rects>
      <tilted>0</tilted></_>
    <_>
      <rects>
        <_>
          18 20 6 4 -1.</_>
        <_>
          18 22 6 2 2.</_></rects>
      <tilted>0</tilted></_>
    <_>
      <rects>
        <_>
          19 0 1 6 -1.</_>
        <_>
          19 2 1 2 3.</_></rects>
      <tilted>0</tilted></_>
    <_>
      <rects>
        <_>
          19 15 5 2 -1.</_>
        <_>
          19 16 5 1 2.</_></rects>
      <tilted>0</tilted></_>
    <_>
      <rects>
        <_>
          19 18 2 2 -1.</_>
        <_>
          19 18 1 1 2.</_>
        <_>
          20 19 1 1 2.</_></rects>
      <tilted>0</tilted></_>
    <_>
      <rects>
        <_>
          19 18 3 6 -1.</_>
        <_>
          19 20 3 2 3.</_></rects>
      <tilted>0</tilted></_>
    <_>
      <rects>
        <_>
          19 20 3 4 -1.</_>
        <_>
          19 22 3 2 2.</_></rects>
      <tilted>0</tilted></_>
    <_>
      <rects>
        <_>
          19 21 2 2 -1.</_>
        <_>
          19 21 1 1 2.</_>
        <_>
          20 22 1 1 2.</_></rects>
      <tilted>0</tilted></_>
    <_>
      <rects>
        <_>
          19 22 4 2 -1.</_>
        <_>
          19 22 2 1 2.</_>
        <_>
          21 23 2 1 2.</_></rects>
      <tilted>0</tilted></_>
    <_>
      <rects>
        <_>
          20 11 3 2 -1.</_>
        <_>
          21 11 1 2 3.</_></rects>
      <tilted>0</tilted></_>
    <_>
      <rects>
        <_>
          20 14 2 9 -1.</_>
        <_>
          20 17 2 3 3.</_></rects>
      <tilted>0</tilted></_>
    <_>
      <rects>
        <_>
          20 21 4 3 -1.</_>
        <_>
          20 22 4 1 3.</_></rects>
      <tilted>0</tilted></_>
    <_>
      <rects>
        <_>
          20 22 3 1 -1.</_>
        <_>
          21 22 1 1 3.</_></rects>
      <tilted>0</tilted></_>
    <_>
      <rects>
        <_>
          21 8 2 4 -1.</_>
        <_>
          21 8 1 2 2.</_>
        <_>
          22 10 1 2 2.</_></rects>
      <tilted>0</tilted></_>
    <_>
      <rects>
        <_>
          21 10 2 5 -1.</_>
        <_>
          22 10 1 5 2.</_></rects>
      <tilted>0</tilted></_>
    <_>
      <rects>
        <_>
          21 13 1 6 -1.</_>
        <_>
          21 15 1 2 3.</_></rects>
      <tilted>0</tilted></_>
    <_>
      <rects>
        <_>
          21 14 2 4 -1.</_>
        <_>
          21 14 1 2 2.</_>
        <_>
          22 16 1 2 2.</_></rects>
      <tilted>0</tilted></_>
    <_>
      <rects>
        <_>
          21 20 1 3 -1.</_>
        <_>
          21 21 1 1 3.</_></rects>
      <tilted>0</tilted></_>
    <_>
      <rects>
        <_>
          21 20 2 4 -1.</_>
        <_>
          22 20 1 4 2.</_></rects>
      <tilted>0</tilted></_>
    <_>
      <rects>
        <_>
          22 0 2 2 -1.</_>
        <_>
          22 1 2 1 2.</_></rects>
      <tilted>0</tilted></_>
    <_>
      <rects>
        <_>
          22 1 1 6 -1.</_>
        <_>
          22 4 1 3 2.</_></rects>
      <tilted>0</tilted></_>
    <_>
      <rects>
        <_>
          22 5 2 2 -1.</_>
        <_>
          23 5 1 2 2.</_></rects>
      <tilted>0</tilted></_>
    <_>
      <rects>
        <_>
          22 10 2 9 -1.</_>
        <_>
          23 10 1 9 2.</_></rects>
      <tilted>0</tilted></_>
    <_>
      <rects>
        <_>
          22 11 2 10 -1.</_>
        <_>
          23 11 1 10 2.</_></rects>
      <tilted>0</tilted></_>
    <_>
      <rects>
        <_>
          22 12 1 12 -1.</_>
        <_>
          22 18 1 6 2.</_></rects>
      <tilted>0</tilted></_>
    <_>
      <rects>
        <_>
          22 16 2 8 -1.</_>
        <_>
          22 16 1 4 2.</_>
        <_>
          23 20 1 4 2.</_></rects>
      <tilted>0</tilted></_>
    <_>
      <rects>
        <_>
          22 21 1 2 -1.</_>
        <_>
          22 22 1 1 2.</_></rects>
      <tilted>0</tilted></_>
    <_>
      <rects>
        <_>
          22 21 2 2 -1.</_>
        <_>
          22 21 1 1 2.</_>
        <_>
          23 22 1 1 2.</_></rects>
      <tilted>0</tilted></_>
    <_>
      <rects>
        <_>
          22 22 1 2 -1.</_>
        <_>
          22 23 1 1 2.</_></rects>
      <tilted>0</tilted></_>
    <_>
      <rects>
        <_>
          22 23 2 1 -1.</_>
        <_>
          23 23 1 1 2.</_></rects>
      <tilted>0</tilted></_>
    <_>
      <rects>
        <_>
          23 15 1 6 -1.</_>
        <_>
          23 17 1 2 3.</_></rects>
      <tilted>0</tilted></_>
    <_>
      <rects>
        <_>
          23 18 1 2 -1.</_>
        <_>
          23 19 1 1 2.</_></rects>
      <tilted>0</tilted></_>
    <_>
      <rects>
        <_>
          23 18 1 3 -1.</_>
        <_>
          23 19 1 1 3.</_></rects>
      <tilted>0</tilted></_>
    <_>
      <rects>
        <_>
          23 18 1 4 -1.</_>
        <_>
          23 20 1 2 2.</_></rects>
      <tilted>0</tilted></_>
    <_>
      <rects>
        <_>
          23 20 1 2 -1.</_>
        <_>
          23 21 1 1 2.</_></rects>
      <tilted>0</tilted></_>
    <_>
      <rects>
        <_>
          23 22 1 2 -1.</_>
        <_>
          23 23 1 1 2.</_></rects>
      <tilted>0</tilted></_></features></cascade>
</opencv_storage>
