<?xml version="1.0"?>
<opencv_storage>
<cascade>
  <stageType>BOOST</stageType>
  <featureType>HAAR</featureType>
  <height>24</height>
  <width>24</width>
  <stageParams>
    <boostType>GAB</boostType>
    <minHitRate>9.9500000476837158e-01</minHitRate>
    <maxFalseAlarm>5.0000000000000000e-01</maxFalseAlarm>
    <weightTrimRate>9.4999998807907104e-01</weightTrimRate>
    <maxDepth>1</maxDepth>
    <maxWeakCount>100</maxWeakCount></stageParams>
  <featureParams>
    <maxCatCount>0</maxCatCount>
    <featSize>1</featSize>
    <mode>BASIC</mode></featureParams>
  <stageNum>20</stageNum>
  <stages>
    <!-- stage 0 -->
    <_>
      <maxWeakCount>6</maxWeakCount>
      <stageThreshold>-2.3046562671661377e+00</stageThreshold>
      <weakClassifiers>
        <_>
          <internalNodes>
            0 -1 122 -1.0013012588024139e-01</internalNodes>
          <leafValues>
            -2.2935779392719269e-01 -9.0184050798416138e-01</leafValues></_>
        <_>
          <internalNodes>
            0 -1 118 -4.5392896980047226e-02</internalNodes>
          <leafValues>
            -3.6659069359302521e-02 -8.5100436210632324e-01</leafValues></_>
        <_>
          <internalNodes>
            0 -1 86 -2.6088798418641090e-02</internalNodes>
          <leafValues>
            6.0141223669052124e-01 -4.0048655867576599e-01</leafValues></_>
        <_>
          <internalNodes>
            0 -1 173 -7.5162900611758232e-03</internalNodes>
          <leafValues>
            4.2183810472488403e-01 -4.7152909636497498e-01</leafValues></_>
        <_>
          <internalNodes>
            0 -1 27 -2.3695319890975952e-02</internalNodes>
          <leafValues>
            5.7336056232452393e-01 -3.1075456738471985e-01</leafValues></_>
        <_>
          <internalNodes>
            0 -1 67 -2.2324476391077042e-02</internalNodes>
          <leafValues>
            6.8784183263778687e-01 -2.6240831613540649e-01</leafValues></_></weakClassifiers></_>
    <!-- stage 1 -->
    <_>
      <maxWeakCount>10</maxWeakCount>
      <stageThreshold>-2.2932572364807129e+00</stageThreshold>
      <weakClassifiers>
        <_>
          <internalNodes>
            0 -1 84 -8.2526102662086487e-02</internalNodes>
          <leafValues>
            4.7619048506021500e-02 -8.9837199449539185e-01</leafValues></_>
        <_>
          <internalNodes>
            0 -1 80 -7.6292604207992554e-02</internalNodes>
          <leafValues>
            2.5304639339447021e-01 -6.5029293298721313e-01</leafValues></_>
        <_>
          <internalNodes>
            0 -1 135 -2.9246410354971886e-02</internalNodes>
          <leafValues>
            4.0410599112510681e-01 -4.4567903876304626e-01</leafValues></_>
        <_>
          <internalNodes>
            0 -1 17 -5.6314948946237564e-02</internalNodes>
          <leafValues>
            6.8375319242477417e-01 -2.1526718139648438e-01</leafValues></_>
        <_>
          <internalNodes>
            0 -1 155 -4.6378307044506073e-02</internalNodes>
          <leafValues>
            6.9147664308547974e-01 -1.7455714941024780e-01</leafValues></_>
        <_>
          <internalNodes>
            0 -1 35 -6.3236645655706525e-04</internalNodes>
          <leafValues>
            -8.1782788038253784e-01 1.8326513469219208e-01</leafValues></_>
        <_>
          <internalNodes>
            0 -1 37 2.7618400752544403e-02</internalNodes>
          <leafValues>
            -2.2118698060512543e-01 6.1059683561325073e-01</leafValues></_>
        <_>
          <internalNodes>
            0 -1 87 -2.7382463216781616e-02</internalNodes>
          <leafValues>
            5.7626986503601074e-01 -2.2581261396408081e-01</leafValues></_>
        <_>
          <internalNodes>
            0 -1 57 -2.1900244057178497e-02</internalNodes>
          <leafValues>
            5.5937653779983521e-01 -2.3600184917449951e-01</leafValues></_>
        <_>
          <internalNodes>
            0 -1 62 -1.7902564257383347e-02</internalNodes>
          <leafValues>
            5.9064728021621704e-01 -2.5267636775970459e-01</leafValues></_></weakClassifiers></_>
    <!-- stage 2 -->
    <_>
      <maxWeakCount>9</maxWeakCount>
      <stageThreshold>-1.7917749881744385e+00</stageThreshold>
      <weakClassifiers>
        <_>
          <internalNodes>
            0 -1 68 -2.2119525074958801e-01</internalNodes>
          <leafValues>
            -1.4000000059604645e-01 -8.6788815259933472e-01</leafValues></_>
        <_>
          <internalNodes>
            0 -1 2 -1.8589092791080475e-01</internalNodes>
          <leafValues>
            1.8580488860607147e-01 -5.9128886461257935e-01</leafValues></_>
        <_>
          <internalNodes>
            0 -1 134 -7.8032570891082287e-03</internalNodes>
          <leafValues>
            1.8279665708541870e-01 -6.9135320186614990e-01</leafValues></_>
        <_>
          <internalNodes>
            0 -1 25 -7.9912841320037842e-02</internalNodes>
          <leafValues>
            3.7474706768989563e-01 -3.0735591053962708e-01</leafValues></_>
        <_>
          <internalNodes>
            0 -1 26 1.6824164049467072e-05</internalNodes>
          <leafValues>
            -3.3338072896003723e-01 3.8752615451812744e-01</leafValues></_>
        <_>
          <internalNodes>
            0 -1 19 -7.3535487055778503e-02</internalNodes>
          <leafValues>
            6.7858946323394775e-01 -1.2568721175193787e-01</leafValues></_>
        <_>
          <internalNodes>
            0 -1 54 -6.6590070724487305e-02</internalNodes>
          <leafValues>
            5.0441825389862061e-01 -2.2095273435115814e-01</leafValues></_>
        <_>
          <internalNodes>
            0 -1 14 2.8238672763109207e-02</internalNodes>
          <leafValues>
            -2.0069874823093414e-01 5.3324902057647705e-01</leafValues></_>
        <_>
          <internalNodes>
            0 -1 10 -3.8254418177530169e-04</internalNodes>
          <leafValues>
            -6.8511784076690674e-01 1.5854996442794800e-01</leafValues></_></weakClassifiers></_>
    <!-- stage 3 -->
    <_>
      <maxWeakCount>12</maxWeakCount>
      <stageThreshold>-2.2942268848419189e+00</stageThreshold>
      <weakClassifiers>
        <_>
          <internalNodes>
            0 -1 216 1.1997934052487835e-05</internalNodes>
          <leafValues>
            -9.1989493370056152e-01 -6.3440859317779541e-01</leafValues></_>
        <_>
          <internalNodes>
            0 -1 152 1.4015198757988401e-05</internalNodes>
          <leafValues>
            -6.5398067235946655e-01 1.3316832482814789e-02</leafValues></_>
        <_>
          <internalNodes>
            0 -1 175 -3.4222532121930271e-05</internalNodes>
          <leafValues>
            3.2759022712707520e-01 -3.7336710095405579e-01</leafValues></_>
        <_>
          <internalNodes>
            0 -1 61 4.9459040164947510e-03</internalNodes>
          <leafValues>
            1.5783667564392090e-01 -6.7077100276947021e-01</leafValues></_>
        <_>
          <internalNodes>
            0 -1 197 1.9694156435434707e-05</internalNodes>
          <leafValues>
            -2.7925983071327209e-01 3.5995036363601685e-01</leafValues></_>
        <_>
          <internalNodes>
            0 -1 129 -4.1693858802318573e-02</internalNodes>
          <leafValues>
            4.0332794189453125e-01 -2.6878479123115540e-01</leafValues></_>
        <_>
          <internalNodes>
            0 -1 189 -9.6435055136680603e-02</internalNodes>
          <leafValues>
            3.8524076342582703e-01 -2.9901170730590820e-01</leafValues></_>
        <_>
          <internalNodes>
            0 -1 115 -1.4234939044399653e-05</internalNodes>
          <leafValues>
            3.7904885411262512e-01 -2.6859563589096069e-01</leafValues></_>
        <_>
          <internalNodes>
            0 -1 201 -8.8981539011001587e-04</internalNodes>
          <leafValues>
            -7.2408926486968994e-01 1.5730032324790955e-01</leafValues></_>
        <_>
          <internalNodes>
            0 -1 191 -2.0527285523712635e-03</internalNodes>
          <leafValues>
            5.1252281665802002e-01 -2.2247672080993652e-01</leafValues></_>
        <_>
          <internalNodes>
            0 -1 202 2.0195872057229280e-03</internalNodes>
          <leafValues>
            1.5142340958118439e-01 -7.4590808153152466e-01</leafValues></_>
        <_>
          <internalNodes>
            0 -1 148 4.9495287239551544e-03</internalNodes>
          <leafValues>
            -2.2811439633369446e-01 5.0755059719085693e-01</leafValues></_></weakClassifiers></_>
    <!-- stage 4 -->
    <_>
      <maxWeakCount>10</maxWeakCount>
      <stageThreshold>-1.9060970544815063e+00</stageThreshold>
      <weakClassifiers>
        <_>
          <internalNodes>
            0 -1 73 4.0786173194646835e-02</internalNodes>
          <leafValues>
            -8.9023745059967041e-01 -4.5519712567329407e-01</leafValues></_>
        <_>
          <internalNodes>
            0 -1 185 2.6207120754406787e-05</internalNodes>
          <leafValues>
            -6.3827526569366455e-01 -8.0221392214298248e-02</leafValues></_>
        <_>
          <internalNodes>
            0 -1 220 2.7252926884102635e-05</internalNodes>
          <leafValues>
            -3.2606673240661621e-01 3.0477246642112732e-01</leafValues></_>
        <_>
          <internalNodes>
            0 -1 105 -7.6606348156929016e-02</internalNodes>
          <leafValues>
            5.0714552402496338e-01 -1.8141849339008331e-01</leafValues></_>
        <_>
          <internalNodes>
            0 -1 81 -4.1851691901683807e-02</internalNodes>
          <leafValues>
            4.4057643413543701e-01 -2.4053369462490082e-01</leafValues></_>
        <_>
          <internalNodes>
            0 -1 170 4.2158240830758587e-05</internalNodes>
          <leafValues>
            -2.7189326286315918e-01 3.6055591702461243e-01</leafValues></_>
        <_>
          <internalNodes>
            0 -1 170 -3.7649566365871578e-05</internalNodes>
          <leafValues>
            4.3268695473670959e-01 -2.0729035139083862e-01</leafValues></_>
        <_>
          <internalNodes>
            0 -1 147 4.3943928903900087e-04</internalNodes>
          <leafValues>
            1.4659881591796875e-01 -6.5136128664016724e-01</leafValues></_>
        <_>
          <internalNodes>
            0 -1 120 -1.6597187146544456e-02</internalNodes>
          <leafValues>
            4.1863816976547241e-01 -2.5358638167381287e-01</leafValues></_>
        <_>
          <internalNodes>
            0 -1 176 -8.6309551261365414e-04</internalNodes>
          <leafValues>
            3.9805686473846436e-01 -2.4142535030841827e-01</leafValues></_></weakClassifiers></_>
    <!-- stage 5 -->
    <_>
      <maxWeakCount>12</maxWeakCount>
      <stageThreshold>-1.9157192707061768e+00</stageThreshold>
      <weakClassifiers>
        <_>
          <internalNodes>
            0 -1 18 -9.1598182916641235e-02</internalNodes>
          <leafValues>
            -3.2876712083816528e-01 -8.7080866098403931e-01</leafValues></_>
        <_>
          <internalNodes>
            0 -1 88 3.0425144359469414e-02</internalNodes>
          <leafValues>
            -5.6692773103713989e-01 7.8777268528938293e-02</leafValues></_>
        <_>
          <internalNodes>
            0 -1 229 2.1365424618124962e-03</internalNodes>
          <leafValues>
            7.6159313321113586e-02 -8.5224610567092896e-01</leafValues></_>
        <_>
          <internalNodes>
            0 -1 237 -2.4999945890158415e-03</internalNodes>
          <leafValues>
            -8.5777324438095093e-01 1.2399692088365555e-01</leafValues></_>
        <_>
          <internalNodes>
            0 -1 109 -4.5794703066349030e-02</internalNodes>
          <leafValues>
            4.8594462871551514e-01 -2.0367732644081116e-01</leafValues></_>
        <_>
          <internalNodes>
            0 -1 1 -1.3299367856234312e-03</internalNodes>
          <leafValues>
            -5.2626055479049683e-01 1.6165429353713989e-01</leafValues></_>
        <_>
          <internalNodes>
            0 -1 74 -1.6687326133251190e-03</internalNodes>
          <leafValues>
            -7.4266546964645386e-01 1.3365790247917175e-01</leafValues></_>
        <_>
          <internalNodes>
            0 -1 78 -5.2095944993197918e-03</internalNodes>
          <leafValues>
            4.0040263533592224e-01 -2.3130723834037781e-01</leafValues></_>
        <_>
          <internalNodes>
            0 -1 145 1.7678660806268454e-03</internalNodes>
          <leafValues>
            1.1518845707178116e-01 -7.0692378282546997e-01</leafValues></_>
        <_>
          <internalNodes>
            0 -1 190 -3.5945713520050049e-02</internalNodes>
          <leafValues>
            5.6424570083618164e-01 -1.7328208684921265e-01</leafValues></_>
        <_>
          <internalNodes>
            0 -1 188 2.5757458060979843e-02</internalNodes>
          <leafValues>
            -2.3523190617561340e-01 5.0114101171493530e-01</leafValues></_>
        <_>
          <internalNodes>
            0 -1 157 1.5950105153024197e-03</internalNodes>
          <leafValues>
            -2.4025157094001770e-01 4.4277369976043701e-01</leafValues></_></weakClassifiers></_>
    <!-- stage 6 -->
    <_>
      <maxWeakCount>9</maxWeakCount>
      <stageThreshold>-1.9651917219161987e+00</stageThreshold>
      <weakClassifiers>
        <_>
          <internalNodes>
            0 -1 71 -1.5477129817008972e-01</internalNodes>
          <leafValues>
            2.3570554568090376e-17 -8.5404896736145020e-01</leafValues></_>
        <_>
          <internalNodes>
            0 -1 82 -8.7847746908664703e-03</internalNodes>
          <leafValues>
            1.8436767160892487e-01 -5.2524167299270630e-01</leafValues></_>
        <_>
          <internalNodes>
            0 -1 98 4.4118980877101421e-03</internalNodes>
          <leafValues>
            -2.7512392401695251e-01 4.3452110886573792e-01</leafValues></_>
        <_>
          <internalNodes>
            0 -1 43 -1.2017557024955750e-01</internalNodes>
          <leafValues>
            6.1159527301788330e-01 -1.7027774453163147e-01</leafValues></_>
        <_>
          <internalNodes>
            0 -1 114 1.4294292777776718e-03</internalNodes>
          <leafValues>
            -2.2917361557483673e-01 3.9584738016128540e-01</leafValues></_>
        <_>
          <internalNodes>
            0 -1 206 3.1995790777727962e-05</internalNodes>
          <leafValues>
            -2.6523989439010620e-01 3.6668056249618530e-01</leafValues></_>
        <_>
          <internalNodes>
            0 -1 217 -3.7358826375566423e-05</internalNodes>
          <leafValues>
            2.6726493239402771e-01 -3.0961593985557556e-01</leafValues></_>
        <_>
          <internalNodes>
            0 -1 209 -1.3528569834306836e-03</internalNodes>
          <leafValues>
            -5.1449072360992432e-01 1.9451554119586945e-01</leafValues></_>
        <_>
          <internalNodes>
            0 -1 182 5.9840362519025803e-03</internalNodes>
          <leafValues>
            -2.4059483408927917e-01 4.1542640328407288e-01</leafValues></_></weakClassifiers></_>
    <!-- stage 7 -->
    <_>
      <maxWeakCount>12</maxWeakCount>
      <stageThreshold>-1.8907343149185181e+00</stageThreshold>
      <weakClassifiers>
        <_>
          <internalNodes>
            0 -1 232 4.2747169733047485e-02</internalNodes>
          <leafValues>
            -8.5421627759933472e-01 -2.8000000119209290e-01</leafValues></_>
        <_>
          <internalNodes>
            0 -1 156 4.8106463509611785e-05</internalNodes>
          <leafValues>
            -5.5016309022903442e-01 3.1412176322191954e-03</leafValues></_>
        <_>
          <internalNodes>
            0 -1 138 -2.3894433979876339e-05</internalNodes>
          <leafValues>
            2.8432083129882813e-01 -3.0825078487396240e-01</leafValues></_>
        <_>
          <internalNodes>
            0 -1 38 1.4423874206840992e-02</internalNodes>
          <leafValues>
            1.6260206699371338e-01 -5.2965033054351807e-01</leafValues></_>
        <_>
          <internalNodes>
            0 -1 133 -4.1330713429488242e-05</internalNodes>
          <leafValues>
            3.1986847519874573e-01 -2.7943214774131775e-01</leafValues></_>
        <_>
          <internalNodes>
            0 -1 9 -2.5010347366333008e-01</internalNodes>
          <leafValues>
            -5.7766020298004150e-01 1.5668034553527832e-01</leafValues></_>
        <_>
          <internalNodes>
            0 -1 45 -1.2404281646013260e-02</internalNodes>
          <leafValues>
            3.7524193525314331e-01 -2.7428719401359558e-01</leafValues></_>
        <_>
          <internalNodes>
            0 -1 63 3.6778668873012066e-03</internalNodes>
          <leafValues>
            -2.0285455882549286e-01 4.2414429783821106e-01</leafValues></_>
        <_>
          <internalNodes>
            0 -1 235 1.2842077012464870e-05</internalNodes>
          <leafValues>
            -3.0651804804801941e-01 2.9713359475135803e-01</leafValues></_>
        <_>
          <internalNodes>
            0 -1 187 -9.2449883231893182e-04</internalNodes>
          <leafValues>
            -5.2345627546310425e-01 1.6560754179954529e-01</leafValues></_>
        <_>
          <internalNodes>
            0 -1 113 4.1779382154345512e-03</internalNodes>
          <leafValues>
            -1.8089401721954346e-01 4.9423921108245850e-01</leafValues></_>
        <_>
          <internalNodes>
            0 -1 34 -3.9097438566386700e-03</internalNodes>
          <leafValues>
            -8.0068844556808472e-01 1.1309977620840073e-01</leafValues></_></weakClassifiers></_>
    <!-- stage 8 -->
    <_>
      <maxWeakCount>9</maxWeakCount>
      <stageThreshold>-1.8691633939743042e+00</stageThreshold>
      <weakClassifiers>
        <_>
          <internalNodes>
            0 -1 92 1.2683060765266418e-01</internalNodes>
          <leafValues>
            -8.4351849555969238e-01 5.7142859697341919e-01</leafValues></_>
        <_>
          <internalNodes>
            0 -1 3 -3.3417171239852905e-01</internalNodes>
          <leafValues>
            -6.6364213824272156e-02 -6.2206280231475830e-01</leafValues></_>
        <_>
          <internalNodes>
            0 -1 174 2.7821235562441871e-05</internalNodes>
          <leafValues>
            -3.1455340981483459e-01 2.9559016227722168e-01</leafValues></_>
        <_>
          <internalNodes>
            0 -1 213 2.7890115234185942e-05</internalNodes>
          <leafValues>
            -2.8004619479179382e-01 3.4033676981925964e-01</leafValues></_>
        <_>
          <internalNodes>
            0 -1 213 -3.7291014450602233e-05</internalNodes>
          <leafValues>
            3.6132273077964783e-01 -2.3771241307258606e-01</leafValues></_>
        <_>
          <internalNodes>
            0 -1 137 -1.8305271863937378e-02</internalNodes>
          <leafValues>
            5.2234184741973877e-01 -1.4460188150405884e-01</leafValues></_>
        <_>
          <internalNodes>
            0 -1 44 1.2819746136665344e-01</internalNodes>
          <leafValues>
            1.0482285916805267e-01 -7.9113286733627319e-01</leafValues></_>
        <_>
          <internalNodes>
            0 -1 55 -1.4093512296676636e-01</internalNodes>
          <leafValues>
            -7.5655150413513184e-01 1.1777743697166443e-01</leafValues></_>
        <_>
          <internalNodes>
            0 -1 128 4.0018421714194119e-05</internalNodes>
          <leafValues>
            -2.6965147256851196e-01 3.3343312144279480e-01</leafValues></_></weakClassifiers></_>
    <!-- stage 9 -->
    <_>
      <maxWeakCount>15</maxWeakCount>
      <stageThreshold>-2.2404816150665283e+00</stageThreshold>
      <weakClassifiers>
        <_>
          <internalNodes>
            0 -1 144 2.0164987072348595e-02</internalNodes>
          <leafValues>
            -8.4786641597747803e-01 7.7777779102325439e-01</leafValues></_>
        <_>
          <internalNodes>
            0 -1 97 1.3477443717420101e-02</internalNodes>
          <leafValues>
            -4.6921581029891968e-01 2.8970456123352051e-01</leafValues></_>
        <_>
          <internalNodes>
            0 -1 96 -7.1698720566928387e-03</internalNodes>
          <leafValues>
            4.4430318474769592e-01 -2.0085588097572327e-01</leafValues></_>
        <_>
          <internalNodes>
            0 -1 89 -6.0199759900569916e-04</internalNodes>
          <leafValues>
            -7.3808413743972778e-01 1.1674894392490387e-01</leafValues></_>
        <_>
          <internalNodes>
            0 -1 205 -1.6068521654233336e-04</internalNodes>
          <leafValues>
            3.9623391628265381e-01 -1.9880804419517517e-01</leafValues></_>
        <_>
          <internalNodes>
            0 -1 161 -5.0903199007734656e-04</internalNodes>
          <leafValues>
            4.3910109996795654e-01 -1.7780427634716034e-01</leafValues></_>
        <_>
          <internalNodes>
            0 -1 226 4.1790248360484838e-04</internalNodes>
          <leafValues>
            1.7130699753761292e-01 -4.7149744629859924e-01</leafValues></_>
        <_>
          <internalNodes>
            0 -1 32 -1.7376711592078209e-02</internalNodes>
          <leafValues>
            6.6140884160995483e-01 -1.5494892001152039e-01</leafValues></_>
        <_>
          <internalNodes>
            0 -1 228 -1.2377077946439385e-03</internalNodes>
          <leafValues>
            -3.7845832109451294e-01 2.5589168071746826e-01</leafValues></_>
        <_>
          <internalNodes>
            0 -1 160 2.9371643904596567e-04</internalNodes>
          <leafValues>
            -2.3856055736541748e-01 3.9839142560958862e-01</leafValues></_>
        <_>
          <internalNodes>
            0 -1 70 -3.1209288863465190e-05</internalNodes>
          <leafValues>
            3.1315785646438599e-01 -2.5399965047836304e-01</leafValues></_>
        <_>
          <internalNodes>
            0 -1 23 -1.2976333498954773e-01</internalNodes>
          <leafValues>
            -8.3149546384811401e-01 9.7656793892383575e-02</leafValues></_>
        <_>
          <internalNodes>
            0 -1 219 -9.2436195700429380e-05</internalNodes>
          <leafValues>
            3.4543633460998535e-01 -2.5882932543754578e-01</leafValues></_>
        <_>
          <internalNodes>
            0 -1 140 1.6918266192078590e-04</internalNodes>
          <leafValues>
            -2.3261103034019470e-01 3.6630755662918091e-01</leafValues></_>
        <_>
          <internalNodes>
            0 -1 52 -1.7963891150429845e-04</internalNodes>
          <leafValues>
            -4.9200466275215149e-01 1.7731295526027679e-01</leafValues></_></weakClassifiers></_>
    <!-- stage 10 -->
    <_>
      <maxWeakCount>10</maxWeakCount>
      <stageThreshold>-1.8180549144744873e+00</stageThreshold>
      <weakClassifiers>
        <_>
          <internalNodes>
            0 -1 72 6.7832469940185547e-02</internalNodes>
          <leafValues>
            -8.6443912982940674e-01 -3.7974681705236435e-02</leafValues></_>
        <_>
          <internalNodes>
            0 -1 126 -1.0899123549461365e-01</internalNodes>
          <leafValues>
            -1.5352922677993774e-01 -7.4892258644104004e-01</leafValues></_>
        <_>
          <internalNodes>
            0 -1 131 1.1174671817570925e-03</internalNodes>
          <leafValues>
            6.3492156565189362e-02 -8.6265927553176880e-01</leafValues></_>
        <_>
          <internalNodes>
            0 -1 12 -1.1882649362087250e-01</internalNodes>
          <leafValues>
            4.0423923730850220e-01 -2.3944823443889618e-01</leafValues></_>
        <_>
          <internalNodes>
            0 -1 153 3.1141826184466481e-04</internalNodes>
          <leafValues>
            1.9654679298400879e-01 -5.3340619802474976e-01</leafValues></_>
        <_>
          <internalNodes>
            0 -1 65 2.8063237667083740e-02</internalNodes>
          <leafValues>
            -2.2151120007038116e-01 4.4594058394432068e-01</leafValues></_>
        <_>
          <internalNodes>
            0 -1 200 1.1750659905374050e-03</internalNodes>
          <leafValues>
            1.0055109858512878e-01 -9.4307452440261841e-01</leafValues></_>
        <_>
          <internalNodes>
            0 -1 119 -2.0311832427978516e-02</internalNodes>
          <leafValues>
            2.6247060298919678e-01 -2.9086109995841980e-01</leafValues></_>
        <_>
          <internalNodes>
            0 -1 112 3.4092387068085372e-05</internalNodes>
          <leafValues>
            -2.3583400249481201e-01 3.2360103726387024e-01</leafValues></_>
        <_>
          <internalNodes>
            0 -1 198 -7.9834111966192722e-04</internalNodes>
          <leafValues>
            -6.9039541482925415e-01 1.2748073041439056e-01</leafValues></_></weakClassifiers></_>
    <!-- stage 11 -->
    <_>
      <maxWeakCount>11</maxWeakCount>
      <stageThreshold>-2.1228888034820557e+00</stageThreshold>
      <weakClassifiers>
        <_>
          <internalNodes>
            0 -1 143 4.9242015928030014e-02</internalNodes>
          <leafValues>
            -8.5761123895645142e-01 4.3589743971824646e-01</leafValues></_>
        <_>
          <internalNodes>
            0 -1 3 -3.3377623558044434e-01</internalNodes>
          <leafValues>
            1.1008341610431671e-01 -6.8763035535812378e-01</leafValues></_>
        <_>
          <internalNodes>
            0 -1 21 1.6318000853061676e-02</internalNodes>
          <leafValues>
            -2.2896067798137665e-01 5.4889291524887085e-01</leafValues></_>
        <_>
          <internalNodes>
            0 -1 79 -4.0410184301435947e-03</internalNodes>
          <leafValues>
            5.1766866445541382e-01 -1.8151795864105225e-01</leafValues></_>
        <_>
          <internalNodes>
            0 -1 116 7.9723750241100788e-04</internalNodes>
          <leafValues>
            1.4472404122352600e-01 -7.0674890279769897e-01</leafValues></_>
        <_>
          <internalNodes>
            0 -1 124 5.3480369970202446e-03</internalNodes>
          <leafValues>
            -1.5702646970748901e-01 5.3761357069015503e-01</leafValues></_>
        <_>
          <internalNodes>
            0 -1 194 -4.6423217281699181e-04</internalNodes>
          <leafValues>
            -4.5617926120758057e-01 2.2532565891742706e-01</leafValues></_>
        <_>
          <internalNodes>
            0 -1 218 -6.0162821318954229e-04</internalNodes>
          <leafValues>
            -7.7610939741134644e-01 1.0571737587451935e-01</leafValues></_>
        <_>
          <internalNodes>
            0 -1 123 3.7455234676599503e-02</internalNodes>
          <leafValues>
            -1.6979034245014191e-01 5.6415730714797974e-01</leafValues></_>
        <_>
          <internalNodes>
            0 -1 223 -3.2233807723969221e-04</internalNodes>
          <leafValues>
            -6.5556061267852783e-01 1.4411604404449463e-01</leafValues></_>
        <_>
          <internalNodes>
            0 -1 106 -4.7412633895874023e-02</internalNodes>
          <leafValues>
            2.6199039816856384e-01 -3.2108369469642639e-01</leafValues></_></weakClassifiers></_>
    <!-- stage 12 -->
    <_>
      <maxWeakCount>15</maxWeakCount>
      <stageThreshold>-2.0162518024444580e+00</stageThreshold>
      <weakClassifiers>
        <_>
          <internalNodes>
            0 -1 7 -3.3706609159708023e-02</internalNodes>
          <leafValues>
            -5.7803469896316528e-01 -8.8293218612670898e-01</leafValues></_>
        <_>
          <internalNodes>
            0 -1 167 -2.5870405137538910e-02</internalNodes>
          <leafValues>
            3.8155712187290192e-02 -5.5025827884674072e-01</leafValues></_>
        <_>
          <internalNodes>
            0 -1 178 1.6064232913777232e-03</internalNodes>
          <leafValues>
            1.4654925465583801e-01 -4.5872062444686890e-01</leafValues></_>
        <_>
          <internalNodes>
            0 -1 15 -3.4025803208351135e-02</internalNodes>
          <leafValues>
            3.5647979378700256e-01 -2.1005116403102875e-01</leafValues></_>
        <_>
          <internalNodes>
            0 -1 59 -6.7505873739719391e-03</internalNodes>
          <leafValues>
            3.8266929984092712e-01 -1.8098761141300201e-01</leafValues></_>
        <_>
          <internalNodes>
            0 -1 103 6.7157987505197525e-03</internalNodes>
          <leafValues>
            -1.5424931049346924e-01 4.3083930015563965e-01</leafValues></_>
        <_>
          <internalNodes>
            0 -1 203 1.5007229521870613e-03</internalNodes>
          <leafValues>
            1.3903833925724030e-01 -5.6494724750518799e-01</leafValues></_>
        <_>
          <internalNodes>
            0 -1 85 -2.3879731073975563e-02</internalNodes>
          <leafValues>
            3.7869861721992493e-01 -2.2616428136825562e-01</leafValues></_>
        <_>
          <internalNodes>
            0 -1 49 -9.3308249488472939e-03</internalNodes>
          <leafValues>
            -7.3425519466400146e-01 1.0389696806669235e-01</leafValues></_>
        <_>
          <internalNodes>
            0 -1 142 -1.4551773201674223e-03</internalNodes>
          <leafValues>
            4.5995539426803589e-01 -1.6708663105964661e-01</leafValues></_>
        <_>
          <internalNodes>
            0 -1 240 1.2742450053337961e-04</internalNodes>
          <leafValues>
            1.5956225991249084e-01 -4.9499636888504028e-01</leafValues></_>
        <_>
          <internalNodes>
            0 -1 166 3.4138800110667944e-03</internalNodes>
          <leafValues>
            -1.8185681104660034e-01 4.5155450701713562e-01</leafValues></_>
        <_>
          <internalNodes>
            0 -1 165 -3.1112618744373322e-03</internalNodes>
          <leafValues>
            4.0659314393997192e-01 -1.9114652276039124e-01</leafValues></_>
        <_>
          <internalNodes>
            0 -1 230 -4.5917914249002934e-03</internalNodes>
          <leafValues>
            -5.7084465026855469e-01 1.4033797383308411e-01</leafValues></_>
        <_>
          <internalNodes>
            0 -1 132 8.3300461992621422e-03</internalNodes>
          <leafValues>
            8.8791921734809875e-02 -6.8658882379531860e-01</leafValues></_></weakClassifiers></_>
    <!-- stage 13 -->
    <_>
      <maxWeakCount>11</maxWeakCount>
      <stageThreshold>-1.7315658330917358e+00</stageThreshold>
      <weakClassifiers>
        <_>
          <internalNodes>
            0 -1 233 4.2552560567855835e-02</internalNodes>
          <leafValues>
            -8.6030828952789307e-01 -2.8571429848670959e-01</leafValues></_>
        <_>
          <internalNodes>
            0 -1 8 -1.8682828173041344e-02</internalNodes>
          <leafValues>
            -6.2735475599765778e-02 -6.0446631908416748e-01</leafValues></_>
        <_>
          <internalNodes>
            0 -1 183 1.2996556237339973e-02</internalNodes>
          <leafValues>
            -3.1271508336067200e-01 2.7059108018875122e-01</leafValues></_>
        <_>
          <internalNodes>
            0 -1 227 -1.1943226854782552e-04</internalNodes>
          <leafValues>
            -4.8636385798454285e-01 1.4570026099681854e-01</leafValues></_>
        <_>
          <internalNodes>
            0 -1 151 -1.5232646837830544e-03</internalNodes>
          <leafValues>
            5.1403248310089111e-01 -1.2826715409755707e-01</leafValues></_>
        <_>
          <internalNodes>
            0 -1 20 1.3485698029398918e-02</internalNodes>
          <leafValues>
            -9.8157726228237152e-02 5.9266775846481323e-01</leafValues></_>
        <_>
          <internalNodes>
            0 -1 94 -4.6590743586421013e-03</internalNodes>
          <leafValues>
            3.6858958005905151e-01 -2.2076566517353058e-01</leafValues></_>
        <_>
          <internalNodes>
            0 -1 0 -2.5633609038777649e-04</internalNodes>
          <leafValues>
            -4.7782218456268311e-01 1.5257740020751953e-01</leafValues></_>
        <_>
          <internalNodes>
            0 -1 11 -1.8753928598016500e-03</internalNodes>
          <leafValues>
            3.7009727954864502e-01 -1.7907921969890594e-01</leafValues></_>
        <_>
          <internalNodes>
            0 -1 149 1.5473544597625732e-02</internalNodes>
          <leafValues>
            1.0793831944465637e-01 -6.1902701854705811e-01</leafValues></_>
        <_>
          <internalNodes>
            0 -1 179 4.9595691263675690e-02</internalNodes>
          <leafValues>
            -2.2699522972106934e-01 3.7730601429939270e-01</leafValues></_></weakClassifiers></_>
    <!-- stage 14 -->
    <_>
      <maxWeakCount>14</maxWeakCount>
      <stageThreshold>-2.0171198844909668e+00</stageThreshold>
      <weakClassifiers>
        <_>
          <internalNodes>
            0 -1 231 5.4139956831932068e-02</internalNodes>
          <leafValues>
            -8.5660016536712646e-01 -1.4705882966518402e-01</leafValues></_>
        <_>
          <internalNodes>
            0 -1 107 -8.5961639881134033e-02</internalNodes>
          <leafValues>
            1.1238487809896469e-01 -5.5257982015609741e-01</leafValues></_>
        <_>
          <internalNodes>
            0 -1 193 4.0719127282500267e-03</internalNodes>
          <leafValues>
            -1.7909589409828186e-01 4.5277038216590881e-01</leafValues></_>
        <_>
          <internalNodes>
            0 -1 221 -1.3084089914627839e-05</internalNodes>
          <leafValues>
            2.7664569020271301e-01 -2.4770018458366394e-01</leafValues></_>
        <_>
          <internalNodes>
            0 -1 24 2.3101612925529480e-02</internalNodes>
          <leafValues>
            8.4309339523315430e-02 -8.0976676940917969e-01</leafValues></_>
        <_>
          <internalNodes>
            0 -1 117 -9.7446125000715256e-03</internalNodes>
          <leafValues>
            -9.0150660276412964e-01 8.4842756390571594e-02</leafValues></_>
        <_>
          <internalNodes>
            0 -1 48 -4.9949451349675655e-03</internalNodes>
          <leafValues>
            5.2777725458145142e-01 -1.3396415114402771e-01</leafValues></_>
        <_>
          <internalNodes>
            0 -1 225 3.1052832491695881e-04</internalNodes>
          <leafValues>
            2.1812073886394501e-01 -3.2274967432022095e-01</leafValues></_>
        <_>
          <internalNodes>
            0 -1 46 1.9101162906736135e-03</internalNodes>
          <leafValues>
            -2.3363229632377625e-01 3.2645574212074280e-01</leafValues></_>
        <_>
          <internalNodes>
            0 -1 154 9.4247013330459595e-03</internalNodes>
          <leafValues>
            -1.9206294417381287e-01 3.2942563295364380e-01</leafValues></_>
        <_>
          <internalNodes>
            0 -1 101 -1.2042141752317548e-03</internalNodes>
          <leafValues>
            3.5148695111274719e-01 -1.8777553737163544e-01</leafValues></_>
        <_>
          <internalNodes>
            0 -1 13 2.8067160747013986e-04</internalNodes>
          <leafValues>
            1.6106595098972321e-01 -4.7019731998443604e-01</leafValues></_>
        <_>
          <internalNodes>
            0 -1 222 8.9311215560883284e-04</internalNodes>
          <leafValues>
            1.0855361074209213e-01 -6.4420002698898315e-01</leafValues></_>
        <_>
          <internalNodes>
            0 -1 163 1.7615342512726784e-03</internalNodes>
          <leafValues>
            -1.8159717321395874e-01 4.0804377198219299e-01</leafValues></_></weakClassifiers></_>
    <!-- stage 15 -->
    <_>
      <maxWeakCount>13</maxWeakCount>
      <stageThreshold>-1.8697744607925415e+00</stageThreshold>
      <weakClassifiers>
        <_>
          <internalNodes>
            0 -1 210 -2.1368237212300301e-02</internalNodes>
          <leafValues>
            -4.9812734127044678e-01 -8.8148927688598633e-01</leafValues></_>
        <_>
          <internalNodes>
            0 -1 28 -2.2003881633281708e-02</internalNodes>
          <leafValues>
            5.9730853885412216e-02 -5.8586555719375610e-01</leafValues></_>
        <_>
          <internalNodes>
            0 -1 39 -9.8882794380187988e-02</internalNodes>
          <leafValues>
            2.2284932434558868e-01 -4.1153839230537415e-01</leafValues></_>
        <_>
          <internalNodes>
            0 -1 207 3.7826471962034702e-03</internalNodes>
          <leafValues>
            -2.9124301671981812e-01 2.6667878031730652e-01</leafValues></_>
        <_>
          <internalNodes>
            0 -1 195 4.4852765277028084e-03</internalNodes>
          <leafValues>
            -1.4439705014228821e-01 5.0949507951736450e-01</leafValues></_>
        <_>
          <internalNodes>
            0 -1 6 -4.4604821596294641e-05</internalNodes>
          <leafValues>
            -3.6309105157852173e-01 2.0503541827201843e-01</leafValues></_>
        <_>
          <internalNodes>
            0 -1 192 -3.1975985621102154e-04</internalNodes>
          <leafValues>
            3.6548814177513123e-01 -1.7131215333938599e-01</leafValues></_>
        <_>
          <internalNodes>
            0 -1 108 -1.2436209246516228e-02</internalNodes>
          <leafValues>
            2.7608603239059448e-01 -2.2074541449546814e-01</leafValues></_>
        <_>
          <internalNodes>
            0 -1 125 2.0170966163277626e-02</internalNodes>
          <leafValues>
            -1.6631302237510681e-01 3.4647852182388306e-01</leafValues></_>
        <_>
          <internalNodes>
            0 -1 239 -3.5893083550035954e-03</internalNodes>
          <leafValues>
            -5.1566284894943237e-01 1.1391562223434448e-01</leafValues></_>
        <_>
          <internalNodes>
            0 -1 136 1.5163273783400655e-03</internalNodes>
          <leafValues>
            -1.6071365773677826e-01 3.7612438201904297e-01</leafValues></_>
        <_>
          <internalNodes>
            0 -1 36 1.2336845975369215e-03</internalNodes>
          <leafValues>
            1.3996176421642303e-01 -4.4977745413780212e-01</leafValues></_>
        <_>
          <internalNodes>
            0 -1 181 -2.1616576705127954e-03</internalNodes>
          <leafValues>
            2.8738856315612793e-01 -2.0970697700977325e-01</leafValues></_></weakClassifiers></_>
    <!-- stage 16 -->
    <_>
      <maxWeakCount>15</maxWeakCount>
      <stageThreshold>-1.8811452388763428e+00</stageThreshold>
      <weakClassifiers>
        <_>
          <internalNodes>
            0 -1 130 3.5427480936050415e-02</internalNodes>
          <leafValues>
            -8.7889075279235840e-01 -6.4127767086029053e-01</leafValues></_>
        <_>
          <internalNodes>
            0 -1 51 -3.3981308341026306e-02</internalNodes>
          <leafValues>
            -9.9484927952289581e-02 -5.5092000961303711e-01</leafValues></_>
        <_>
          <internalNodes>
            0 -1 53 -3.8552105426788330e-02</internalNodes>
          <leafValues>
            2.4282376468181610e-01 -2.6185327768325806e-01</leafValues></_>
        <_>
          <internalNodes>
            0 -1 184 -1.1324921622872353e-02</internalNodes>
          <leafValues>
            2.9467612504959106e-01 -2.0008172094821930e-01</leafValues></_>
        <_>
          <internalNodes>
            0 -1 33 -1.8855279777199030e-03</internalNodes>
          <leafValues>
            -1. 6.2209554016590118e-02</leafValues></_>
        <_>
          <internalNodes>
            0 -1 76 7.3336448986083269e-04</internalNodes>
          <leafValues>
            7.3866844177246094e-02 -7.2859275341033936e-01</leafValues></_>
        <_>
          <internalNodes>
            0 -1 5 -5.3062883671373129e-04</internalNodes>
          <leafValues>
            -3.5929611325263977e-01 1.4457124471664429e-01</leafValues></_>
        <_>
          <internalNodes>
            0 -1 177 -2.4786372669041157e-03</internalNodes>
          <leafValues>
            3.7545508146286011e-01 -1.4643432199954987e-01</leafValues></_>
        <_>
          <internalNodes>
            0 -1 196 -7.2270588134415448e-05</internalNodes>
          <leafValues>
            2.3694601655006409e-01 -2.3558828234672546e-01</leafValues></_>
        <_>
          <internalNodes>
            0 -1 158 4.5560419559478760e-02</internalNodes>
          <leafValues>
            5.6289393454790115e-02 -8.3313220739364624e-01</leafValues></_>
        <_>
          <internalNodes>
            0 -1 121 1.0270264931023121e-02</internalNodes>
          <leafValues>
            -2.4061438441276550e-01 2.1250531077384949e-01</leafValues></_>
        <_>
          <internalNodes>
            0 -1 236 2.3275261628441513e-04</internalNodes>
          <leafValues>
            1.1154364049434662e-01 -4.8696920275688171e-01</leafValues></_>
        <_>
          <internalNodes>
            0 -1 215 -1.3191130710765719e-04</internalNodes>
          <leafValues>
            2.7803754806518555e-01 -1.9355669617652893e-01</leafValues></_>
        <_>
          <internalNodes>
            0 -1 40 5.3195934742689133e-04</internalNodes>
          <leafValues>
            1.0597997158765793e-01 -5.3490620851516724e-01</leafValues></_>
        <_>
          <internalNodes>
            0 -1 141 2.1462412551045418e-03</internalNodes>
          <leafValues>
            -1.8159577250480652e-01 3.0808290839195251e-01</leafValues></_></weakClassifiers></_>
    <!-- stage 17 -->
    <_>
      <maxWeakCount>17</maxWeakCount>
      <stageThreshold>-1.7185097932815552e+00</stageThreshold>
      <weakClassifiers>
        <_>
          <internalNodes>
            0 -1 211 6.5342426300048828e-02</internalNodes>
          <leafValues>
            -8.6347055435180664e-01 -6.1568629741668701e-01</leafValues></_>
        <_>
          <internalNodes>
            0 -1 102 -5.0440886989235878e-03</internalNodes>
          <leafValues>
            -1.6124467551708221e-01 -5.5038142204284668e-01</leafValues></_>
        <_>
          <internalNodes>
            0 -1 164 5.2950051613152027e-03</internalNodes>
          <leafValues>
            -2.9705488681793213e-01 1.4173254370689392e-01</leafValues></_>
        <_>
          <internalNodes>
            0 -1 95 -2.4367526173591614e-02</internalNodes>
          <leafValues>
            -9.3531674146652222e-01 4.8108693212270737e-02</leafValues></_>
        <_>
          <internalNodes>
            0 -1 127 -3.1421636231243610e-03</internalNodes>
          <leafValues>
            2.9619145393371582e-01 -1.5510061383247375e-01</leafValues></_>
        <_>
          <internalNodes>
            0 -1 212 -6.6645420156419277e-04</internalNodes>
          <leafValues>
            2.2450159490108490e-01 -2.1069251000881195e-01</leafValues></_>
        <_>
          <internalNodes>
            0 -1 146 5.9875438455492258e-04</internalNodes>
          <leafValues>
            9.6469916403293610e-02 -6.6147488355636597e-01</leafValues></_>
        <_>
          <internalNodes>
            0 -1 169 -4.2098475387319922e-04</internalNodes>
          <leafValues>
            2.5779551267623901e-01 -1.9510817527770996e-01</leafValues></_>
        <_>
          <internalNodes>
            0 -1 168 3.9031746564432979e-04</internalNodes>
          <leafValues>
            -1.8709760904312134e-01 3.1595504283905029e-01</leafValues></_>
        <_>
          <internalNodes>
            0 -1 30 -2.6486306451261044e-03</internalNodes>
          <leafValues>
            -1. 4.3599341064691544e-02</leafValues></_>
        <_>
          <internalNodes>
            0 -1 139 3.0280513688921928e-02</internalNodes>
          <leafValues>
            6.6421389579772949e-02 -5.1720845699310303e-01</leafValues></_>
        <_>
          <internalNodes>
            0 -1 69 3.1967193353921175e-04</internalNodes>
          <leafValues>
            -1.9245162606239319e-01 2.4962273240089417e-01</leafValues></_>
        <_>
          <internalNodes>
            0 -1 66 -4.1742864996194839e-03</internalNodes>
          <leafValues>
            3.5745865106582642e-01 -1.4788800477981567e-01</leafValues></_>
        <_>
          <internalNodes>
            0 -1 4 4.4764118501916528e-04</internalNodes>
          <leafValues>
            9.0173967182636261e-02 -5.7547205686569214e-01</leafValues></_>
        <_>
          <internalNodes>
            0 -1 110 1.5051037189550698e-04</internalNodes>
          <leafValues>
            -1.6646939516067505e-01 2.9488286375999451e-01</leafValues></_>
        <_>
          <internalNodes>
            0 -1 91 -2.9791217297315598e-02</internalNodes>
          <leafValues>
            -5.7436627149581909e-01 8.9411109685897827e-02</leafValues></_>
        <_>
          <internalNodes>
            0 -1 104 -6.7343786358833313e-02</internalNodes>
          <leafValues>
            3.1475779414176941e-01 -1.7639589309692383e-01</leafValues></_></weakClassifiers></_>
    <!-- stage 18 -->
    <_>
      <maxWeakCount>17</maxWeakCount>
      <stageThreshold>-1.6722627878189087e+00</stageThreshold>
      <weakClassifiers>
        <_>
          <internalNodes>
            0 -1 83 8.1078603863716125e-02</internalNodes>
          <leafValues>
            -8.3933520317077637e-01 5.0000000000000000e-01</leafValues></_>
        <_>
          <internalNodes>
            0 -1 214 -3.8496381603181362e-03</internalNodes>
          <leafValues>
            1.9332123920321465e-02 -4.6652272343635559e-01</leafValues></_>
        <_>
          <internalNodes>
            0 -1 224 9.9489363492466509e-05</internalNodes>
          <leafValues>
            1.1372653394937515e-01 -3.9548146724700928e-01</leafValues></_>
        <_>
          <internalNodes>
            0 -1 99 -1.1666672304272652e-02</internalNodes>
          <leafValues>
            2.9033628106117249e-01 -1.6350163519382477e-01</leafValues></_>
        <_>
          <internalNodes>
            0 -1 42 -2.9364018701016903e-05</internalNodes>
          <leafValues>
            -2.9345518350601196e-01 1.6443201899528503e-01</leafValues></_>
        <_>
          <internalNodes>
            0 -1 41 -2.7471315115690231e-02</internalNodes>
          <leafValues>
            4.7779056429862976e-01 -7.8093826770782471e-02</leafValues></_>
        <_>
          <internalNodes>
            0 -1 56 -3.0652442947030067e-03</internalNodes>
          <leafValues>
            3.1361252069473267e-01 -1.6862006485462189e-01</leafValues></_>
        <_>
          <internalNodes>
            0 -1 31 -7.7841442544013262e-04</internalNodes>
          <leafValues>
            -5.0922113656997681e-01 1.2744230031967163e-01</leafValues></_>
        <_>
          <internalNodes>
            0 -1 208 -4.5585213229060173e-04</internalNodes>
          <leafValues>
            -3.1248459219932556e-01 1.6569299995899200e-01</leafValues></_>
        <_>
          <internalNodes>
            0 -1 180 5.7234661653637886e-03</internalNodes>
          <leafValues>
            -1.0918777436017990e-01 4.8770865797996521e-01</leafValues></_>
        <_>
          <internalNodes>
            0 -1 93 6.9722477346658707e-03</internalNodes>
          <leafValues>
            -1.8856751918792725e-01 2.5864508748054504e-01</leafValues></_>
        <_>
          <internalNodes>
            0 -1 77 4.5689702033996582e-02</internalNodes>
          <leafValues>
            4.8333775252103806e-02 -9.2935872077941895e-01</leafValues></_>
        <_>
          <internalNodes>
            0 -1 50 1.2131252151448280e-04</internalNodes>
          <leafValues>
            1.3376687467098236e-01 -3.1210428476333618e-01</leafValues></_>
        <_>
          <internalNodes>
            0 -1 29 -5.8292347239330411e-04</internalNodes>
          <leafValues>
            -4.8287639021873474e-01 9.6957512199878693e-02</leafValues></_>
        <_>
          <internalNodes>
            0 -1 234 1.3325816253200173e-03</internalNodes>
          <leafValues>
            -1.6256043314933777e-01 2.7753245830535889e-01</leafValues></_>
        <_>
          <internalNodes>
            0 -1 162 -5.0635787192732096e-04</internalNodes>
          <leafValues>
            3.3860975503921509e-01 -1.3737292587757111e-01</leafValues></_>
        <_>
          <internalNodes>
            0 -1 58 -5.2359490655362606e-03</internalNodes>
          <leafValues>
            4.1922688484191895e-01 -1.1125139147043228e-01</leafValues></_></weakClassifiers></_>
    <!-- stage 19 -->
    <_>
      <maxWeakCount>18</maxWeakCount>
      <stageThreshold>-1.8477439880371094e+00</stageThreshold>
      <weakClassifiers>
        <_>
          <internalNodes>
            0 -1 241 1.7037065699696541e-02</internalNodes>
          <leafValues>
            -8.4507697820663452e-01 -9.6774190664291382e-02</leafValues></_>
        <_>
          <internalNodes>
            0 -1 199 -3.7770159542560577e-04</internalNodes>
          <leafValues>
            -8.4111827611923218e-01 -2.5814586877822876e-01</leafValues></_>
        <_>
          <internalNodes>
            0 -1 186 -3.4213240724056959e-04</internalNodes>
          <leafValues>
            -5.2474844455718994e-01 7.6363094151020050e-02</leafValues></_>
        <_>
          <internalNodes>
            0 -1 60 4.4750637607648969e-04</internalNodes>
          <leafValues>
            9.9948704242706299e-02 -5.6274402141571045e-01</leafValues></_>
        <_>
          <internalNodes>
            0 -1 90 -1.5769316814839840e-04</internalNodes>
          <leafValues>
            -3.8653463125228882e-01 1.4347662031650543e-01</leafValues></_>
        <_>
          <internalNodes>
            0 -1 238 1.2230854481458664e-03</internalNodes>
          <leafValues>
            9.9266976118087769e-02 -5.4269939661026001e-01</leafValues></_>
        <_>
          <internalNodes>
            0 -1 47 7.9691275954246521e-02</internalNodes>
          <leafValues>
            6.5027222037315369e-02 -7.3314571380615234e-01</leafValues></_>
        <_>
          <internalNodes>
            0 -1 22 1.4528969302773476e-02</internalNodes>
          <leafValues>
            -1.2904353439807892e-01 3.9744880795478821e-01</leafValues></_>
        <_>
          <internalNodes>
            0 -1 172 1.8221221398562193e-03</internalNodes>
          <leafValues>
            6.1146669089794159e-02 -8.2056707143783569e-01</leafValues></_>
        <_>
          <internalNodes>
            0 -1 171 -7.3310895822942257e-04</internalNodes>
          <leafValues>
            -3.8996601104736328e-01 1.0774575173854828e-01</leafValues></_>
        <_>
          <internalNodes>
            0 -1 100 9.1024313587695360e-04</internalNodes>
          <leafValues>
            -1.8659816682338715e-01 2.6618036627769470e-01</leafValues></_>
        <_>
          <internalNodes>
            0 -1 159 -3.9115495746955276e-04</internalNodes>
          <leafValues>
            2.3413325846195221e-01 -2.0926420390605927e-01</leafValues></_>
        <_>
          <internalNodes>
            0 -1 16 -3.9240591228008270e-02</internalNodes>
          <leafValues>
            5.5654418468475342e-01 -9.2222377657890320e-02</leafValues></_>
        <_>
          <internalNodes>
            0 -1 204 2.6026397245004773e-04</internalNodes>
          <leafValues>
            -2.6747217774391174e-01 2.0024095475673676e-01</leafValues></_>
        <_>
          <internalNodes>
            0 -1 75 2.5290781632065773e-03</internalNodes>
          <leafValues>
            7.4535354971885681e-02 -5.8664608001708984e-01</leafValues></_>
        <_>
          <internalNodes>
            0 -1 150 8.1472867168486118e-04</internalNodes>
          <leafValues>
            -1.4861805737018585e-01 3.4473603963851929e-01</leafValues></_>
        <_>
          <internalNodes>
            0 -1 64 3.4976950846612453e-03</internalNodes>
          <leafValues>
            -1.1297779530286789e-01 4.4896557927131653e-01</leafValues></_>
        <_>
          <internalNodes>
            0 -1 111 -2.1494025364518166e-02</internalNodes>
          <leafValues>
            3.5819709300994873e-01 -1.3159914314746857e-01</leafValues></_></weakClassifiers></_></stages>
  <features>
    <_>
      <rects>
        <_>
          0 0 1 2 -1.</_>
        <_>
          0 1 1 1 2.</_></rects>
      <tilted>0</tilted></_>
    <_>
      <rects>
        <_>
          0 0 9 1 -1.</_>
        <_>
          3 0 3 1 3.</_></rects>
      <tilted>0</tilted></_>
    <_>
      <rects>
        <_>
          0 0 24 21 -1.</_>
        <_>
          8 0 8 21 3.</_></rects>
      <tilted>0</tilted></_>
    <_>
      <rects>
        <_>
          0 0 24 22 -1.</_>
        <_>
          0 11 24 11 2.</_></rects>
      <tilted>0</tilted></_>
    <_>
      <rects>
        <_>
          0 1 1 3 -1.</_>
        <_>
          0 2 1 1 3.</_></rects>
      <tilted>0</tilted></_>
    <_>
      <rects>
        <_>
          0 1 1 6 -1.</_>
        <_>
          0 3 1 2 3.</_></rects>
      <tilted>0</tilted></_>
    <_>
      <rects>
        <_>
          0 1 6 1 -1.</_>
        <_>
          3 1 3 1 2.</_></rects>
      <tilted>0</tilted></_>
    <_>
      <rects>
        <_>
          0 1 6 16 -1.</_>
        <_>
          3 1 3 16 2.</_></rects>
      <tilted>0</tilted></_>
    <_>
      <rects>
        <_>
          0 1 14 9 -1.</_>
        <_>
          7 1 7 9 2.</_></rects>
      <tilted>0</tilted></_>
    <_>
      <rects>
        <_>
          0 1 24 21 -1.</_>
        <_>
          12 1 12 21 2.</_></rects>
      <tilted>0</tilted></_>
    <_>
      <rects>
        <_>
          0 2 1 2 -1.</_>
        <_>
          0 3 1 1 2.</_></rects>
      <tilted>0</tilted></_>
    <_>
      <rects>
        <_>
          0 2 3 14 -1.</_>
        <_>
          1 2 1 14 3.</_></rects>
      <tilted>0</tilted></_>
    <_>
      <rects>
        <_>
          0 2 24 14 -1.</_>
        <_>
          8 2 8 14 3.</_></rects>
      <tilted>0</tilted></_>
    <_>
      <rects>
        <_>
          0 3 1 3 -1.</_>
        <_>
          0 4 1 1 3.</_></rects>
      <tilted>0</tilted></_>
    <_>
      <rects>
        <_>
          0 3 12 10 -1.</_>
        <_>
          4 3 4 10 3.</_></rects>
      <tilted>0</tilted></_>
    <_>
      <rects>
        <_>
          0 3 12 6 -1.</_>
        <_>
          6 3 6 6 2.</_></rects>
      <tilted>0</tilted></_>
    <_>
      <rects>
        <_>
          0 5 4 18 -1.</_>
        <_>
          2 5 2 18 2.</_></rects>
      <tilted>0</tilted></_>
    <_>
      <rects>
        <_>
          0 8 12 13 -1.</_>
        <_>
          4 8 4 13 3.</_></rects>
      <tilted>0</tilted></_>
    <_>
      <rects>
        <_>
          0 8 8 14 -1.</_>
        <_>
          4 8 4 14 2.</_></rects>
      <tilted>0</tilted></_>
    <_>
      <rects>
        <_>
          0 8 12 14 -1.</_>
        <_>
          4 8 4 14 3.</_></rects>
      <tilted>0</tilted></_>
    <_>
      <rects>
        <_>
          0 9 22 3 -1.</_>
        <_>
          0 10 22 1 3.</_></rects>
      <tilted>0</tilted></_>
    <_>
      <rects>
        <_>
          0 10 20 3 -1.</_>
        <_>
          0 11 20 1 3.</_></rects>
      <tilted>0</tilted></_>
    <_>
      <rects>
        <_>
          0 10 21 3 -1.</_>
        <_>
          0 11 21 1 3.</_></rects>
      <tilted>0</tilted></_>
    <_>
      <rects>
        <_>
          0 11 24 7 -1.</_>
        <_>
          12 11 12 7 2.</_></rects>
      <tilted>0</tilted></_>
    <_>
      <rects>
        <_>
          0 12 24 1 -1.</_>
        <_>
          12 12 12 1 2.</_></rects>
      <tilted>0</tilted></_>
    <_>
      <rects>
        <_>
          0 12 23 12 -1.</_>
        <_>
          0 16 23 4 3.</_></rects>
      <tilted>0</tilted></_>
    <_>
      <rects>
        <_>
          0 13 2 2 -1.</_>
        <_>
          1 13 1 2 2.</_></rects>
      <tilted>0</tilted></_>
    <_>
      <rects>
        <_>
          0 15 22 6 -1.</_>
        <_>
          0 17 22 2 3.</_></rects>
      <tilted>0</tilted></_>
    <_>
      <rects>
        <_>
          0 16 8 6 -1.</_>
        <_>
          4 16 4 6 2.</_></rects>
      <tilted>0</tilted></_>
    <_>
      <rects>
        <_>
          0 18 1 3 -1.</_>
        <_>
          0 19 1 1 3.</_></rects>
      <tilted>0</tilted></_>
    <_>
      <rects>
        <_>
          0 19 1 3 -1.</_>
        <_>
          0 20 1 1 3.</_></rects>
      <tilted>0</tilted></_>
    <_>
      <rects>
        <_>
          0 20 2 2 -1.</_>
        <_>
          1 20 1 2 2.</_></rects>
      <tilted>0</tilted></_>
    <_>
      <rects>
        <_>
          0 21 24 3 -1.</_>
        <_>
          0 22 24 1 3.</_></rects>
      <tilted>0</tilted></_>
    <_>
      <rects>
        <_>
          0 22 3 2 -1.</_>
        <_>
          1 22 1 2 3.</_></rects>
      <tilted>0</tilted></_>
    <_>
      <rects>
        <_>
          0 22 6 2 -1.</_>
        <_>
          2 22 2 2 3.</_></rects>
      <tilted>0</tilted></_>
    <_>
      <rects>
        <_>
          0 23 3 1 -1.</_>
        <_>
          1 23 1 1 3.</_></rects>
      <tilted>0</tilted></_>
    <_>
      <rects>
        <_>
          1 0 1 6 -1.</_>
        <_>
          1 2 1 2 3.</_></rects>
      <tilted>0</tilted></_>
    <_>
      <rects>
        <_>
          1 0 9 20 -1.</_>
        <_>
          4 0 3 20 3.</_></rects>
      <tilted>0</tilted></_>
    <_>
      <rects>
        <_>
          1 0 18 2 -1.</_>
        <_>
          10 0 9 2 2.</_></rects>
      <tilted>0</tilted></_>
    <_>
      <rects>
        <_>
          1 0 23 14 -1.</_>
        <_>
          1 7 23 7 2.</_></rects>
      <tilted>0</tilted></_>
    <_>
      <rects>
        <_>
          1 1 2 1 -1.</_>
        <_>
          2 1 1 1 2.</_></rects>
      <tilted>0</tilted></_>
    <_>
      <rects>
        <_>
          1 1 12 5 -1.</_>
        <_>
          5 1 4 5 3.</_></rects>
      <tilted>0</tilted></_>
    <_>
      <rects>
        <_>
          1 2 9 1 -1.</_>
        <_>
          4 2 3 1 3.</_></rects>
      <tilted>0</tilted></_>
    <_>
      <rects>
        <_>
          1 3 15 19 -1.</_>
        <_>
          6 3 5 19 3.</_></rects>
      <tilted>0</tilted></_>
    <_>
      <rects>
        <_>
          1 5 22 16 -1.</_>
        <_>
          1 5 11 8 2.</_>
        <_>
          12 13 11 8 2.</_></rects>
      <tilted>0</tilted></_>
    <_>
      <rects>
        <_>
          1 7 4 15 -1.</_>
        <_>
          3 7 2 15 2.</_></rects>
      <tilted>0</tilted></_>
    <_>
      <rects>
        <_>
          1 8 3 8 -1.</_>
        <_>
          2 8 1 8 3.</_></rects>
      <tilted>0</tilted></_>
    <_>
      <rects>
        <_>
          1 8 20 10 -1.</_>
        <_>
          1 8 10 5 2.</_>
        <_>
          11 13 10 5 2.</_></rects>
      <tilted>0</tilted></_>
    <_>
      <rects>
        <_>
          1 10 3 8 -1.</_>
        <_>
          2 10 1 8 3.</_></rects>
      <tilted>0</tilted></_>
    <_>
      <rects>
        <_>
          1 15 1 9 -1.</_>
        <_>
          1 18 1 3 3.</_></rects>
      <tilted>0</tilted></_>
    <_>
      <rects>
        <_>
          1 22 3 1 -1.</_>
        <_>
          2 22 1 1 3.</_></rects>
      <tilted>0</tilted></_>
    <_>
      <rects>
        <_>
          2 0 22 6 -1.</_>
        <_>
          2 3 22 3 2.</_></rects>
      <tilted>0</tilted></_>
    <_>
      <rects>
        <_>
          2 1 3 3 -1.</_>
        <_>
          3 1 1 3 3.</_></rects>
      <tilted>0</tilted></_>
    <_>
      <rects>
        <_>
          2 3 5 12 -1.</_>
        <_>
          2 9 5 6 2.</_></rects>
      <tilted>0</tilted></_>
    <_>
      <rects>
        <_>
          2 3 19 6 -1.</_>
        <_>
          2 6 19 3 2.</_></rects>
      <tilted>0</tilted></_>
    <_>
      <rects>
        <_>
          2 4 22 20 -1.</_>
        <_>
          2 4 11 10 2.</_>
        <_>
          13 14 11 10 2.</_></rects>
      <tilted>0</tilted></_>
    <_>
      <rects>
        <_>
          2 14 6 3 -1.</_>
        <_>
          2 15 6 1 3.</_></rects>
      <tilted>0</tilted></_>
    <_>
      <rects>
        <_>
          2 14 15 6 -1.</_>
        <_>
          2 16 15 2 3.</_></rects>
      <tilted>0</tilted></_>
    <_>
      <rects>
        <_>
          2 16 6 3 -1.</_>
        <_>
          2 17 6 1 3.</_></rects>
      <tilted>0</tilted></_>
    <_>
      <rects>
        <_>
          2 17 13 3 -1.</_>
        <_>
          2 18 13 1 3.</_></rects>
      <tilted>0</tilted></_>
    <_>
      <rects>
        <_>
          2 22 2 1 -1.</_>
        <_>
          3 22 1 1 2.</_></rects>
      <tilted>0</tilted></_>
    <_>
      <rects>
        <_>
          2 23 15 1 -1.</_>
        <_>
          7 23 5 1 3.</_></rects>
      <tilted>0</tilted></_>
    <_>
      <rects>
        <_>
          3 3 2 10 -1.</_>
        <_>
          3 8 2 5 2.</_></rects>
      <tilted>0</tilted></_>
    <_>
      <rects>
        <_>
          3 5 3 14 -1.</_>
        <_>
          4 5 1 14 3.</_></rects>
      <tilted>0</tilted></_>
    <_>
      <rects>
        <_>
          3 10 6 2 -1.</_>
        <_>
          3 10 3 1 2.</_>
        <_>
          6 11 3 1 2.</_></rects>
      <tilted>0</tilted></_>
    <_>
      <rects>
        <_>
          3 10 18 6 -1.</_>
        <_>
          9 10 6 6 3.</_></rects>
      <tilted>0</tilted></_>
    <_>
      <rects>
        <_>
          3 11 3 12 -1.</_>
        <_>
          4 11 1 12 3.</_></rects>
      <tilted>0</tilted></_>
    <_>
      <rects>
        <_>
          3 12 16 6 -1.</_>
        <_>
          3 14 16 2 3.</_></rects>
      <tilted>0</tilted></_>
    <_>
      <rects>
        <_>
          3 12 17 12 -1.</_>
        <_>
          3 16 17 4 3.</_></rects>
      <tilted>0</tilted></_>
    <_>
      <rects>
        <_>
          3 14 3 1 -1.</_>
        <_>
          4 14 1 1 3.</_></rects>
      <tilted>0</tilted></_>
    <_>
      <rects>
        <_>
          3 14 2 2 -1.</_>
        <_>
          3 14 1 1 2.</_>
        <_>
          4 15 1 1 2.</_></rects>
      <tilted>0</tilted></_>
    <_>
      <rects>
        <_>
          3 14 15 9 -1.</_>
        <_>
          3 17 15 3 3.</_></rects>
      <tilted>0</tilted></_>
    <_>
      <rects>
        <_>
          3 20 14 4 -1.</_>
        <_>
          3 22 14 2 2.</_></rects>
      <tilted>0</tilted></_>
    <_>
      <rects>
        <_>
          3 20 16 4 -1.</_>
        <_>
          3 22 16 2 2.</_></rects>
      <tilted>0</tilted></_>
    <_>
      <rects>
        <_>
          4 0 4 1 -1.</_>
        <_>
          6 0 2 1 2.</_></rects>
      <tilted>0</tilted></_>
    <_>
      <rects>
        <_>
          4 0 6 1 -1.</_>
        <_>
          6 0 2 1 3.</_></rects>
      <tilted>0</tilted></_>
    <_>
      <rects>
        <_>
          4 2 2 1 -1.</_>
        <_>
          5 2 1 1 2.</_></rects>
      <tilted>0</tilted></_>
    <_>
      <rects>
        <_>
          4 8 12 4 -1.</_>
        <_>
          8 8 4 4 3.</_></rects>
      <tilted>0</tilted></_>
    <_>
      <rects>
        <_>
          4 9 18 3 -1.</_>
        <_>
          4 10 18 1 3.</_></rects>
      <tilted>0</tilted></_>
    <_>
      <rects>
        <_>
          4 10 9 3 -1.</_>
        <_>
          4 11 9 1 3.</_></rects>
      <tilted>0</tilted></_>
    <_>
      <rects>
        <_>
          4 11 14 12 -1.</_>
        <_>
          4 15 14 4 3.</_></rects>
      <tilted>0</tilted></_>
    <_>
      <rects>
        <_>
          4 11 16 6 -1.</_>
        <_>
          4 14 16 3 2.</_></rects>
      <tilted>0</tilted></_>
    <_>
      <rects>
        <_>
          4 14 18 3 -1.</_>
        <_>
          4 15 18 1 3.</_></rects>
      <tilted>0</tilted></_>
    <_>
      <rects>
        <_>
          4 15 4 8 -1.</_>
        <_>
          4 19 4 4 2.</_></rects>
      <tilted>0</tilted></_>
    <_>
      <rects>
        <_>
          4 15 15 9 -1.</_>
        <_>
          4 18 15 3 3.</_></rects>
      <tilted>0</tilted></_>
    <_>
      <rects>
        <_>
          4 18 13 6 -1.</_>
        <_>
          4 20 13 2 3.</_></rects>
      <tilted>0</tilted></_>
    <_>
      <rects>
        <_>
          4 18 15 6 -1.</_>
        <_>
          4 20 15 2 3.</_></rects>
      <tilted>0</tilted></_>
    <_>
      <rects>
        <_>
          4 18 20 6 -1.</_>
        <_>
          4 20 20 2 3.</_></rects>
      <tilted>0</tilted></_>
    <_>
      <rects>
        <_>
          4 20 19 4 -1.</_>
        <_>
          4 22 19 2 2.</_></rects>
      <tilted>0</tilted></_>
    <_>
      <rects>
        <_>
          4 23 2 1 -1.</_>
        <_>
          5 23 1 1 2.</_></rects>
      <tilted>0</tilted></_>
    <_>
      <rects>
        <_>
          4 23 3 1 -1.</_>
        <_>
          5 23 1 1 3.</_></rects>
      <tilted>0</tilted></_>
    <_>
      <rects>
        <_>
          5 5 4 12 -1.</_>
        <_>
          5 9 4 4 3.</_></rects>
      <tilted>0</tilted></_>
    <_>
      <rects>
        <_>
          5 5 11 9 -1.</_>
        <_>
          5 8 11 3 3.</_></rects>
      <tilted>0</tilted></_>
    <_>
      <rects>
        <_>
          5 7 12 5 -1.</_>
        <_>
          9 7 4 5 3.</_></rects>
      <tilted>0</tilted></_>
    <_>
      <rects>
        <_>
          5 9 13 3 -1.</_>
        <_>
          5 10 13 1 3.</_></rects>
      <tilted>0</tilted></_>
    <_>
      <rects>
        <_>
          5 10 14 4 -1.</_>
        <_>
          5 10 7 2 2.</_>
        <_>
          12 12 7 2 2.</_></rects>
      <tilted>0</tilted></_>
    <_>
      <rects>
        <_>
          5 13 11 3 -1.</_>
        <_>
          5 14 11 1 3.</_></rects>
      <tilted>0</tilted></_>
    <_>
      <rects>
        <_>
          5 13 17 3 -1.</_>
        <_>
          5 14 17 1 3.</_></rects>
      <tilted>0</tilted></_>
    <_>
      <rects>
        <_>
          5 14 17 3 -1.</_>
        <_>
          5 15 17 1 3.</_></rects>
      <tilted>0</tilted></_>
    <_>
      <rects>
        <_>
          5 15 2 9 -1.</_>
        <_>
          5 18 2 3 3.</_></rects>
      <tilted>0</tilted></_>
    <_>
      <rects>
        <_>
          5 16 2 8 -1.</_>
        <_>
          5 16 1 4 2.</_>
        <_>
          6 20 1 4 2.</_></rects>
      <tilted>0</tilted></_>
    <_>
      <rects>
        <_>
          5 19 6 2 -1.</_>
        <_>
          5 19 3 1 2.</_>
        <_>
          8 20 3 1 2.</_></rects>
      <tilted>0</tilted></_>
    <_>
      <rects>
        <_>
          6 0 1 10 -1.</_>
        <_>
          6 5 1 5 2.</_></rects>
      <tilted>0</tilted></_>
    <_>
      <rects>
        <_>
          6 0 6 13 -1.</_>
        <_>
          8 0 2 13 3.</_></rects>
      <tilted>0</tilted></_>
    <_>
      <rects>
        <_>
          6 0 18 11 -1.</_>
        <_>
          12 0 6 11 3.</_></rects>
      <tilted>0</tilted></_>
    <_>
      <rects>
        <_>
          6 0 10 8 -1.</_>
        <_>
          6 4 10 4 2.</_></rects>
      <tilted>0</tilted></_>
    <_>
      <rects>
        <_>
          6 0 12 10 -1.</_>
        <_>
          6 5 12 5 2.</_></rects>
      <tilted>0</tilted></_>
    <_>
      <rects>
        <_>
          6 0 18 8 -1.</_>
        <_>
          6 4 18 4 2.</_></rects>
      <tilted>0</tilted></_>
    <_>
      <rects>
        <_>
          6 1 12 12 -1.</_>
        <_>
          6 1 6 6 2.</_>
        <_>
          12 7 6 6 2.</_></rects>
      <tilted>0</tilted></_>
    <_>
      <rects>
        <_>
          6 2 10 9 -1.</_>
        <_>
          6 5 10 3 3.</_></rects>
      <tilted>0</tilted></_>
    <_>
      <rects>
        <_>
          6 4 1 2 -1.</_>
        <_>
          6 5 1 1 2.</_></rects>
      <tilted>0</tilted></_>
    <_>
      <rects>
        <_>
          6 4 18 5 -1.</_>
        <_>
          15 4 9 5 2.</_></rects>
      <tilted>0</tilted></_>
    <_>
      <rects>
        <_>
          6 6 4 2 -1.</_>
        <_>
          6 7 4 1 2.</_></rects>
      <tilted>0</tilted></_>
    <_>
      <rects>
        <_>
          6 7 3 8 -1.</_>
        <_>
          7 7 1 8 3.</_></rects>
      <tilted>0</tilted></_>
    <_>
      <rects>
        <_>
          6 12 3 10 -1.</_>
        <_>
          7 12 1 10 3.</_></rects>
      <tilted>0</tilted></_>
    <_>
      <rects>
        <_>
          6 13 2 2 -1.</_>
        <_>
          6 13 1 1 2.</_>
        <_>
          7 14 1 1 2.</_></rects>
      <tilted>0</tilted></_>
    <_>
      <rects>
        <_>
          6 22 2 2 -1.</_>
        <_>
          7 22 1 2 2.</_></rects>
      <tilted>0</tilted></_>
    <_>
      <rects>
        <_>
          6 23 12 1 -1.</_>
        <_>
          12 23 6 1 2.</_></rects>
      <tilted>0</tilted></_>
    <_>
      <rects>
        <_>
          7 0 8 22 -1.</_>
        <_>
          7 11 8 11 2.</_></rects>
      <tilted>0</tilted></_>
    <_>
      <rects>
        <_>
          7 4 15 9 -1.</_>
        <_>
          7 7 15 3 3.</_></rects>
      <tilted>0</tilted></_>
    <_>
      <rects>
        <_>
          7 5 6 9 -1.</_>
        <_>
          7 8 6 3 3.</_></rects>
      <tilted>0</tilted></_>
    <_>
      <rects>
        <_>
          7 7 4 12 -1.</_>
        <_>
          7 11 4 4 3.</_></rects>
      <tilted>0</tilted></_>
    <_>
      <rects>
        <_>
          7 12 12 12 -1.</_>
        <_>
          7 16 12 4 3.</_></rects>
      <tilted>0</tilted></_>
    <_>
      <rects>
        <_>
          7 18 8 6 -1.</_>
        <_>
          7 21 8 3 2.</_></rects>
      <tilted>0</tilted></_>
    <_>
      <rects>
        <_>
          7 18 9 3 -1.</_>
        <_>
          7 19 9 1 3.</_></rects>
      <tilted>0</tilted></_>
    <_>
      <rects>
        <_>
          8 0 14 14 -1.</_>
        <_>
          8 0 7 7 2.</_>
        <_>
          15 7 7 7 2.</_></rects>
      <tilted>0</tilted></_>
    <_>
      <rects>
        <_>
          8 0 14 24 -1.</_>
        <_>
          8 12 14 12 2.</_></rects>
      <tilted>0</tilted></_>
    <_>
      <rects>
        <_>
          8 10 12 3 -1.</_>
        <_>
          8 11 12 1 3.</_></rects>
      <tilted>0</tilted></_>
    <_>
      <rects>
        <_>
          8 14 1 2 -1.</_>
        <_>
          8 15 1 1 2.</_></rects>
      <tilted>0</tilted></_>
    <_>
      <rects>
        <_>
          8 15 11 9 -1.</_>
        <_>
          8 18 11 3 3.</_></rects>
      <tilted>0</tilted></_>
    <_>
      <rects>
        <_>
          8 18 16 3 -1.</_>
        <_>
          16 18 8 3 2.</_></rects>
      <tilted>0</tilted></_>
    <_>
      <rects>
        <_>
          8 23 3 1 -1.</_>
        <_>
          9 23 1 1 3.</_></rects>
      <tilted>0</tilted></_>
    <_>
      <rects>
        <_>
          9 0 15 1 -1.</_>
        <_>
          14 0 5 1 3.</_></rects>
      <tilted>0</tilted></_>
    <_>
      <rects>
        <_>
          9 1 2 8 -1.</_>
        <_>
          9 1 1 4 2.</_>
        <_>
          10 5 1 4 2.</_></rects>
      <tilted>0</tilted></_>
    <_>
      <rects>
        <_>
          9 2 8 20 -1.</_>
        <_>
          9 12 8 10 2.</_></rects>
      <tilted>0</tilted></_>
    <_>
      <rects>
        <_>
          9 2 9 12 -1.</_>
        <_>
          9 6 9 4 3.</_></rects>
      <tilted>0</tilted></_>
    <_>
      <rects>
        <_>
          9 4 2 6 -1.</_>
        <_>
          9 4 1 3 2.</_>
        <_>
          10 7 1 3 2.</_></rects>
      <tilted>0</tilted></_>
    <_>
      <rects>
        <_>
          9 5 15 3 -1.</_>
        <_>
          14 5 5 3 3.</_></rects>
      <tilted>0</tilted></_>
    <_>
      <rects>
        <_>
          9 8 2 2 -1.</_>
        <_>
          9 8 1 1 2.</_>
        <_>
          10 9 1 1 2.</_></rects>
      <tilted>0</tilted></_>
    <_>
      <rects>
        <_>
          9 13 9 11 -1.</_>
        <_>
          12 13 3 11 3.</_></rects>
      <tilted>0</tilted></_>
    <_>
      <rects>
        <_>
          9 15 2 2 -1.</_>
        <_>
          9 15 1 1 2.</_>
        <_>
          10 16 1 1 2.</_></rects>
      <tilted>0</tilted></_>
    <_>
      <rects>
        <_>
          9 16 6 3 -1.</_>
        <_>
          9 17 6 1 3.</_></rects>
      <tilted>0</tilted></_>
    <_>
      <rects>
        <_>
          9 17 3 2 -1.</_>
        <_>
          10 17 1 2 3.</_></rects>
      <tilted>0</tilted></_>
    <_>
      <rects>
        <_>
          9 19 8 4 -1.</_>
        <_>
          9 21 8 2 2.</_></rects>
      <tilted>0</tilted></_>
    <_>
      <rects>
        <_>
          9 21 6 2 -1.</_>
        <_>
          9 22 6 1 2.</_></rects>
      <tilted>0</tilted></_>
    <_>
      <rects>
        <_>
          9 22 4 1 -1.</_>
        <_>
          11 22 2 1 2.</_></rects>
      <tilted>0</tilted></_>
    <_>
      <rects>
        <_>
          9 23 2 1 -1.</_>
        <_>
          10 23 1 1 2.</_></rects>
      <tilted>0</tilted></_>
    <_>
      <rects>
        <_>
          9 23 3 1 -1.</_>
        <_>
          10 23 1 1 3.</_></rects>
      <tilted>0</tilted></_>
    <_>
      <rects>
        <_>
          10 9 3 10 -1.</_>
        <_>
          11 9 1 10 3.</_></rects>
      <tilted>0</tilted></_>
    <_>
      <rects>
        <_>
          10 9 11 12 -1.</_>
        <_>
          10 15 11 6 2.</_></rects>
      <tilted>0</tilted></_>
    <_>
      <rects>
        <_>
          10 14 3 1 -1.</_>
        <_>
          11 14 1 1 3.</_></rects>
      <tilted>0</tilted></_>
    <_>
      <rects>
        <_>
          10 16 2 4 -1.</_>
        <_>
          10 16 1 2 2.</_>
        <_>
          11 18 1 2 2.</_></rects>
      <tilted>0</tilted></_>
    <_>
      <rects>
        <_>
          10 22 1 2 -1.</_>
        <_>
          10 23 1 1 2.</_></rects>
      <tilted>0</tilted></_>
    <_>
      <rects>
        <_>
          10 23 2 1 -1.</_>
        <_>
          11 23 1 1 2.</_></rects>
      <tilted>0</tilted></_>
    <_>
      <rects>
        <_>
          11 0 12 9 -1.</_>
        <_>
          15 0 4 9 3.</_></rects>
      <tilted>0</tilted></_>
    <_>
      <rects>
        <_>
          11 2 9 19 -1.</_>
        <_>
          14 2 3 19 3.</_></rects>
      <tilted>0</tilted></_>
    <_>
      <rects>
        <_>
          11 7 1 2 -1.</_>
        <_>
          11 8 1 1 2.</_></rects>
      <tilted>0</tilted></_>
    <_>
      <rects>
        <_>
          11 9 3 5 -1.</_>
        <_>
          12 9 1 5 3.</_></rects>
      <tilted>0</tilted></_>
    <_>
      <rects>
        <_>
          11 9 4 9 -1.</_>
        <_>
          11 12 4 3 3.</_></rects>
      <tilted>0</tilted></_>
    <_>
      <rects>
        <_>
          11 10 3 3 -1.</_>
        <_>
          11 11 3 1 3.</_></rects>
      <tilted>0</tilted></_>
    <_>
      <rects>
        <_>
          11 12 2 2 -1.</_>
        <_>
          11 12 1 1 2.</_>
        <_>
          12 13 1 1 2.</_></rects>
      <tilted>0</tilted></_>
    <_>
      <rects>
        <_>
          11 13 3 1 -1.</_>
        <_>
          12 13 1 1 3.</_></rects>
      <tilted>0</tilted></_>
    <_>
      <rects>
        <_>
          11 16 2 2 -1.</_>
        <_>
          11 16 1 1 2.</_>
        <_>
          12 17 1 1 2.</_></rects>
      <tilted>0</tilted></_>
    <_>
      <rects>
        <_>
          11 19 4 3 -1.</_>
        <_>
          11 20 4 1 3.</_></rects>
      <tilted>0</tilted></_>
    <_>
      <rects>
        <_>
          11 20 11 4 -1.</_>
        <_>
          11 22 11 2 2.</_></rects>
      <tilted>0</tilted></_>
    <_>
      <rects>
        <_>
          12 1 3 18 -1.</_>
        <_>
          13 1 1 18 3.</_></rects>
      <tilted>0</tilted></_>
    <_>
      <rects>
        <_>
          12 7 3 6 -1.</_>
        <_>
          13 7 1 6 3.</_></rects>
      <tilted>0</tilted></_>
    <_>
      <rects>
        <_>
          12 14 12 9 -1.</_>
        <_>
          16 14 4 9 3.</_></rects>
      <tilted>0</tilted></_>
    <_>
      <rects>
        <_>
          12 16 3 2 -1.</_>
        <_>
          13 16 1 2 3.</_></rects>
      <tilted>0</tilted></_>
    <_>
      <rects>
        <_>
          12 17 3 1 -1.</_>
        <_>
          13 17 1 1 3.</_></rects>
      <tilted>0</tilted></_>
    <_>
      <rects>
        <_>
          12 17 2 2 -1.</_>
        <_>
          12 17 1 1 2.</_>
        <_>
          13 18 1 1 2.</_></rects>
      <tilted>0</tilted></_>
    <_>
      <rects>
        <_>
          12 21 3 3 -1.</_>
        <_>
          13 21 1 3 3.</_></rects>
      <tilted>0</tilted></_>
    <_>
      <rects>
        <_>
          12 22 3 2 -1.</_>
        <_>
          13 22 1 2 3.</_></rects>
      <tilted>0</tilted></_>
    <_>
      <rects>
        <_>
          13 3 6 6 -1.</_>
        <_>
          13 6 6 3 2.</_></rects>
      <tilted>0</tilted></_>
    <_>
      <rects>
        <_>
          13 10 1 2 -1.</_>
        <_>
          13 11 1 1 2.</_></rects>
      <tilted>0</tilted></_>
    <_>
      <rects>
        <_>
          13 11 2 1 -1.</_>
        <_>
          14 11 1 1 2.</_></rects>
      <tilted>0</tilted></_>
    <_>
      <rects>
        <_>
          13 12 2 6 -1.</_>
        <_>
          13 12 1 3 2.</_>
        <_>
          14 15 1 3 2.</_></rects>
      <tilted>0</tilted></_>
    <_>
      <rects>
        <_>
          13 18 8 2 -1.</_>
        <_>
          13 18 4 1 2.</_>
        <_>
          17 19 4 1 2.</_></rects>
      <tilted>0</tilted></_>
    <_>
      <rects>
        <_>
          13 23 8 1 -1.</_>
        <_>
          17 23 4 1 2.</_></rects>
      <tilted>0</tilted></_>
    <_>
      <rects>
        <_>
          14 0 10 15 -1.</_>
        <_>
          19 0 5 15 2.</_></rects>
      <tilted>0</tilted></_>
    <_>
      <rects>
        <_>
          14 5 3 9 -1.</_>
        <_>
          15 5 1 9 3.</_></rects>
      <tilted>0</tilted></_>
    <_>
      <rects>
        <_>
          14 6 3 9 -1.</_>
        <_>
          15 6 1 9 3.</_></rects>
      <tilted>0</tilted></_>
    <_>
      <rects>
        <_>
          14 6 6 7 -1.</_>
        <_>
          16 6 2 7 3.</_></rects>
      <tilted>0</tilted></_>
    <_>
      <rects>
        <_>
          14 11 10 10 -1.</_>
        <_>
          14 11 5 5 2.</_>
        <_>
          19 16 5 5 2.</_></rects>
      <tilted>0</tilted></_>
    <_>
      <rects>
        <_>
          14 18 10 6 -1.</_>
        <_>
          14 18 5 3 2.</_>
        <_>
          19 21 5 3 2.</_></rects>
      <tilted>0</tilted></_>
    <_>
      <rects>
        <_>
          14 21 1 2 -1.</_>
        <_>
          14 22 1 1 2.</_></rects>
      <tilted>0</tilted></_>
    <_>
      <rects>
        <_>
          14 23 3 1 -1.</_>
        <_>
          15 23 1 1 3.</_></rects>
      <tilted>0</tilted></_>
    <_>
      <rects>
        <_>
          14 23 6 1 -1.</_>
        <_>
          16 23 2 1 3.</_></rects>
      <tilted>0</tilted></_>
    <_>
      <rects>
        <_>
          15 0 9 24 -1.</_>
        <_>
          18 0 3 24 3.</_></rects>
      <tilted>0</tilted></_>
    <_>
      <rects>
        <_>
          15 0 8 16 -1.</_>
        <_>
          15 8 8 8 2.</_></rects>
      <tilted>0</tilted></_>
    <_>
      <rects>
        <_>
          15 7 9 15 -1.</_>
        <_>
          18 7 3 15 3.</_></rects>
      <tilted>0</tilted></_>
    <_>
      <rects>
        <_>
          15 13 3 3 -1.</_>
        <_>
          16 13 1 3 3.</_></rects>
      <tilted>0</tilted></_>
    <_>
      <rects>
        <_>
          15 15 2 1 -1.</_>
        <_>
          16 15 1 1 2.</_></rects>
      <tilted>0</tilted></_>
    <_>
      <rects>
        <_>
          15 16 4 3 -1.</_>
        <_>
          15 17 4 1 3.</_></rects>
      <tilted>0</tilted></_>
    <_>
      <rects>
        <_>
          16 0 6 1 -1.</_>
        <_>
          18 0 2 1 3.</_></rects>
      <tilted>0</tilted></_>
    <_>
      <rects>
        <_>
          16 6 2 12 -1.</_>
        <_>
          16 6 1 6 2.</_>
        <_>
          17 12 1 6 2.</_></rects>
      <tilted>0</tilted></_>
    <_>
      <rects>
        <_>
          16 11 3 1 -1.</_>
        <_>
          17 11 1 1 3.</_></rects>
      <tilted>0</tilted></_>
    <_>
      <rects>
        <_>
          16 12 1 3 -1.</_>
        <_>
          16 13 1 1 3.</_></rects>
      <tilted>0</tilted></_>
    <_>
      <rects>
        <_>
          16 22 2 2 -1.</_>
        <_>
          17 22 1 2 2.</_></rects>
      <tilted>0</tilted></_>
    <_>
      <rects>
        <_>
          16 23 2 1 -1.</_>
        <_>
          17 23 1 1 2.</_></rects>
      <tilted>0</tilted></_>
    <_>
      <rects>
        <_>
          16 23 3 1 -1.</_>
        <_>
          17 23 1 1 3.</_></rects>
      <tilted>0</tilted></_>
    <_>
      <rects>
        <_>
          16 23 4 1 -1.</_>
        <_>
          18 23 2 1 2.</_></rects>
      <tilted>0</tilted></_>
    <_>
      <rects>
        <_>
          16 23 6 1 -1.</_>
        <_>
          18 23 2 1 3.</_></rects>
      <tilted>0</tilted></_>
    <_>
      <rects>
        <_>
          17 0 6 1 -1.</_>
        <_>
          20 0 3 1 2.</_></rects>
      <tilted>0</tilted></_>
    <_>
      <rects>
        <_>
          17 3 6 6 -1.</_>
        <_>
          17 5 6 2 3.</_></rects>
      <tilted>0</tilted></_>
    <_>
      <rects>
        <_>
          17 8 2 2 -1.</_>
        <_>
          17 8 1 1 2.</_>
        <_>
          18 9 1 1 2.</_></rects>
      <tilted>0</tilted></_>
    <_>
      <rects>
        <_>
          17 16 1 2 -1.</_>
        <_>
          17 17 1 1 2.</_></rects>
      <tilted>0</tilted></_>
    <_>
      <rects>
        <_>
          17 18 6 6 -1.</_>
        <_>
          20 18 3 6 2.</_></rects>
      <tilted>0</tilted></_>
    <_>
      <rects>
        <_>
          17 19 6 3 -1.</_>
        <_>
          19 19 2 3 3.</_></rects>
      <tilted>0</tilted></_>
    <_>
      <rects>
        <_>
          17 23 6 1 -1.</_>
        <_>
          19 23 2 1 3.</_></rects>
      <tilted>0</tilted></_>
    <_>
      <rects>
        <_>
          18 0 1 16 -1.</_>
        <_>
          18 8 1 8 2.</_></rects>
      <tilted>0</tilted></_>
    <_>
      <rects>
        <_>
          18 4 6 17 -1.</_>
        <_>
          21 4 3 17 2.</_></rects>
      <tilted>0</tilted></_>
    <_>
      <rects>
        <_>
          18 8 5 3 -1.</_>
        <_>
          18 9 5 1 3.</_></rects>
      <tilted>0</tilted></_>
    <_>
      <rects>
        <_>
          18 12 2 2 -1.</_>
        <_>
          18 12 1 1 2.</_>
        <_>
          19 13 1 1 2.</_></rects>
      <tilted>0</tilted></_>
    <_>
      <rects>
        <_>
          18 14 4 3 -1.</_>
        <_>
          18 15 4 1 3.</_></rects>
      <tilted>0</tilted></_>
    <_>
      <rects>
        <_>
          18 16 2 1 -1.</_>
        <_>
          19 16 1 1 2.</_></rects>
      <tilted>0</tilted></_>
    <_>
      <rects>
        <_>
          18 18 2 1 -1.</_>
        <_>
          19 18 1 1 2.</_></rects>
      <tilted>0</tilted></_>
    <_>
      <rects>
        <_>
          18 20 2 4 -1.</_>
        <_>
          18 20 1 2 2.</_>
        <_>
          19 22 1 2 2.</_></rects>
      <tilted>0</tilted></_>
    <_>
      <rects>
        <_>
          19 1 2 1 -1.</_>
        <_>
          20 1 1 1 2.</_></rects>
      <tilted>0</tilted></_>
    <_>
      <rects>
        <_>
          19 16 2 2 -1.</_>
        <_>
          19 16 1 1 2.</_>
        <_>
          20 17 1 1 2.</_></rects>
      <tilted>0</tilted></_>
    <_>
      <rects>
        <_>
          19 17 2 2 -1.</_>
        <_>
          19 17 1 1 2.</_>
        <_>
          20 18 1 1 2.</_></rects>
      <tilted>0</tilted></_>
    <_>
      <rects>
        <_>
          19 18 2 2 -1.</_>
        <_>
          19 18 1 1 2.</_>
        <_>
          20 19 1 1 2.</_></rects>
      <tilted>0</tilted></_>
    <_>
      <rects>
        <_>
          19 22 3 2 -1.</_>
        <_>
          20 22 1 2 3.</_></rects>
      <tilted>0</tilted></_>
    <_>
      <rects>
        <_>
          19 23 2 1 -1.</_>
        <_>
          20 23 1 1 2.</_></rects>
      <tilted>0</tilted></_>
    <_>
      <rects>
        <_>
          20 0 2 3 -1.</_>
        <_>
          21 0 1 3 2.</_></rects>
      <tilted>0</tilted></_>
    <_>
      <rects>
        <_>
          20 0 4 4 -1.</_>
        <_>
          20 0 2 2 2.</_>
        <_>
          22 2 2 2 2.</_></rects>
      <tilted>0</tilted></_>
    <_>
      <rects>
        <_>
          20 0 4 3 -1.</_>
        <_>
          22 0 2 3 2.</_></rects>
      <tilted>0</tilted></_>
    <_>
      <rects>
        <_>
          20 1 3 1 -1.</_>
        <_>
          21 1 1 1 3.</_></rects>
      <tilted>0</tilted></_>
    <_>
      <rects>
        <_>
          20 1 4 2 -1.</_>
        <_>
          22 1 2 2 2.</_></rects>
      <tilted>0</tilted></_>
    <_>
      <rects>
        <_>
          20 1 3 3 -1.</_>
        <_>
          20 2 3 1 3.</_></rects>
      <tilted>0</tilted></_>
    <_>
      <rects>
        <_>
          20 2 3 4 -1.</_>
        <_>
          20 4 3 2 2.</_></rects>
      <tilted>0</tilted></_>
    <_>
      <rects>
        <_>
          20 4 4 17 -1.</_>
        <_>
          22 4 2 17 2.</_></rects>
      <tilted>0</tilted></_>
    <_>
      <rects>
        <_>
          20 6 4 11 -1.</_>
        <_>
          22 6 2 11 2.</_></rects>
      <tilted>0</tilted></_>
    <_>
      <rects>
        <_>
          20 6 4 14 -1.</_>
        <_>
          22 6 2 14 2.</_></rects>
      <tilted>0</tilted></_>
    <_>
      <rects>
        <_>
          20 8 2 8 -1.</_>
        <_>
          20 8 1 4 2.</_>
        <_>
          21 12 1 4 2.</_></rects>
      <tilted>0</tilted></_>
    <_>
      <rects>
        <_>
          20 18 3 3 -1.</_>
        <_>
          21 18 1 3 3.</_></rects>
      <tilted>0</tilted></_>
    <_>
      <rects>
        <_>
          21 1 1 3 -1.</_>
        <_>
          21 2 1 1 3.</_></rects>
      <tilted>0</tilted></_>
    <_>
      <rects>
        <_>
          21 1 2 3 -1.</_>
        <_>
          21 2 2 1 3.</_></rects>
      <tilted>0</tilted></_>
    <_>
      <rects>
        <_>
          21 3 3 2 -1.</_>
        <_>
          21 4 3 1 2.</_></rects>
      <tilted>0</tilted></_>
    <_>
      <rects>
        <_>
          21 16 1 8 -1.</_>
        <_>
          21 20 1 4 2.</_></rects>
      <tilted>0</tilted></_>
    <_>
      <rects>
        <_>
          22 0 2 1 -1.</_>
        <_>
          23 0 1 1 2.</_></rects>
      <tilted>0</tilted></_>
    <_>
      <rects>
        <_>
          22 9 2 8 -1.</_>
        <_>
          23 9 1 8 2.</_></rects>
      <tilted>0</tilted></_></features></cascade>
</opencv_storage>
